{"embedding/weights:0": [[-0.04452526569366455, 0.28610333800315857, 0.17634204030036926, -0.38168632984161377, -0.24420136213302612, 0.07536029815673828, 0.11546525359153748, 0.0506250262260437, -0.012005716562271118, -0.12177398800849915, -0.29576271772384644], [-0.3049047589302063, -0.22516576945781708, -0.38829755783081055, -0.01888837292790413, 0.5116173028945923, -0.5709429979324341, -0.002503723604604602, 0.336905300617218, -0.1324557662010193, 0.2843029201030731, 0.5464878082275391], [0.5404784679412842, 0.5498362183570862, 0.1667269468307495, -0.054686859250068665, -0.5133653283119202, 0.43449804186820984, 0.3868878483772278, -0.12821730971336365, 0.1261056661605835, -0.08289764821529388, -0.5121147632598877], [0.2427881360054016, -0.15918627381324768, 0.6193487048149109, 0.5389059782028198, 0.2889900207519531, -0.10347061604261398, 0.2511039674282074, 0.20296631753444672, -0.3009577691555023, -0.054360952228307724, -0.5764301419258118], [0.04615797474980354, 0.05239042639732361, 0.2301303595304489, -0.40845978260040283, -0.1332092583179474, 0.004911413881927729, 0.9401751160621643, 0.2749107778072357, -0.03916255384683609, 0.18879500031471252, -0.5545434355735779], [0.37890443205833435, -0.11069056391716003, -0.5203781723976135, 0.14299924671649933, -0.6222929954528809, -0.7648836970329285, -0.06367526948451996, 0.05029479041695595, 0.4415358006954193, 0.03335690498352051, -0.10229046642780304], [-0.30925452709198, -0.5810078978538513, -0.19059574604034424, 0.23951753973960876, -0.23621898889541626, -0.1636071801185608, 0.07939646393060684, -0.30269935727119446, 0.02764279767870903, -0.2217428833246231, 0.05815824493765831], [0.07613160461187363, 0.36563482880592346, 0.30697599053382874, 0.09932971000671387, -0.09253793209791183, -0.22152197360992432, -0.42506200075149536, -0.1994098275899887, -0.07271593809127808, -0.040866363793611526, 0.26917803287506104], [0.3572906255722046, 0.47286567091941833, -0.09078777581453323, 0.3826022744178772, -0.2580678164958954, 0.09229733049869537, -0.4647853970527649, -0.15731826424598694, 0.036129582673311234, -0.20931251347064972, -0.36908259987831116], [0.22267699241638184, -0.08454766869544983, 0.11704345792531967, 0.2515730857849121, -0.01716943085193634, 0.08504845201969147, -0.14150314033031464, 0.49365827441215515, 0.7040435671806335, 0.5145279169082642, 0.19829680025577545], [-0.33852851390838623, 0.30894818902015686, 0.2732742130756378, 0.1321825087070465, -0.2566447854042053, -0.16429033875465393, 0.1661301553249359, -0.3655867278575897, -0.37733277678489685, -0.3099397122859955, -0.3585718870162964], [0.4544588625431061, -0.2038767784833908, -0.1387268602848053, 0.18312570452690125, 0.20632073283195496, -0.022901756688952446, 0.5489456653594971, -0.025496892631053925, 0.0379730686545372, 0.15136627852916718, 0.16262692213058472], [-0.5170643329620361, 0.827949047088623, 0.14177437126636505, -0.3297150731086731, 0.16248062252998352, -0.36735615134239197, -0.5669033527374268, 0.34019872546195984, -0.10957764834165573, -0.2823444902896881, -0.04744913429021835], [-0.02454412542283535, 0.16161465644836426, 0.0416703075170517, 0.29548120498657227, 0.0936598926782608, 0.13982151448726654, -0.07384471595287323, 0.14420749247074127, -0.32670801877975464, 0.04661901667714119, -0.07615456730127335], [0.5298144817352295, -0.39139384031295776, -0.22209569811820984, -0.1658887267112732, -0.014511428773403168, 0.4067870080471039, -0.35745906829833984, 0.02650555782020092, 0.39406144618988037, -0.19249193370342255, -0.017268454656004906], [-0.12462807446718216, -0.06834770739078522, -0.47610995173454285, 0.003675287589430809, -0.028511404991149902, 0.13885308802127838, -0.2304171323776245, -0.22920238971710205, 0.37293675541877747, 0.2094750702381134, 0.742404580116272], [0.2908496558666229, 0.15166953206062317, -0.2088910937309265, 0.06799381226301193, -0.35098400712013245, -0.21528205275535583, 0.15245245397090912, 0.15744926035404205, 0.3577148914337158, 0.3704046308994293, 0.04823444038629532], [0.12253119051456451, -0.042128417640924454, 0.04901114106178284, -0.16091641783714294, -0.310451865196228, -0.23725512623786926, 0.07699880003929138, 0.127139613032341, 0.029012927785515785, 0.23523548245429993, -0.04411659017205238], [0.15908454358577728, 0.032387275248765945, -0.04469309002161026, -0.4192226827144623, 0.023802561685442924, 0.18732857704162598, 0.3251962959766388, -0.035680413246154785, -0.27104708552360535, -0.17235176265239716, 0.5275095701217651], [-0.11155189573764801, 0.29651758074760437, 0.2853609323501587, 0.45963481068611145, -0.45329970121383667, -0.5266225934028625, 0.6041078567504883, -0.09494015574455261, 0.05162971466779709, 0.08279603719711304, 0.42384830117225647], [-0.30875808000564575, -0.23462609946727753, 0.3992774486541748, -0.09972678869962692, 0.21881520748138428, -0.03352753445506096, -0.22717908024787903, -0.5296591520309448, 0.32590216398239136, 0.35700565576553345, -0.40706199407577515], [-0.4622366428375244, -0.11490465700626373, -0.3517242670059204, 0.05316200852394104, -0.11735732853412628, 0.46425342559814453, 0.27155962586402893, 0.2813863158226013, -0.18905499577522278, 0.16218146681785583, 0.423481822013855], [-0.07546225935220718, -0.12807826697826385, -0.8549489378929138, -0.3325812816619873, 0.39415761828422546, 0.1848101019859314, -0.04026252403855324, -0.2382282316684723, -0.23793303966522217, -0.10251904278993607, -0.005789799150079489], [0.1393340677022934, -0.2954159080982208, 0.8488879799842834, 0.3175767660140991, -0.30625608563423157, 0.25077155232429504, 0.4411209225654602, 0.21169619262218475, 0.021430641412734985, -0.26265063881874084, -0.007662004325538874], [-0.2165766805410385, -0.21769122779369354, -0.11805185675621033, -0.20165719091892242, -0.2949855625629425, 0.22005996108055115, -0.13298895955085754, 0.19790759682655334, 0.13510778546333313, 0.22851476073265076, 0.10167098045349121], [0.04450273886322975, 0.5203647017478943, -0.46810516715049744, -0.048619888722896576, 0.17709629237651825, -0.1303955316543579, -0.030686045065522194, -0.27921542525291443, -0.3220374882221222, 0.08697512000799179, -0.3990577161312103], [0.335245817899704, 0.21492132544517517, -0.2937009334564209, -0.17010289430618286, -0.027853786945343018, -0.10259690880775452, -0.2939533591270447, -0.25177085399627686, 0.16805878281593323, -0.26071295142173767, -0.22798055410385132], [-0.24123527109622955, 0.05231839790940285, -0.4357489049434662, 0.582996129989624, 0.19389724731445312, 0.4661896228790283, 0.4940306544303894, -0.14179955422878265, 0.9987087249755859, -0.7803196907043457, 0.06493881344795227], [-0.24614378809928894, -0.1973118931055069, 0.3392430245876312, 0.33093008399009705, -0.5896558165550232, -0.006892029661685228, -0.29429173469543457, 0.35595637559890747, -0.18757514655590057, 0.007503076456487179, -0.01950758881866932], [0.25157859921455383, 0.20656827092170715, 0.035151273012161255, 0.34207066893577576, 0.13734868168830872, 0.3115369975566864, -0.06630346179008484, 0.005956768989562988, 0.07106286287307739, 0.14230212569236755, 0.24896863102912903]], "processed_times/kernel:0": [[[2.152336597442627, 0.3938277065753937, -0.11744219809770584, 0.4803469777107239, -3.666238784790039], [1.086057424545288, -2.5428245067596436, 0.9761769771575928, 2.0435574054718018, 1.1633549928665161]]], "processed_times/bias:0": [-0.47225961089134216, 0.16991889476776123, 1.463903784751892, -0.5309295654296875, 0.12805943191051483], "rnn/multi_rnn_cell/cell_0/lstm_fw_0/kernel:0": [[-0.4070228636264801, -0.19099703431129456, -0.018652355298399925, -0.0382893830537796, 0.07321825623512268, -0.026730095967650414, -0.14137457311153412, -0.1543768048286438, -0.12187361717224121, 0.1650567352771759, 0.08670490980148315, 0.07841925323009491, -0.02697521448135376, 0.19194374978542328, 0.05465196073055267, -0.01690981350839138, -0.0853724405169487, -0.0690462589263916, -0.08979485183954239, 0.3036655783653259, 0.17007142305374146, -0.03786691650748253, -0.39134109020233154, -0.16912098228931427, 0.05210324376821518, -0.2228182703256607, 0.3680211007595062, 0.45547953248023987, 0.18768882751464844, 0.19006584584712982, 0.03060765191912651, 0.03565915673971176, 0.7306779026985168, -0.38431841135025024, -0.0001268732885364443, 0.1574195772409439, 0.7531103491783142, -0.726762592792511, -0.12720230221748352, 0.07721484452486038, 0.07596099376678467, 0.23093193769454956, -0.020552784204483032, -0.04613829404115677, 0.032814521342515945, -0.10990351438522339, 0.23254835605621338, -0.7328532934188843, 0.06530176103115082, 0.14172959327697754, -0.07568833231925964, -0.4767727851867676, -0.04764864593744278, -0.5935230255126953, 0.07271299511194229, 0.388594388961792, 0.6965590715408325, -0.03781000152230263, 0.14657288789749146, 0.21666277945041656, 0.1802823394536972, 0.25158771872520447, -0.20489077270030975, -0.26109930872917175, 0.02121410146355629, -0.13602808117866516, -0.12312887609004974, 0.354926198720932, 0.038855209946632385, -0.11567771434783936, -0.0324336513876915, -0.08649306744337082, -0.07454129308462143, -0.17188210785388947, 0.14958420395851135, 0.20181314647197723, -0.021897124126553535, -0.058162666857242584, 0.13374371826648712, 0.12760202586650848, 0.15319392085075378, 0.09602352976799011, -0.12368355691432953, -0.10453253239393234, -0.03402649983763695, 0.13674570620059967, 0.057900477200746536, 0.07088112086057663, 0.03810197860002518, -0.1140664741396904, -0.05665278434753418, -0.07573086023330688, -0.08278220146894455, -0.07047169655561447, -0.14399582147598267, -0.05827930197119713, -0.08112385869026184, 0.09108937531709671, 0.01019902154803276, 0.2844400405883789, -0.2833786904811859, -0.14433476328849792, 0.03886667639017105, -0.22327177226543427, 0.1827603131532669, -0.16204486787319183, 0.05560542270541191, 0.11636853963136673, -0.23045098781585693, 0.10325934737920761, -0.05674818158149719, -0.3052337169647217, -0.005118356551975012, 0.24535702168941498, -0.054841771721839905, -0.040273867547512054, -0.06429007649421692, 0.0452895313501358, 0.1238698735833168, -0.050179608166217804, -0.12459158897399902, -0.1403961479663849, 0.25255638360977173, -0.15191081166267395, 0.07319982349872589, 0.02493908815085888, 0.12779352068901062, 0.16521240770816803], [1.0357468128204346, 0.17625942826271057, -0.04519800841808319, 0.004357856698334217, -0.21723346412181854, 0.19330860674381256, 0.08824562281370163, 0.06908145546913147, -0.14517948031425476, -0.05530900880694389, -0.04999375715851784, 0.16484211385250092, 0.14148956537246704, 0.1423487514257431, -0.2930614650249481, -0.07743402570486069, 0.49599581956863403, -0.06751800328493118, 0.07843229919672012, -0.23759914934635162, -0.13044635951519012, 0.12985187768936157, 1.0257247686386108, 0.3163556158542633, -0.1636914610862732, 0.40031149983406067, -0.26246875524520874, 0.24663306772708893, -0.10588818788528442, -0.13928602635860443, -0.07236489653587341, -0.23904992640018463, -1.5347285270690918, 0.0645744651556015, 0.15022329986095428, 0.4187098443508148, -0.16389241814613342, -0.18917308747768402, 0.17901040613651276, 0.2748672068119049, -0.023813888430595398, 0.0913386344909668, -0.08472508192062378, -0.5376498699188232, 0.1978391408920288, -0.022663377225399017, -0.0503586046397686, 0.11610904335975647, -0.558854877948761, 0.29047325253486633, 0.15248769521713257, -0.13942411541938782, 0.023211507126688957, 0.07082852721214294, -1.0197818279266357, -0.17353525757789612, 0.22720980644226074, -0.5996397137641907, 0.11059169471263885, -0.2623375952243805, -0.46125996112823486, 0.33322957158088684, -0.16584143042564392, -0.13203105330467224, -0.42062318325042725, -0.3896104693412781, 0.19290536642074585, -0.6713577508926392, -0.4210788309574127, -0.28716349601745605, -0.363592267036438, -0.2889266014099121, -0.014425109140574932, -0.1459713727235794, -0.3260875940322876, -0.44743964076042175, -0.2561354339122772, -0.7078272700309753, -0.20419162511825562, -0.5945025086402893, -0.19179970026016235, -0.3180214464664459, -0.3659828007221222, -0.42664918303489685, -0.4030665159225464, -0.09618505090475082, -0.5190947651863098, -0.10881610959768295, -0.18008586764335632, -0.3129655122756958, -0.4870748817920685, -0.6100713610649109, -0.440516859292984, -0.362196147441864, 0.020237190648913383, -0.3228382468223572, 0.10130690038204193, -0.060653142631053925, 0.053002357482910156, -0.2531627118587494, -0.09695499390363693, 0.008494630455970764, -0.25054123997688293, 0.17718306183815002, 0.06282731890678406, 0.17351995408535004, -0.015330818481743336, -0.1828470230102539, 0.12364427745342255, -0.045331038534641266, 0.022111406549811363, 0.1238645687699318, -0.18557773530483246, -0.060594379901885986, 0.32929232716560364, -0.020674189552664757, -0.09561659395694733, -0.1237449049949646, -0.09218262135982513, -0.012843489646911621, 0.012130971066653728, 0.04970568045973778, -0.04053392633795738, -0.21857723593711853, -0.04197753965854645, -0.2648235261440277, 0.18053987622261047, -0.1847659945487976], [-1.0154426097869873, -0.4553253650665283, 0.2042909562587738, -0.14802765846252441, -0.012709416449069977, -0.07020284980535507, -0.05235082283616066, -0.026153357699513435, -0.10088445246219635, 0.05033484101295471, -0.18500998616218567, 0.07734904438257217, -0.0008416396449320018, -0.14272303879261017, -0.011780541390180588, -0.7301721572875977, -0.3369746506214142, -0.2121126502752304, -0.3527328670024872, -0.05107790604233742, -0.13403192162513733, 0.1670212745666504, -0.8666447401046753, 0.09339969605207443, 0.022035062313079834, -0.3804294764995575, -0.027011072263121605, -0.7150319218635559, -0.2550577223300934, 0.16335754096508026, 0.28805309534072876, -0.003640473121777177, 0.45548486709594727, 0.1767037957906723, 0.023405957967042923, 0.20614032447338104, -0.016651352867484093, -0.19681726396083832, 0.11408928036689758, -0.06078590452671051, -0.02777232974767685, 0.12852810323238373, -0.006507336627691984, -0.04024716094136238, -0.07506931573152542, -0.06857656687498093, 0.04877326264977455, 0.20642727613449097, -0.0011129704071208835, 0.07059921324253082, -0.055192090570926666, 0.07839206606149673, 0.04007502645254135, 0.08376628160476685, 0.30382993817329407, 0.16904957592487335, 0.16828398406505585, -0.017291607335209846, -0.09585736691951752, 0.1784670501947403, 0.014539383351802826, 0.0031744930893182755, 0.06768642365932465, -0.10016687214374542, 0.8869056701660156, 0.5116289854049683, -0.15079982578754425, 0.5410895347595215, 0.9100610017776489, 0.42258161306381226, 0.29190170764923096, 0.4900520145893097, 0.09466526657342911, 0.12033621221780777, 0.3613939583301544, 0.48313674330711365, 0.5602859258651733, 0.878541886806488, 0.6207519173622131, 1.0972917079925537, 0.6258806586265564, 0.5759308338165283, 0.7038870453834534, 0.8070564270019531, 0.4880286753177643, 0.6557611227035522, 0.601730465888977, 0.3186447322368622, 0.35984349250793457, 0.9583371877670288, 0.9105650782585144, 1.156646490097046, 0.7781640887260437, 0.871682345867157, 0.5790817737579346, 0.7859553694725037, 0.6249017715454102, 0.2891372740268707, 0.2694891095161438, 0.20746859908103943, 0.37084197998046875, 0.09954346716403961, 0.20919957756996155, -0.021751871332526207, -0.11769979447126389, -0.17158374190330505, 0.1998927742242813, 0.10498608648777008, -0.15522000193595886, 0.26861557364463806, -0.001387371914461255, 0.4551304280757904, 0.22130095958709717, 0.16314204037189484, -0.00957905687391758, 0.22417518496513367, -0.06761039793491364, -0.06188223510980606, 0.08262764662504196, 0.16394904255867004, 0.12353421747684479, 0.25229597091674805, 0.06729194521903992, 0.24226580560207367, 0.008698638528585434, 0.11432060599327087, 0.03422753885388374, -0.027025405317544937], [-0.5078570246696472, -0.22535637021064758, -0.1251043826341629, -0.13349409401416779, -0.15224502980709076, 0.061421122401952744, 0.27177757024765015, -0.06506640464067459, 0.13091535866260529, -0.1232602596282959, 0.09851768612861633, 0.0007174923084676266, -0.21414485573768616, -0.005461977794766426, -0.08709979802370071, 0.08663570880889893, -0.3063028156757355, 0.2362036556005478, -0.07830940932035446, 0.10035819560289383, 0.33934256434440613, 0.016123667359352112, -0.46814653277397156, -0.3030504882335663, 0.2795889973640442, -0.2437729835510254, 0.5363293290138245, 0.15203246474266052, 0.055973563343286514, -0.14367148280143738, 0.1712205559015274, 0.30360129475593567, 1.1641628742218018, -0.34655046463012695, -0.2982240915298462, 0.07271227240562439, 0.17883244156837463, -0.1180206909775734, 0.032314613461494446, -0.16021834313869476, -0.010425901040434837, 0.21330857276916504, -0.07653895765542984, 0.07038936764001846, -0.2918536067008972, 0.30655062198638916, 0.24543339014053345, -0.20810416340827942, 0.21486631035804749, -0.17923414707183838, -0.014765135943889618, -0.20366410911083221, -0.0008210878004319966, -0.16239537298679352, 0.6025691628456116, 0.23790916800498962, 0.10267660766839981, 0.2955872714519501, 0.22708465158939362, 0.45678675174713135, 0.2089519202709198, -0.0052052210085093975, 0.1720818132162094, -0.11919185519218445, -0.3625626266002655, -0.1523957997560501, 0.00361045659519732, 0.352626770734787, 0.011322107166051865, -0.06178176775574684, 0.17488113045692444, -0.024703698232769966, 0.0035316674038767815, -0.26766735315322876, 0.09368032217025757, 0.2961846590042114, 0.007434423081576824, 0.1880490630865097, -0.06721485406160355, -0.15686368942260742, -0.09865611046552658, 0.04222249612212181, -0.01548403687775135, 0.2083442509174347, 0.1494182050228119, 0.12623251974582672, -0.036155201494693756, -0.09326210618019104, -0.08727914839982986, -0.0034948918037116528, 0.05767376348376274, -0.02600032091140747, -0.21778076887130737, 0.07365403324365616, -0.0861806645989418, 0.04094265401363373, -0.1872827410697937, -0.12991955876350403, -0.0807909145951271, 0.061439063400030136, -0.030081920325756073, -0.09582684189081192, 0.09651998430490494, 0.05236043408513069, -0.01404125802218914, 0.09219008684158325, -0.028642987832427025, 0.08235490322113037, -0.14222972095012665, -0.15888023376464844, -0.27891281247138977, -0.06374645233154297, -0.1460430771112442, -0.008312806487083435, -0.1656021624803543, 0.1421786993741989, 0.06191543862223625, 0.11722591519355774, -0.058776069432497025, -0.18111446499824524, 0.04374731704592705, -0.09018825739622116, 0.03158431127667427, -0.11940599232912064, 0.06917184591293335, 0.1261684000492096, -0.19402091205120087, 0.0016459155594930053], [-0.776578962802887, 0.21328842639923096, -0.05209561809897423, -0.08006172627210617, 0.2129102349281311, 0.36838456988334656, 0.1314389407634735, -0.11619926989078522, -0.1373719722032547, 0.19494692981243134, -0.08896937221288681, -0.08899929374456406, -0.10038977116346359, -0.10330376029014587, -0.22855111956596375, 0.2856958210468292, -0.17092125117778778, -0.16077053546905518, 0.05404472351074219, 0.21922560036182404, 0.29656898975372314, 0.1900457888841629, -0.12346647679805756, 0.0745733231306076, 0.17542985081672668, 0.02612324059009552, 0.3120085895061493, -0.43494969606399536, -0.04961296543478966, -0.03247382864356041, -0.026675185188651085, 0.22823494672775269, 0.7299429178237915, 0.8018972873687744, -0.040527090430259705, 0.27601760625839233, -1.2354445457458496, 0.8693823218345642, -0.11999751627445221, -0.20429500937461853, 0.10142716765403748, 0.1329602152109146, -0.07577712088823318, -0.017064156010746956, -0.1556231528520584, 0.016139104962348938, 0.12605378031730652, 1.2646377086639404, 0.4905949532985687, 0.13330498337745667, -0.1635388731956482, 0.668954610824585, -0.15534424781799316, 0.7657356858253479, 0.9839119911193848, 0.09757716208696365, -0.6682301759719849, -0.10630214214324951, 0.054307978600263596, -0.21874871850013733, -0.372704416513443, -0.22222091257572174, 0.48973551392555237, 0.5400897860527039, -0.0006903923349454999, -0.026351483538746834, -0.256905198097229, 0.012488385662436485, 0.019572898745536804, 0.1245143786072731, 0.07120946049690247, 0.1974734216928482, -0.023644981905817986, -0.08490728586912155, 0.04242325201630592, 0.23169922828674316, 0.07870164513587952, -0.0032011670991778374, 0.04337122663855553, -0.1350441575050354, -0.032329291105270386, 0.017856817692518234, -0.13183051347732544, 0.255596399307251, 0.2477051019668579, -0.09232402592897415, -0.25395068526268005, 0.10889986157417297, 0.06557466089725494, 0.1950279176235199, 0.015567833557724953, 0.060515258461236954, -0.13887225091457367, 0.2888581156730652, 0.15597602725028992, -0.08580053597688675, 0.11706345528364182, -0.10677444934844971, 0.15137770771980286, 0.09002654254436493, -0.09035545587539673, 0.0645374208688736, 0.22446146607398987, 0.14477355778217316, -0.11929213255643845, 0.15538711845874786, -0.15985937416553497, 0.14625978469848633, 0.010422547347843647, 0.03304198384284973, -0.08151713013648987, -0.0708172544836998, -0.06844214349985123, 0.0755886659026146, 0.06916402280330658, 0.22207270562648773, -0.020105576142668724, -0.10381118953227997, -0.11992614716291428, 0.12316875159740448, -0.14205282926559448, -0.015152987092733383, 0.14145568013191223, 0.06791318207979202, 0.07248783111572266, -0.0947461873292923, -0.1426970660686493, -0.14040133357048035], [-0.25372812151908875, 0.042433302849531174, 0.07704338431358337, -0.07572860270738602, -0.17847183346748352, -0.016891898587346077, 0.026287883520126343, -0.07785063982009888, 0.06886976212263107, 0.11262045055627823, -0.04637811332941055, -0.024747582152485847, 0.08579094707965851, -0.0194325540214777, 0.025042783468961716, -0.06188181787729263, -0.24996167421340942, 0.011566354893147945, -0.15799139440059662, -0.16977155208587646, 0.11492928117513657, -0.17538125813007355, 0.031877681612968445, -0.03323734924197197, 0.03698278218507767, -0.22270797193050385, 0.033956777304410934, -0.1689295768737793, -0.0497310496866703, 0.08850675076246262, 0.13486894965171814, -0.03231072798371315, -0.3404502272605896, 0.0607093907892704, -0.07053201645612717, 0.010983632877469063, 0.12122239917516708, -0.13085919618606567, -0.20949189364910126, 0.12974654138088226, 0.10004023462533951, 0.03256111592054367, 0.08935416489839554, 0.02912340685725212, 0.0380130261182785, -0.21095004677772522, 0.03616539388895035, -0.09908618032932281, 0.04579957202076912, -0.07644853740930557, -0.18202947080135345, 0.18058288097381592, -0.15962637960910797, 0.07374702394008636, -0.2798202335834503, -0.17958380281925201, 0.04792415723204613, -0.15877971053123474, -0.18306510150432587, -0.12087961286306381, -0.18972578644752502, 0.17039167881011963, -0.20325049757957458, -0.02387187071144581, 0.11682787537574768, -0.018405985087156296, 0.08094395697116852, -0.04103877395391464, -0.109334796667099, 0.20723459124565125, 0.13105371594429016, 0.02506338804960251, -0.013625843450427055, -0.10884864628314972, -0.056162405759096146, 0.037474699318408966, -0.211294025182724, -0.15433457493782043, 0.11307725310325623, -0.007032838650047779, -0.015230664052069187, 0.07310906052589417, -0.08867941051721573, -0.012885460630059242, -0.0765509158372879, 0.09012307971715927, 0.12543043494224548, 0.20797638595104218, 0.0790398046374321, 0.029133783653378487, 0.12159506231546402, 0.08386620879173279, 0.12204868346452713, 0.024651991203427315, 0.05905367061495781, 0.11779287457466125, 0.013972044922411442, 0.03021330013871193, 0.1306896209716797, -0.046758923679590225, 0.12063819169998169, -0.12545646727085114, -0.0531204417347908, 0.05879360809922218, -0.004328244365751743, 0.04415668919682503, 0.20158253610134125, -0.023778798058629036, -0.2415238320827484, -0.12235412001609802, 0.06813618540763855, 0.19335338473320007, -0.22473379969596863, 0.028794530779123306, 0.29956141114234924, 0.1395484209060669, -0.0018877609400078654, 0.08155098557472229, -0.21335528790950775, 0.051317259669303894, -0.044945940375328064, -0.14796428382396698, 0.07844310998916626, -0.2356286495923996, 0.0781247541308403, -0.23565267026424408, 0.2554929256439209, 0.2935636639595032], [0.18367703258991241, 0.1360422819852829, -0.06958160549402237, 0.03824123367667198, 0.025445636361837387, 0.17297117412090302, 0.0845276266336441, -0.014850416220724583, -0.11299282312393188, 0.06121234968304634, 0.1119663268327713, 0.06229427084326744, -0.08753900974988937, -0.08431125432252884, -0.11502465605735779, 0.026192450895905495, 0.06777971237897873, -0.167892187833786, 0.23960180580615997, 0.08631149679422379, -0.019064471125602722, 0.15994375944137573, -0.16122131049633026, 0.09321081638336182, -0.0002035991637967527, 0.043041858822107315, -0.04781143367290497, -0.1604907363653183, -0.05254071578383446, 0.22601273655891418, 0.01768667623400688, -0.09269881993532181, 0.045485999435186386, -0.2699415385723114, -0.2897762954235077, -0.019730418920516968, 0.22801144421100616, -0.18438465893268585, -0.07874441891908646, -0.09728825837373734, -0.13543933629989624, 0.19028112292289734, 0.0259226206690073, 0.06736746430397034, 0.06237247958779335, 0.055346984416246414, -0.059238046407699585, -0.40196800231933594, -0.03753798082470894, 0.13023751974105835, 0.06614741683006287, -0.30638113617897034, 0.16429677605628967, -0.16553206741809845, 0.12123753875494003, -0.3555242419242859, 0.07741609960794449, 0.15518976747989655, -0.12095685303211212, -0.04792115464806557, 0.23500648140907288, -0.13035589456558228, -0.008492475375533104, -0.09130650758743286, 0.18487516045570374, -0.11048750579357147, -0.1261672079563141, 0.12753939628601074, 0.06724320352077484, 0.11973567306995392, 0.056479562073946, 0.05964798852801323, -0.11656195670366287, -0.12887977063655853, -0.000808662036433816, -0.06238695979118347, 0.05706803873181343, -0.03247857838869095, 0.06915108114480972, 0.02904750034213066, -0.039670880883932114, 0.16134467720985413, -0.09526687115430832, 0.03951772674918175, 0.11312180757522583, -0.08494602143764496, -0.10395723581314087, 0.11337299644947052, -0.09483503550291061, -0.054969608783721924, 0.12935784459114075, -0.011433354578912258, -0.166470468044281, 0.08100413531064987, 0.06832093745470047, 0.1456388533115387, 0.07186435908079147, 0.07004013657569885, 0.0586555115878582, -0.3034816086292267, 0.20719130337238312, 0.017703188583254814, -0.07902537286281586, 0.15422828495502472, 0.13788165152072906, 0.09113379567861557, 0.16097182035446167, -0.20952874422073364, -0.03742770478129387, 0.06664349138736725, 0.005089574959129095, -0.02164141833782196, -0.0666276067495346, 0.08354547619819641, 0.04863414913415909, -0.07650908082723618, -0.19498418271541595, -0.14158064126968384, 0.12277089804410934, 0.2736356556415558, 0.052229054272174835, -0.09814906865358353, 0.10452298074960709, 0.06507361680269241, 0.09439750760793686, 0.08457440137863159, 0.16644932329654694, -0.05078073590993881], [0.08299413323402405, -0.12426429986953735, -0.021462196484208107, 0.007817589677870274, 0.1548643857240677, -0.1283690631389618, -0.0736367255449295, 0.019395656883716583, 0.02243131585419178, -0.12414035201072693, 0.056498777121305466, 0.19990207254886627, -0.19808542728424072, 0.131986603140831, 0.1070491150021553, 0.1480942666530609, 0.07119814306497574, 0.16412228345870972, -0.04110466688871384, 0.023947183042764664, -0.16539674997329712, 0.21734793484210968, -0.12341506779193878, -0.05986691638827324, 0.07967358827590942, 0.07439179718494415, 0.026080414652824402, 0.1260214000940323, 0.2238154262304306, -0.10205750167369843, -0.12805455923080444, -0.19458027184009552, -0.3698236048221588, -0.007187331560999155, 0.22677452862262726, 0.29161515831947327, 0.16010478138923645, 0.06344645470380783, 0.0911465585231781, -0.1533825844526291, 0.06951112300157547, -0.006702023092657328, -0.03858446702361107, -0.14181570708751678, 0.05558256059885025, -0.18844455480575562, -0.18943266570568085, -0.2799365222454071, -0.05000683665275574, 0.25089189410209656, 0.5470331311225891, 0.03357381001114845, -0.0727928876876831, 0.15822483599185944, -0.19805894792079926, -0.03875497356057167, 0.6546114683151245, -0.24687354266643524, -0.739100992679596, -0.056220643222332, 0.22826138138771057, 0.20421023666858673, -0.13095825910568237, -0.3352337181568146, -0.13514596223831177, -0.008738107047975063, 0.04290332272648811, 0.043479934334754944, -0.08664549142122269, -0.16916047036647797, -0.10663352906703949, -0.22524748742580414, -0.13724738359451294, -0.13445404171943665, -0.10067524760961533, -0.14267009496688843, -0.14704880118370056, -0.24864435195922852, -0.08192691206932068, -0.19237753748893738, 0.1045905277132988, -0.16405589878559113, 0.1663506180047989, 0.0831853374838829, 0.07667399942874908, -0.10765885561704636, 0.0691002905368805, 0.21178385615348816, 0.05852421745657921, -0.1654917299747467, -0.05175990238785744, -0.2388439029455185, -0.16477850079536438, -0.020305978134274483, 0.036292046308517456, 0.017705893144011497, -0.03132446110248566, 0.004559702705591917, -0.08931493759155273, -0.11758272349834442, -0.18848289549350739, -0.03570762649178505, -0.16483378410339355, 0.03290828317403793, 0.05339629203081131, -0.12117481231689453, -0.05691968649625778, 0.015803776681423187, -0.06559722870588303, -0.06612508744001389, -0.1558510810136795, -0.018002426251769066, -0.07064959406852722, 0.14085665345191956, 0.07603875547647476, 0.007528406102210283, -0.2289249747991562, 0.1531427502632141, 0.3417617976665497, -0.18355482816696167, 0.0986347571015358, 0.2882494628429413, -0.057949841022491455, -0.02919830195605755, -0.18834660947322845, -0.013914985582232475, 0.055971723049879074, 0.10699205100536346], [-0.08637474477291107, -0.12777528166770935, -0.02268274873495102, -0.2541336417198181, 0.035569339990615845, -0.027170181274414062, 0.07220959663391113, 0.13093821704387665, -0.07859200239181519, -0.028908660635352135, -0.08662155270576477, 0.11503608524799347, 0.16919966042041779, 0.02946528233587742, -0.08864887058734894, -0.08738826960325241, 0.289762943983078, -0.04814397916197777, -0.16728581488132477, -0.2421271950006485, -0.06371284276247025, -0.17772294580936432, 0.10789891332387924, -0.07841943204402924, 0.1660808026790619, 0.15055213868618011, -0.04209868237376213, 0.2879444360733032, 0.14400675892829895, -0.046377409249544144, -0.16410596668720245, 0.04801701009273529, -0.009866234846413136, -0.23164410889148712, -0.19428054988384247, 0.11268197745084763, 0.15306800603866577, 0.09274440258741379, 0.023637181147933006, 0.0740484967827797, -0.11306154727935791, 0.058134350925683975, -0.2258426547050476, 0.004779794253408909, -0.0931786522269249, -0.07843967527151108, 0.07817576080560684, -0.012230277061462402, 0.07407773286104202, 0.13189592957496643, 0.1414901316165924, 0.14093758165836334, 0.25885236263275146, 0.058545056730508804, -0.028895044699311256, -0.08282734453678131, 0.1609392911195755, 0.06466259807348251, 0.0016790131339803338, 0.17815014719963074, 0.16660410165786743, 0.15471242368221283, 0.10496565699577332, -0.2131616622209549, 0.13050922751426697, 0.12350921332836151, 0.024845629930496216, -0.056437619030475616, -0.010003493167459965, 0.14204314351081848, -0.13186080753803253, -0.0816841647028923, 0.18158487975597382, -0.12125658988952637, 0.08911968022584915, -0.10155486315488815, -0.09621021151542664, 0.06608156114816666, -0.09343329071998596, 0.19192583858966827, -0.04790574684739113, 0.23689056932926178, 0.19642707705497742, 0.03998038172721863, -0.14485995471477509, 0.11728663742542267, 0.21434251964092255, 0.00026701600290834904, 0.1688985526561737, -0.01804322935640812, 0.16582541167736053, -0.030092110857367516, 0.20041315257549286, 0.1870708018541336, 0.08384288847446442, 0.1250470131635666, -0.04014166072010994, -0.10450906306505203, -0.1653859168291092, 0.13902059197425842, -0.08867137134075165, -0.05980728939175606, 0.007403173018246889, -0.12214631587266922, -0.08184497803449631, -0.033751536160707474, 0.055450402200222015, -0.15178920328617096, -0.144503653049469, 0.15218472480773926, -0.2106831818819046, 0.10558818280696869, 0.06593307852745056, -0.0028478200547397137, -0.18073008954524994, -0.050863754004240036, 0.0674796998500824, 0.1363985240459442, 0.11595291644334793, -0.03057568147778511, 0.03730824589729309, -0.13391198217868805, 0.17073851823806763, -0.06668314337730408, -0.1446504145860672, -0.2010275423526764, -0.1670541912317276, -0.12237785011529922], [-0.2308601438999176, 0.11278306692838669, 0.10747374594211578, -0.024652600288391113, 0.11393799632787704, -0.1783079206943512, -0.18133416771888733, -0.02841937355697155, 0.1724862903356552, 0.06458806246519089, 0.10355591028928757, -0.15436872839927673, 0.0020335812587291002, -0.021491197869181633, -0.004641398787498474, -0.17199701070785522, -0.21786151826381683, 0.0328197181224823, -0.0030149673111736774, 0.02940077893435955, 0.11706925183534622, 0.15266607701778412, -0.04188619554042816, -0.16795119643211365, 0.18689657747745514, 0.027306079864501953, 0.22946694493293762, 0.13676230609416962, -0.04721325635910034, 0.06626926362514496, 0.14381083846092224, -0.04425201565027237, 0.08801741153001785, -0.06432169675827026, -0.15110048651695251, 0.18031281232833862, 0.06989753246307373, 0.010742992162704468, -0.23147521913051605, 0.043445516377687454, -0.33071237802505493, -0.04029254987835884, -0.15270347893238068, 0.2144741266965866, 0.03330959379673004, 0.1509053111076355, 0.16118383407592773, 0.052964478731155396, -0.009069726802408695, -0.11988350749015808, -0.175774484872818, -0.2791506350040436, 0.21391013264656067, -0.11897437274456024, -0.044238537549972534, 0.4331834614276886, 0.016527850180864334, 0.1879752278327942, 0.2829461693763733, -0.19031155109405518, 0.37749338150024414, -0.3618013262748718, 0.10816484689712524, 0.012357176281511784, 0.016227981075644493, 0.09587067365646362, 0.1905909776687622, -0.1096990704536438, 0.043553426861763, -0.13924364745616913, 0.08997741341590881, 0.14269845187664032, 0.024147702381014824, -0.020063558593392372, 0.03679855912923813, -0.14067937433719635, 0.09746063500642776, -0.15809868276119232, -0.12121870368719101, -0.008265679702162743, -0.07954374700784683, 0.005789062008261681, -0.01697852648794651, 0.16717498004436493, 0.16550929844379425, -0.023637108504772186, -0.27843061089515686, -0.2085682898759842, -0.009831027127802372, -0.10167759656906128, -0.1464177519083023, 0.13216939568519592, -0.2006913274526596, -0.12872904539108276, -0.18599644303321838, -0.056088898330926895, -0.20303303003311157, 0.1784699708223343, 0.08352277427911758, 0.08177821338176727, 0.04275977984070778, -0.0033825398422777653, 0.14569120109081268, 0.12097198516130447, -0.10740039497613907, -0.03923923149704933, 0.07485111802816391, 0.019710998982191086, 0.14862307906150818, -0.09333712607622147, 0.026506638154387474, 0.05126195400953293, -0.05480055510997772, -0.1254597157239914, -0.1389835774898529, -0.022283999249339104, 0.14336887001991272, 0.03565386310219765, -0.16428902745246887, -0.13046874105930328, 0.06420810520648956, -0.07694240659475327, 0.11085538566112518, 0.11374996602535248, 0.02794591151177883, -0.055293969810009, 0.005802114959806204, -0.05221307650208473], [0.1895701140165329, -0.24815568327903748, 0.15886414051055908, -0.3669065237045288, 0.11011338979005814, 0.2092067152261734, 0.053078487515449524, -0.079901322722435, -0.014542779885232449, 0.06675681471824646, 0.03477225825190544, -0.08634638041257858, 0.018487393856048584, 0.07257900387048721, -0.13741128146648407, 0.1440836787223816, 0.11934546381235123, -0.1314898282289505, -0.04305638372898102, 0.11782408505678177, 0.11887219548225403, 0.05403600633144379, 0.17814895510673523, -0.05592280253767967, 0.3481706976890564, 0.03506050631403923, 0.22834375500679016, -0.1757519692182541, -0.3360034227371216, 0.11039808392524719, -9.788684110390022e-06, -0.013809848576784134, 0.3482455909252167, -0.18255047500133514, -0.07322635501623154, 0.16215047240257263, -0.13982845842838287, 0.09072506427764893, -0.22226549685001373, -0.006561967544257641, 0.09317626804113388, -0.05258525162935257, -0.2001878172159195, -0.15451134741306305, 0.22831036150455475, -0.1985461562871933, -0.4065866470336914, 0.12365949153900146, -0.004252060782164335, 0.04398937523365021, 0.03407689183950424, -0.07976941019296646, -0.013195398263633251, 0.0863461121916771, -0.12326177209615707, 0.16168761253356934, 0.2709677219390869, 0.20977264642715454, 0.16483032703399658, -0.4233204126358032, -0.20734046399593353, 0.29305896162986755, -0.3857642114162445, 0.11290096491575241, -0.161098912358284, 0.015195070765912533, 0.10923182964324951, -0.051949337124824524, -0.015082689002156258, -0.048228196799755096, 0.1555357724428177, 0.05510788783431053, -0.1537538319826126, 0.07621172070503235, 0.05034501105546951, 0.06883279979228973, -0.14549413323402405, 0.014677230268716812, -0.11003009974956512, 0.14615750312805176, 0.09683690965175629, 0.0128250140696764, 0.09312020987272263, 0.05930543318390846, 0.11374354362487793, -0.02700326405465603, 0.03553095832467079, -0.009767058305442333, 0.11568032205104828, -0.17477065324783325, -0.13872669637203217, 0.0959710106253624, 0.06260451674461365, -0.11524701863527298, 0.0683116465806961, 0.06639701873064041, 0.20048515498638153, -0.07260186225175858, 0.1726648062467575, -0.018099971115589142, -0.05069107934832573, -0.18853068351745605, -0.10956142097711563, 0.052810609340667725, -0.04697122797369957, 0.06251013278961182, -0.08610202372074127, 0.05517292767763138, 0.18120478093624115, 0.0075430492870509624, 0.08872509747743607, 0.0206807442009449, -0.02906101942062378, 0.0960313081741333, -0.0850987583398819, 0.04482730105519295, 0.07592971622943878, 0.05989741533994675, -0.02303166314959526, -0.03644777089357376, -0.0815906673669815, 0.06652289628982544, -0.04969605803489685, -0.139616459608078, -0.12917311489582062, 0.0662565752863884, -0.12788325548171997, 0.10101841390132904], [-0.35999467968940735, 0.22885632514953613, 0.1833907812833786, -0.22702310979366302, -0.03305079787969589, 0.14557579159736633, 0.13751313090324402, -0.15469427406787872, 0.1826929897069931, 0.1291733980178833, -0.10971245914697647, 0.09115634858608246, -0.07836531102657318, 0.039553552865982056, 0.1862904280424118, 0.16583102941513062, 0.3449789583683014, -0.13774096965789795, -0.10995455831289291, -0.2401614785194397, 0.1476394236087799, 0.08331228792667389, 0.3689652681350708, 0.15418879687786102, 0.12652090191841125, 0.015145132318139076, 0.0966201201081276, 0.07171567529439926, -0.07207940518856049, 0.1707475632429123, 0.2532915771007538, 0.16731950640678406, -0.05463285371661186, 0.011069024913012981, 0.37180858850479126, 0.08654084801673889, -0.08673647791147232, -0.10126260668039322, 0.14021338522434235, -0.10513082146644592, 0.1105615496635437, 0.040035080164670944, 0.05951623246073723, -0.2737831771373749, 0.11782100796699524, -0.27628108859062195, 0.05893827974796295, 0.16119877994060516, -0.3281993865966797, -0.006439495366066694, 0.2798202335834503, 0.3292514383792877, -0.10787785053253174, 0.09942221641540527, -0.7563532590866089, -0.12298447638750076, 0.12770918011665344, -0.44422489404678345, -0.046857576817274094, -0.5201537013053894, 0.035216253250837326, 0.25115767121315, -0.1048893854022026, 0.11255845427513123, 0.08789204061031342, -0.07568966597318649, -0.037618279457092285, 0.16684652864933014, 0.1717051863670349, -0.00245843268930912, 0.0684090182185173, -0.009057030081748962, -0.006805385462939739, 0.05058864876627922, 0.08069256693124771, -0.09064437448978424, 0.046001605689525604, 0.12259761244058609, 0.08504320681095123, 0.1853598952293396, 0.07170644402503967, 0.015098461881279945, 0.11605960875749588, -0.10551556944847107, -0.022577373310923576, 0.13055643439292908, 0.012074976228177547, 0.10746491700410843, -0.08227209001779556, 0.09410747140645981, 0.12383810430765152, 0.06414107978343964, 0.05454705283045769, 0.09328798204660416, -0.0020924259442836046, 0.23242546617984772, 0.024585675448179245, 0.01540525071322918, 0.06523804366588593, -0.04462290555238724, 0.18683595955371857, 0.15416449308395386, 0.056556299328804016, 0.038297779858112335, 0.03774331882596016, -0.14453750848770142, -0.03700939565896988, 0.1545906364917755, 0.06533649563789368, -0.15178315341472626, -0.04719722270965576, -0.15516145527362823, -0.026092825457453728, -0.10817476361989975, 0.16228727996349335, 0.13669462502002716, -0.07372601330280304, -0.013296425342559814, -0.03944782540202141, -0.04844716936349869, -0.13497036695480347, -0.0386512391269207, 0.0013420244213193655, 0.028162723407149315, 0.15836217999458313, -0.07678667455911636, 0.008049430325627327, -0.06096827611327171], [0.29844188690185547, 0.020869197323918343, -0.08647771924734116, 0.16036519408226013, -0.09967564791440964, 0.11898981779813766, 0.005578146781772375, -0.005398918408900499, -0.1236538514494896, -0.11786316335201263, -0.031042708083987236, 0.03797447308897972, -0.1890754997730255, -0.0849079117178917, -0.14143574237823486, -0.25211647152900696, -0.1155380830168724, 0.19196131825447083, 0.0385344959795475, -0.014088139869272709, 0.08791470527648926, -0.0058239358477294445, -0.16262470185756683, 0.2040688395500183, -0.09203752130270004, 0.08038074523210526, 0.013533474877476692, -0.03386683762073517, 0.205169215798378, 0.002057058271020651, -0.13427278399467468, -0.07393676042556763, -0.23277682065963745, -0.03478618338704109, 0.02937750332057476, 0.059303849935531616, -0.00015072418318595737, -0.0346645750105381, 0.17538510262966156, -0.07967445999383926, 0.16337093710899353, 0.17894966900348663, 0.1454336792230606, -0.08642292022705078, -0.0483003631234169, -0.05916457250714302, -0.020745739340782166, -0.0961516946554184, -0.15335823595523834, -0.007733780890703201, 0.4575081169605255, -0.02690873108804226, -0.16683343052864075, -0.20322629809379578, -0.26665017008781433, -0.05123858153820038, -0.005825035739690065, -0.27661752700805664, 0.09445194900035858, 0.09203656017780304, -0.1780502051115036, -0.1638166755437851, 0.008279207162559032, 0.03214198723435402, 0.1428869515657425, 0.030560925602912903, -0.0029392980504781008, -0.0709657073020935, -0.04860819876194, -0.01713452860713005, 0.0454816110432148, 0.06973729282617569, -0.1257433444261551, -0.026091601699590683, -0.05961444228887558, 0.13559913635253906, -0.15031754970550537, 0.03183313086628914, -0.1714635193347931, 0.060300324112176895, 0.018399568274617195, 0.06378530710935593, -0.08297199010848999, -0.077290840446949, -0.15792390704154968, 0.09351762384176254, -0.040904637426137924, -0.01766953617334366, 0.13009633123874664, 0.13623879849910736, -0.06665726006031036, 0.1076122373342514, 0.21237464249134064, -0.05253712832927704, -0.03897181898355484, -0.04217306151986122, -0.1003062054514885, 0.1776597499847412, -0.16819891333580017, 0.047488290816545486, 0.06990732252597809, -0.10409809648990631, 0.1539313942193985, -0.024247420951724052, -0.12108547985553741, 0.00939219444990158, 0.03830229490995407, 0.10007008910179138, -0.08827342838048935, 0.07391053438186646, 0.12094499915838242, -0.01499946229159832, 0.055777471512556076, -0.06730975955724716, -0.07041750103235245, -0.057179488241672516, 0.05947615206241608, -0.01155946310609579, -0.14172206819057465, 0.03851284831762314, -0.01581691950559616, 0.07426511496305466, -0.10561028867959976, 0.1151094064116478, 0.05148204416036606, -0.15494847297668457, 0.12167603522539139, 0.07013658434152603], [-0.005958748050034046, -0.15943919122219086, 0.1326388120651245, 0.023871753364801407, -0.10639027506113052, -0.1346721202135086, 0.14704972505569458, 0.21262869238853455, -0.08300323039293289, -0.01941113919019699, -0.13281653821468353, -0.04294451326131821, 0.10502998530864716, 0.026455949991941452, -0.1026439368724823, 0.1371321827173233, 0.27459707856178284, -0.03828686103224754, 0.012523764744400978, -0.103873610496521, -0.020103218033909798, 0.11361091583967209, 0.34752771258354187, 0.11351051926612854, 0.10249821096658707, 0.23565329611301422, 0.03996000811457634, 0.3815280795097351, -0.02104850672185421, -0.09492508322000504, -0.13953539729118347, 0.0785553976893425, 0.5023849606513977, 0.25166893005371094, -0.15249110758304596, -0.021668866276741028, 0.12731629610061646, -0.2835597097873688, -0.18760985136032104, 0.17517688870429993, 0.12510699033737183, 0.02610776573419571, 0.1307135671377182, 0.07497310638427734, 0.18879348039627075, 0.019653981551527977, -0.1354457288980484, -0.19186246395111084, -0.15620364248752594, -0.2583901286125183, -0.14064469933509827, -0.1559733748435974, 0.04265197366476059, -0.11526334285736084, 0.05482647567987442, -0.2400815337896347, -0.158356174826622, -0.04670379310846329, 0.35892432928085327, -0.04173530265688896, -0.4248153567314148, 0.029921935871243477, -0.24043971300125122, -0.014502174220979214, 0.1699567437171936, 0.22164928913116455, -0.03220369294285774, 0.03659597784280777, 0.25168368220329285, 0.2196093201637268, 0.14607809484004974, -0.024573616683483124, 0.09844904392957687, 0.060921560972929, 0.211783304810524, 0.22864003479480743, 0.30580511689186096, 0.30425825715065, 0.1964893341064453, 0.09202929586172104, 0.12065927684307098, 0.15386950969696045, 0.23668688535690308, 0.22463442385196686, 0.24205318093299866, 0.17304126918315887, 0.24703049659729004, 0.15897874534130096, -0.14743991196155548, 0.1749805361032486, 0.0034941951744258404, 0.29237303137779236, 0.2225394994020462, 0.19366411864757538, 0.0886969193816185, -0.038917362689971924, 0.12195174396038055, 0.07595930993556976, -0.1645166128873825, 0.08740944415330887, 0.008282379247248173, -0.1191771849989891, 0.14661528170108795, -0.13521480560302734, -0.09497858583927155, -0.014306626282632351, 0.024884378537535667, 0.11559698730707169, -0.08622714877128601, -0.02047768048942089, -0.22407490015029907, -0.03137524798512459, 0.17745919525623322, -0.11784980446100235, -0.14124739170074463, 0.10112260282039642, -0.13087686896324158, 0.08656436949968338, -0.01727765053510666, -0.09151315689086914, -0.10892870277166367, 0.14213664829730988, 0.13970842957496643, -0.003194063203409314, 0.05689913034439087, -0.12657421827316284, 0.033676136285066605, 0.0665849819779396], [-0.21146157383918762, -0.1212565079331398, 0.11461116373538971, 0.26929569244384766, -0.17920222878456116, -0.05154194310307503, -0.08188129216432571, -0.05467536672949791, -0.11199312657117844, -0.15944798290729523, -0.1451912373304367, 0.24845826625823975, -0.007229542825371027, -0.09858591854572296, -0.18156832456588745, -0.21000246703624725, -0.08596604317426682, 0.0615580789744854, -0.00927351601421833, -0.11258133500814438, 0.11526022106409073, -0.04499658942222595, -0.22078542411327362, -0.20038291811943054, -0.0015909797511994839, -0.04040003567934036, -0.1980135589838028, -0.08233501762151718, -0.11655732244253159, -0.17781925201416016, -0.11701811105012894, -0.1972387135028839, -0.008592736907303333, 0.08956443518400192, 0.018837176263332367, -0.07426024228334427, -0.024467863142490387, 0.002460648538544774, 0.12023365497589111, 0.07302644103765488, 0.17106576263904572, -0.034494299441576004, -0.029955895617604256, -0.13496705889701843, 0.08496398478746414, -0.06925451010465622, 0.01608883962035179, 0.12246188521385193, -0.04317270219326019, -0.057031385600566864, -0.18589946627616882, 0.06999079138040543, -0.1350485235452652, 0.23833614587783813, 0.038041356950998306, -0.0030472257640212774, -0.04497575759887695, 0.09937947988510132, -0.06985212862491608, 0.4385646879673004, -0.4280225336551666, 0.003224586136639118, -0.04991347715258598, -0.14543312788009644, 0.038720354437828064, 0.055200688540935516, -0.07353615760803223, 0.08637899905443192, -0.14962586760520935, 0.031650789082050323, -0.057880837470293045, -0.02949090301990509, 0.04545130208134651, 0.15017658472061157, 0.023048589006066322, 0.005541672930121422, -0.06531891971826553, -0.06416948139667511, -0.042416274547576904, -0.04840013012290001, 0.13424932956695557, -0.08677124977111816, 0.12741972506046295, -0.09761043637990952, 0.1365853250026703, 0.016556210815906525, 0.07676880806684494, 0.027801334857940674, 0.07167850434780121, -0.0746564045548439, 0.04165934771299362, -0.11858402192592621, -0.04672485962510109, 0.1299029290676117, -0.11008653044700623, 0.025099977850914, -0.03351015970110893, -0.10580158233642578, -0.14407113194465637, 0.06431935727596283, 0.1182345300912857, -0.044216081500053406, 0.09385862201452255, -0.18090729415416718, 0.11551510542631149, 0.021869990974664688, 0.06052568554878235, 0.04478170722723007, -0.18888701498508453, -0.1438571959733963, -0.07195445150136948, -0.2503434419631958, -0.10472837835550308, -0.0903269574046135, 0.09998228400945663, -0.15348929166793823, -0.131552591919899, 0.03143816813826561, -0.03683111071586609, 0.24938182532787323, 0.058800533413887024, -0.02058647759258747, -0.10318697243928909, 0.040441762655973434, 0.16514474153518677, 0.016801202669739723, -0.1800447553396225, 0.03876334801316261], [-0.013044483959674835, -0.3182038962841034, -0.015005622059106827, -0.03328651934862137, 0.018109187483787537, -0.18931899964809418, 0.17207463085651398, 0.03509439900517464, -0.09274955838918686, 0.08609163761138916, -0.11867585778236389, 0.017013367265462875, 0.15900897979736328, -0.12588924169540405, 0.18655727803707123, -0.27449938654899597, -0.08972519636154175, -0.05062170326709747, 0.16341179609298706, 0.10248459875583649, -0.14259839057922363, -0.17633450031280518, 0.09241084009408951, -0.02080320566892624, -0.25690722465515137, 0.32802048325538635, 0.04967954754829407, 0.4834347665309906, -0.2559868097305298, 0.0716596394777298, 0.08324702829122543, 0.0092373201623559, -0.29530492424964905, 0.19995374977588654, 0.10711605101823807, 0.050736457109451294, -0.29357272386550903, -0.05767089128494263, 0.10758299380540848, -0.038312509655952454, 0.07888268679380417, -0.045386821031570435, 0.005001756362617016, -0.04838765785098076, 0.01509005855768919, 0.16798613965511322, 0.25650665163993835, 0.3682596683502197, -0.04692991077899933, -0.1627432405948639, -0.2769269645214081, -0.2156311571598053, -0.012841491959989071, -0.06349857896566391, 0.3358464241027832, 0.1030973494052887, -0.3632717430591583, -0.029073042795062065, 0.5931853652000427, -0.08761997520923615, -0.33955350518226624, -0.19991575181484222, 0.28933772444725037, 0.5283128023147583, -0.025392984971404076, -0.025811845436692238, -0.10790350288152695, 0.1050228551030159, -0.08181153982877731, -0.15370914340019226, -0.11804967373609543, -0.030932825058698654, 0.03545336425304413, 0.014286642894148827, -0.09795892983675003, -0.19108058512210846, 0.05907207727432251, -0.04522695019841194, -0.06468033790588379, 0.11513830721378326, -0.04810301959514618, -0.10341862589120865, 0.1853310912847519, 0.09518812596797943, 0.04295807704329491, 0.11454073339700699, 0.14705662429332733, -0.007661302108317614, 0.18934845924377441, 0.1140088215470314, -0.141745463013649, -0.05141559615731239, 0.001861930126324296, 0.016902698203921318, -0.1315707564353943, -0.11853653192520142, 0.041813500225543976, -0.1502966582775116, 0.1872365027666092, 0.1184745505452156, -0.050223659723997116, 0.09121865034103394, -0.12417805939912796, 0.13536499440670013, -0.18198248744010925, 0.03007720410823822, 0.1830805242061615, -0.12448558956384659, -0.08155563473701477, -0.007177508436143398, -0.04408786818385124, -0.05578932911157608, 0.03176989033818245, -0.009094104170799255, -0.1399867981672287, -0.014057629741728306, -0.07119170576334, 0.24737663567066193, -0.005629260558634996, 0.15793533623218536, 0.012152597308158875, 0.056423384696245193, -0.14253686368465424, -0.032443899661302567, -0.10669392347335815, 0.16245214641094208, -0.015952741727232933, 0.09862349182367325], [-0.025790784507989883, -0.059175118803977966, -0.05563395842909813, -0.00691954093053937, -0.13265976309776306, -0.11306754499673843, -0.13654226064682007, 0.24279004335403442, -0.06585243344306946, -0.07250481843948364, -0.020334767177700996, -0.05833686515688896, -0.17260374128818512, 0.015507100149989128, 0.2294165939092636, 0.05047957971692085, 0.17485137283802032, -0.07142841815948486, -0.30294862389564514, -0.019091136753559113, -0.09056498110294342, -0.27754923701286316, -0.061302121728658676, -0.16817526519298553, -0.1208457201719284, 0.04584895074367523, -0.07158408313989639, -0.06461729109287262, -0.09877903759479523, 0.0733715146780014, 0.11177775263786316, 0.0036847442388534546, -0.14558972418308258, 0.016040761023759842, 0.09176543354988098, -0.12519891560077667, -0.0266391821205616, -0.05308878421783447, 0.03149596229195595, -0.2793818414211273, -0.06571851670742035, 0.20522890985012054, -0.0422535315155983, -0.1336212456226349, -0.054939061403274536, 0.38589897751808167, -0.1437206119298935, 0.014512280002236366, -0.07345178723335266, 0.06269291043281555, -0.0844159871339798, 0.19476357102394104, 0.1535886824131012, -0.105564184486866, -0.018727438524365425, -0.04291921481490135, 0.07176242768764496, 0.15734900534152985, 0.06916467100381851, -0.16778749227523804, -0.31380847096443176, 0.04795462265610695, -0.08154483884572983, -0.10036888718605042, -0.13788071274757385, 0.03936675935983658, 0.15677064657211304, 0.15244397521018982, -0.03829782083630562, -0.08997847884893417, 0.1525631994009018, -0.00934300385415554, 0.1338181346654892, -0.24836865067481995, 0.1089741513133049, 0.16004300117492676, -0.11402123421430588, 0.10100090503692627, 0.0436166413128376, 0.05522195249795914, 0.17057392001152039, 0.09369298070669174, -0.18820829689502716, -0.09808003902435303, 0.0726194977760315, -0.06634710729122162, -0.38420507311820984, -0.06644409894943237, 0.2126247137784958, 0.17869512736797333, 0.03168158978223801, 0.24708227813243866, 0.10709493607282639, 0.1782345175743103, -0.2536942660808563, -0.061381641775369644, -0.006224269047379494, 0.07190471142530441, 0.08150675892829895, 0.008147208020091057, 0.03762132301926613, -0.0163632370531559, -0.13825172185897827, 0.011882348917424679, 0.012751361355185509, -0.10494843125343323, 0.05017156898975372, 0.02679363638162613, -0.07879022508859634, 0.008274265564978123, 0.3020857274532318, -0.09149687737226486, 0.09298969060182571, 0.1834341138601303, -0.28367719054222107, -0.07229123264551163, 0.21744902431964874, -0.24570129811763763, -0.12600834667682648, -0.03788051754236221, -0.17110466957092285, 0.0481937937438488, -0.0778409019112587, 0.19871631264686584, 0.24128377437591553, 0.036577802151441574, -0.05255979672074318, 0.15146659314632416], [0.008484962396323681, -0.05213858187198639, -0.1456170380115509, 0.07818683981895447, -0.1459215134382248, -0.07102268189191818, 0.05441300570964813, 0.13745075464248657, -0.23581716418266296, 0.01404697448015213, 0.12364555895328522, -0.16890355944633484, -0.1681818664073944, 0.15626199543476105, 0.013939179480075836, -0.011678663082420826, 0.1010652482509613, -0.10176277160644531, 0.014435223303735256, 0.15731926262378693, 0.07419803738594055, 0.0624203160405159, -0.014317731373012066, -0.07337866723537445, 0.08009214699268341, 0.1177998036146164, -0.13224712014198303, -0.05137775465846062, -0.07277652621269226, 0.11457501351833344, 0.0401531383395195, 0.023984543979167938, 0.027592917904257774, 0.10495702177286148, -0.03247028589248657, -0.0076490468345582485, -0.01708054170012474, 0.01586918905377388, -0.006187646649777889, 0.14628173410892487, 0.279836505651474, -0.0035235320683568716, 0.12636147439479828, 0.020712457597255707, 0.0005892741028219461, -0.18142537772655487, -0.0775458887219429, 0.012449824251234531, 0.008719971403479576, -0.0958508625626564, 0.021532807499170303, -0.03900393471121788, 0.07754837721586227, 0.017955906689167023, 0.009549375623464584, -0.00602525332942605, 0.06248738244175911, -0.025620942935347557, -0.01564413122832775, 0.03710763156414032, 0.0344969779253006, 0.04813821241259575, -0.0408291295170784, 0.02625158056616783, 0.046016234904527664, -0.07859817892313004, -0.1928717941045761, 0.001432783785276115, 0.14342612028121948, 0.15705658495426178, 0.16291725635528564, -0.0030667732935398817, -0.15098190307617188, 0.29736560583114624, -0.10385676473379135, -0.017494283616542816, 0.26082149147987366, 0.22498615086078644, -0.16779844462871552, 0.08920217305421829, 0.07395999878644943, -0.19891108572483063, 0.2838211953639984, 0.03478998690843582, -0.17301033437252045, 0.21442408859729767, 0.3259267508983612, 0.1410094052553177, -0.02235245332121849, 0.11716561764478683, 0.10895764827728271, -0.00550795579329133, 0.0438852496445179, 0.0043246629647910595, 0.15144014358520508, -0.09238584339618683, 0.20780080556869507, -0.025282833725214005, -0.03624984622001648, 0.0884510800242424, 0.002120301593095064, 0.037878088653087616, -0.06469076126813889, -0.14107322692871094, -0.15863198041915894, 0.004008220974355936, 0.1304064840078354, -0.053641028702259064, 0.14584888517856598, -0.07442330569028854, -0.10466480255126953, 0.04198377951979637, -0.05051646754145622, -0.11032476276159286, 0.1345069408416748, 0.024440810084342957, -0.014115700498223305, 0.02030074968934059, 0.07005271315574646, 0.014738881960511208, 0.045469313859939575, 0.08420304954051971, 0.057012684643268585, -0.019193146377801895, -0.14976908266544342, -0.04813992977142334, -0.14459332823753357, -0.11979532241821289], [0.2979445159435272, -0.05705320090055466, 0.07659251242876053, -0.1565219610929489, 0.06946135312318802, 0.005811998154968023, 0.02053641714155674, 0.09825554490089417, -0.049589015543460846, -0.08074643462896347, 0.17013680934906006, 0.040867049247026443, 0.21688580513000488, 0.09956467151641846, -0.08077998459339142, -0.06163615360856056, 0.07443366944789886, -0.017242563888430595, 0.08595556765794754, -0.03853065147995949, 0.05853411555290222, -0.16749882698059082, 0.010413541458547115, 0.0986916795372963, 0.16579343378543854, -0.005646475590765476, 0.27152910828590393, 0.3848399221897125, 0.09328339993953705, 0.15900230407714844, 0.025429420173168182, -0.07015436142683029, -0.18371254205703735, 0.046105846762657166, -0.12203633040189743, 0.08635109663009644, 0.0419318750500679, -0.026744501665234566, 0.03007698431611061, 0.2207973301410675, -0.08909600228071213, -0.029652835801243782, -0.00235253619030118, 0.040313538163900375, 0.24379460513591766, 0.02179725281894207, -0.07959993928670883, 0.05752677097916603, 0.10634412616491318, 0.0530061200261116, -0.0375540666282177, -0.14423303306102753, 0.20618484914302826, -0.09927236288785934, -0.07699798792600632, -0.04828153923153877, 0.09198655933141708, -0.09144840389490128, 0.13277147710323334, -0.19041243195533752, -0.10760488361120224, 0.09334282577037811, -0.05661662667989731, 0.11786714941263199, 0.05102404206991196, 0.19367797672748566, -0.1282282918691635, 0.004192437510937452, 0.17552216351032257, -0.009786431677639484, -0.10235422849655151, 0.08422079682350159, -0.1313946694135666, -0.08887186646461487, -0.18014515936374664, -0.046316348016262054, -0.054461054503917694, -0.13028058409690857, -0.19349165260791779, 0.13439138233661652, -0.10142593085765839, -0.08641164004802704, -0.05656068027019501, 0.1431192010641098, 0.03940847888588905, -0.07888902723789215, 0.20013569295406342, -0.08900066465139389, -0.06789200752973557, -0.050766557455062866, 0.18224060535430908, 0.028792420402169228, 0.060737721621990204, -0.09228310734033585, 0.08477143198251724, 0.05208015814423561, 0.1909582018852234, -0.11436653882265091, -0.09609386324882507, -0.0029854322783648968, -0.08669783920049667, 0.15549199283123016, -0.05520413815975189, 0.09721790254116058, -0.0797261968255043, 0.19604884088039398, -0.005111100152134895, 0.10573355108499527, -0.019673235714435577, -0.02136329561471939, -0.11483979225158691, 0.014163006097078323, -0.019770881161093712, -0.024218758568167686, -0.115205317735672, 0.06029035896062851, -0.03345169126987457, -0.09406859427690506, -0.16072490811347961, 0.0921231359243393, -0.18155249953269958, 0.10389930009841919, 0.1243046224117279, -0.057835523039102554, 0.16510099172592163, 0.10990959405899048, 0.18352936208248138, -0.11987684667110443], [-0.016317714005708694, -0.13699743151664734, -0.03398954123258591, -0.15215861797332764, -0.10325999557971954, 0.022838342934846878, 0.11037373542785645, -0.16031906008720398, -0.06651092320680618, -0.15809336304664612, -0.23469278216362, -0.28356513381004333, -0.07236576080322266, 0.06992802023887634, -0.10692611336708069, -0.10614772140979767, -0.09557493031024933, -0.020080862566828728, 0.0519569031894207, 0.15325428545475006, -0.22871710360050201, 0.04818683862686157, -0.11240435391664505, 0.05242757499217987, 0.10373236238956451, 0.06127149239182472, -0.031592730432748795, -0.08648495376110077, -0.02742316760122776, -0.054309118539094925, -0.05236314237117767, -0.13510476052761078, -0.016231654211878777, -0.03826562687754631, 0.04725034907460213, -0.004950063768774271, -0.008745267987251282, -0.0020418998319655657, -0.004679551348090172, 0.0755704790353775, 0.11966553330421448, -0.07125025987625122, 0.1077476292848587, -0.11019547283649445, -0.01479926984757185, 0.0334039181470871, 0.018219085410237312, -0.007718896493315697, -0.06677965074777603, -0.010159669443964958, -0.049334265291690826, -0.0500432588160038, -0.11354363709688187, 0.06579827517271042, 0.04197079688310623, 0.046486951410770416, -0.03854995593428612, -0.007659785449504852, -0.026467209681868553, 0.022126566618680954, 0.07538958638906479, 0.016467805951833725, -0.06354578584432602, -0.030004873871803284, 0.24460534751415253, 0.04712007939815521, -0.14750142395496368, -0.20449216663837433, 0.06189431622624397, 0.0995669886469841, -0.20390427112579346, -0.2072000503540039, 0.0813428983092308, 0.18569715321063995, 0.09463637322187424, -0.1805645227432251, 0.14521704614162445, 0.1587820053100586, 0.08223406970500946, 0.2304166853427887, -0.19557543098926544, -0.09213751554489136, 0.11281371861696243, -0.08970623463392258, -0.13040782511234283, 0.19935555756092072, 0.29950690269470215, 0.1570102423429489, -0.05828087776899338, -0.0688161700963974, 0.09044618159532547, 0.1397983729839325, 0.22521460056304932, 0.13293813169002533, 0.09220220893621445, 0.02812306210398674, -0.017825130373239517, 0.013975266367197037, -0.16141162812709808, -0.10814200341701508, -0.0574255995452404, 0.0681384950876236, -0.15381716191768646, -0.13794291019439697, -0.04184385761618614, 0.055974751710891724, -0.1635020673274994, -0.16869041323661804, -0.04322498291730881, 0.03871497884392738, 0.03530219942331314, 0.048436131328344345, -0.10890825092792511, -0.2705276906490326, 0.09730013459920883, -0.15704482793807983, -0.14501501619815826, -0.047417834401130676, 0.08251248300075531, -0.09100604057312012, -0.07422488927841187, 0.058277953416109085, -0.04386914148926735, -0.0191265307366848, -0.0032627894543111324, 0.007827901281416416, 0.03748513013124466, -0.060568343847990036], [-0.04222885146737099, 8.845497359288856e-05, -0.03507988154888153, 0.025582147762179375, -0.2598581314086914, -0.1344248652458191, -0.19206057488918304, -0.03063320368528366, -0.12538433074951172, -0.13418379426002502, -0.06770285964012146, 0.08697164058685303, 0.156057208776474, -0.1392774134874344, 0.056512393057346344, -0.03690488636493683, 0.12665587663650513, -0.08713026344776154, -0.18585260212421417, -0.06930157542228699, 0.014590982347726822, 0.012003332376480103, 0.01439556386321783, -0.035232678055763245, 0.09503307938575745, -0.0783526822924614, 0.03024524636566639, -0.012424982152879238, -0.00775051349774003, 0.046498075127601624, 0.1319449543952942, 0.10590699315071106, -0.031698182225227356, 0.015041309408843517, -0.01709529384970665, 0.09084106981754303, 0.054839178919792175, -0.041786856949329376, -0.012958792969584465, -0.1714194267988205, -0.05469302088022232, 0.05638035386800766, 0.05026198551058769, 0.08966457098722458, -0.026837876066565514, 0.0022071213461458683, -0.026631172746419907, -0.043854113668203354, 0.09987077862024307, -0.02252967655658722, 0.014634491875767708, 0.025043100118637085, -0.018731003627181053, 0.03518373891711235, 0.03815649077296257, -0.005212956573814154, -0.019680136814713478, -0.0078051029704511166, 0.03411613404750824, -0.005766835063695908, -0.03802977502346039, 0.026146259158849716, -0.02184971608221531, 0.0075820498168468475, 0.06067785248160362, 0.3146701455116272, -0.07103722542524338, -0.07505971938371658, -0.08289310336112976, -0.21063342690467834, -0.11953696608543396, -0.17589528858661652, 0.15475034713745117, -0.2367277592420578, -0.22503432631492615, 0.0663236677646637, -0.17874141037464142, 0.09618809819221497, 0.17577403783798218, 0.27389955520629883, 0.06454189121723175, 0.03820004686713219, -0.147372305393219, -0.09913736581802368, -0.08332740515470505, 0.08059713989496231, -0.007434628438204527, -0.06976530700922012, 0.17171818017959595, 0.04514467716217041, 0.31076687574386597, 0.12457295507192612, 0.07263530045747757, 0.10450063645839691, -0.03214949741959572, 0.2834857404232025, -0.04271624982357025, 0.032406795769929886, -0.10517917573451996, 0.07408710569143295, 0.019105784595012665, -0.020804034546017647, 0.0015500517329201102, -0.06874170154333115, -0.1360299438238144, -0.3168337345123291, -0.14422781765460968, -0.02441306598484516, -0.1467943638563156, -0.022020181640982628, -0.008325619623064995, -0.002323566470295191, 0.08237333595752716, -0.08007409423589706, -0.11285462230443954, -0.06307952851057053, 0.08953659981489182, -0.08574047684669495, 0.0574239082634449, 0.01818668283522129, 0.010292816907167435, -0.026189355179667473, 0.10997173190116882, 0.034712597727775574, 0.1469442993402481, 0.04595223814249039, -0.034913018345832825, 0.015682091936469078], [-0.004448746796697378, 0.060489069670438766, 0.07216387987136841, -0.01920914649963379, -0.07335995882749557, 0.18082104623317719, -0.05776379257440567, 0.14027030766010284, 0.05083518102765083, -0.007592909038066864, 0.2270808070898056, -0.04098079353570938, -0.1418328881263733, -0.07072242349386215, 0.0019086702959612012, 0.012467758730053902, 0.06941861659288406, -0.07211076468229294, -0.05066673830151558, 0.023695839568972588, 0.20386745035648346, -0.03712082281708717, 0.08849207311868668, 0.07403173297643661, -0.09784606844186783, 0.026531564071774483, 0.02989978902041912, 0.05004804581403732, -0.04202065244317055, 0.07291077077388763, 0.20866362750530243, 0.09760193526744843, -0.01026366651058197, 0.006472342647612095, 0.028271537274122238, -0.030079418793320656, -0.010108284652233124, 0.17878927290439606, 0.053783390671014786, 0.0600644126534462, 0.02568972110748291, 0.0008533388026989996, 0.05125850811600685, 0.016803456470370293, -0.1417313516139984, 0.0362028144299984, 0.08915793895721436, -0.03863053768873215, 0.055204685777425766, -0.040856849402189255, 0.0586877316236496, 0.11541527509689331, -0.0344979465007782, -0.0028072891291230917, 0.046241000294685364, 0.003006585408002138, 0.06756888329982758, 0.04919512942433357, -0.018593549728393555, -0.017893178388476372, -0.03458246961236, -0.018739456310868263, 0.0488763265311718, -0.01874382048845291, 0.09909878671169281, -0.15740296244621277, 0.11564568430185318, -0.1352854073047638, -0.04871245101094246, 0.35774022340774536, -0.0925510823726654, 0.04930110275745392, -0.055719465017318726, 0.1480931043624878, -0.025408951565623283, -0.06052682176232338, -0.15213936567306519, -0.06028057634830475, -0.2146616131067276, -0.09009424597024918, 0.019186250865459442, -0.11631572246551514, 0.05331762135028839, 0.11024411767721176, -0.12004322558641434, -0.12515312433242798, 0.23490840196609497, 0.01243306789547205, -0.19036833941936493, -0.09743474423885345, -0.061362240463495255, 0.006732275243848562, -0.16436079144477844, -0.0651998519897461, 0.1965191662311554, -0.13959893584251404, 0.0005705857765860856, -0.005886335391551256, -0.1776253581047058, 0.04800128936767578, -0.09507008641958237, 0.16695769131183624, 0.19832004606723785, -0.0889669731259346, -0.07318789511919022, -0.03851357102394104, 0.03637972101569176, 0.15459933876991272, -0.014346412383019924, 0.01842208206653595, -0.04703262448310852, 0.038747388869524, -0.030385732650756836, -0.10334181040525436, -0.007004666607826948, -0.01938999816775322, -0.08986641466617584, 0.09097433090209961, -0.1093360185623169, 0.06407658755779266, -0.025771236047148705, 0.02878190390765667, -0.024079501628875732, 0.0588543526828289, -0.11085367947816849, -0.06520239263772964, 0.017034651711583138, -0.017985865473747253], [0.08391766995191574, 0.13011863827705383, -0.02558962069451809, 0.21843543648719788, -0.03820286691188812, -0.011999377980828285, -0.028792496770620346, 0.1161288470029831, -0.10285742580890656, -0.15088489651679993, 0.22115236520767212, -0.017841752618551254, 0.21011456847190857, 0.18870367109775543, 0.0469345822930336, -0.013508856296539307, -0.04606078937649727, -0.06237602233886719, 0.1403171867132187, 0.007541092112660408, 0.023360706865787506, 0.038765180855989456, 0.11788006126880646, -0.12155818939208984, 0.18444007635116577, 0.09907963871955872, 0.23594780266284943, 0.05264842137694359, -0.02037641406059265, 0.00543573871254921, 0.1171250194311142, -0.022510481998324394, -0.1043504998087883, -0.05292543023824692, -0.0692589208483696, -0.02128957025706768, 0.009901586920022964, -0.1274747997522354, -0.0256930161267519, -0.1539321392774582, 0.02723124995827675, 0.025304390117526054, -0.03275265544652939, 0.13614533841609955, 0.04232111945748329, -0.019829215481877327, -0.040206797420978546, 0.020544687286019325, 0.04034028202295303, -0.07761760801076889, 0.19538944959640503, -0.12073659151792526, 0.24391791224479675, -0.1013452410697937, 0.022519603371620178, 0.058569181710481644, -0.07662564516067505, 0.03144373744726181, 0.18159601092338562, -0.20766453444957733, -0.16686663031578064, 0.12343257665634155, 0.10027903318405151, -0.04658715799450874, -0.03647956624627113, -0.14439815282821655, 0.22343303263187408, 0.06237247213721275, 0.13571646809577942, 0.08553352952003479, 0.11280062794685364, 0.09507367014884949, -0.15377095341682434, -0.1194307953119278, -0.08081212639808655, -0.06251993030309677, 0.12513792514801025, 0.00601910101249814, 0.16390754282474518, -0.037779174745082855, 0.10187003016471863, 0.008784202858805656, 0.12502670288085938, -0.1340852826833725, 0.10310149937868118, 0.17840832471847534, 0.14186297357082367, 0.16134792566299438, -0.16089241206645966, 0.14835624396800995, 0.07146387547254562, 0.012940406799316406, -0.051557380706071854, 0.040128372609615326, -0.08546946942806244, -0.1394723355770111, 0.013952158391475677, -0.09049392491579056, 0.06856131553649902, 0.1831296980381012, 0.037499766796827316, 0.09313400834798813, 0.10919604450464249, 0.03307260200381279, 0.06427831947803497, -0.027213003486394882, 0.02262061834335327, 0.20925919711589813, 0.024505682289600372, 0.013503730297088623, 0.049985941499471664, 0.059250541031360626, 0.16644221544265747, 0.10767359286546707, -0.062079302966594696, -0.13615572452545166, -0.016330590471625328, 0.03415520861744881, -0.04626205936074257, 0.034741729497909546, -0.16453172266483307, 0.100201316177845, -0.12144909054040909, 0.16085003316402435, 0.05495039373636246, -0.14702773094177246, -0.057452473789453506, 0.13583357632160187], [0.030461817979812622, 0.03565831482410431, -0.20088569819927216, -0.120076984167099, -0.08499787747859955, -0.014282112941145897, 0.1324840635061264, 0.12809930741786957, 0.11399238556623459, -0.010425037704408169, -0.20236116647720337, 0.01975986734032631, 0.11653053015470505, -0.006914906669408083, -0.21544192731380463, -0.027740249410271645, 0.009127805009484291, -0.028659189119935036, 0.23150235414505005, -0.033042680472135544, -0.16928604245185852, 0.04505586624145508, 0.05362788960337639, 0.0939725860953331, -0.1605471819639206, 0.10700544714927673, -0.11580009013414383, -0.029547929763793945, -0.07346371561288834, -0.1294153928756714, -0.15270991623401642, 0.013964026235044003, 0.1516672968864441, 0.07263894379138947, -0.017615502700209618, 0.033540304750204086, -0.02034458890557289, -0.031057624146342278, -0.11367680877447128, 0.027392985299229622, -0.06282087415456772, -0.08296623826026917, 0.0863904282450676, 0.14354324340820312, -0.05825214460492134, -0.06708753854036331, -0.051547400653362274, 0.025972899049520493, 0.01868484355509281, -0.11160275340080261, 0.06442972272634506, 0.03661636263132095, 0.0699145495891571, -0.028957685455679893, -0.024165121838450432, 0.05768139660358429, -0.02590053901076317, 0.0018960952293127775, -0.003392391372472048, 0.0376480296254158, 0.012825931422412395, 0.1554449498653412, 0.05092089623212814, -0.049938201904296875, 0.007057507522404194, 0.24379675090312958, -0.13203497231006622, -0.1298164576292038, 0.07998725026845932, 0.12792298197746277, -0.197274848818779, -0.1634572595357895, -0.04143255949020386, -0.05903274565935135, -0.06412988901138306, -0.15388157963752747, -0.015069152228534222, -0.0872059166431427, -0.129855677485466, -0.005369370803236961, 0.032690610736608505, -0.22098487615585327, 0.23594926297664642, -0.0045793140307068825, -0.08506392687559128, 0.15309272706508636, 0.18057292699813843, 0.17851917445659637, 0.10015248507261276, 0.22018885612487793, -0.008316929452121258, -0.04362289980053902, 0.20165102183818817, -0.07363276183605194, -0.014912068843841553, 0.06556829065084457, 0.062143824994564056, 0.07794189453125, -0.0008453857735730708, -0.06244446337223053, -0.04766613990068436, 0.015106593258678913, 0.1218409538269043, -0.03485511615872383, -0.1294039785861969, 0.008453184738755226, -0.04041798412799835, -0.21865734457969666, 0.03810921683907509, -0.08864527940750122, 0.0023783871438354254, 0.020994609221816063, -0.003257120493799448, 0.05371459573507309, 0.02277871035039425, -0.1219843402504921, -0.06950677931308746, 0.006615217309445143, 0.1786459982395172, 0.018706930801272392, -0.10351331532001495, 0.076687291264534, 0.03582805395126343, -0.09290067851543427, -0.0949862152338028, -0.059716738760471344, 0.14219947159290314, -0.1860554963350296], [0.02336808852851391, -0.14694902300834656, -0.029686598107218742, -0.11873995512723923, -0.22930054366588593, -0.007586452644318342, -0.03558095544576645, -0.21287767589092255, 0.0826965719461441, 0.05852518230676651, -0.052729249000549316, -0.01663733273744583, 0.12004636228084564, 0.1611301451921463, -0.16978809237480164, -0.09369854629039764, 0.043514519929885864, -0.2232915610074997, 0.14425937831401825, -0.18697726726531982, -0.18960286676883698, 0.18669337034225464, 0.12007652223110199, -0.06339327991008759, -0.18791241943836212, 0.0049607763066887856, -0.15909726917743683, -0.1442398726940155, -0.04666953161358833, -0.1412482112646103, -0.07620514184236526, -0.0458841435611248, -0.05987723171710968, -0.012601147405803204, 0.026180386543273926, -0.0812399834394455, 0.012181777507066727, 0.011404125951230526, -0.01598958484828472, -0.060338374227285385, -0.1489267498254776, -0.10568666458129883, 0.050896622240543365, 0.002807906363159418, 0.016782714053988457, 0.0016663195565342903, -0.15467558801174164, -0.11682687699794769, -0.05509568750858307, -0.071085624396801, 0.010185987688601017, 0.028814518824219704, -0.05382181704044342, -0.07015478610992432, 0.16348616778850555, -0.042845141142606735, -0.016344241797924042, -0.023897215723991394, 0.05933724343776703, 0.011509090662002563, -0.11620857566595078, -0.01161059457808733, -0.07450743764638901, 0.020862670615315437, 0.11180244386196136, 0.0863337367773056, -0.2095750868320465, 0.021004335954785347, 0.010956116952002048, -0.017295219004154205, 0.09462340176105499, -0.15401683747768402, -0.12352140247821808, 0.025718197226524353, 0.10449486970901489, -0.03521478548645973, 0.13167822360992432, 0.02782914787530899, 0.11109974980354309, -0.10194304585456848, -0.18458764255046844, -0.04720764979720116, 0.1471373587846756, 0.09914024919271469, 0.01071749348193407, -0.1441565454006195, 0.28444281220436096, -0.06509857624769211, -0.1832393854856491, 0.07566899806261063, -0.06800848990678787, 0.02982425130903721, 0.2189422845840454, 0.009980889037251472, -0.13015209138393402, 0.10174744576215744, 0.025991929695010185, -0.07769818603992462, 0.14462122321128845, -0.22966960072517395, -0.09949702024459839, 0.17587275803089142, -0.10869414359331131, -0.17346659302711487, -0.05649935081601143, 0.12238962203264236, 0.002179947914555669, -0.21789804100990295, -0.09811815619468689, 0.03944237157702446, 0.0339178666472435, 0.03054232709109783, -0.09011595696210861, 0.049910444766283035, 0.1628296822309494, -0.13878998160362244, 0.02166333980858326, 0.09833403676748276, -0.044852450489997864, 0.022824453189969063, 0.07978270202875137, 0.06593851000070572, 0.09758554399013519, -0.03264957666397095, 0.047334324568510056, 0.07218019664287567, 0.1900356411933899, -0.10877618938684464], [-0.0007947419071570039, 0.04028654471039772, 0.058974042534828186, 0.028151942417025566, -0.21575182676315308, -0.11752766370773315, -0.14268279075622559, 0.1346474289894104, 0.008829668164253235, 0.010409950278699398, 0.17120106518268585, -0.02183772809803486, 0.0017458030488342047, -0.06206725537776947, 0.1081015020608902, -0.05486557260155678, -0.05665354058146477, 0.11876439303159714, -0.01234885398298502, 0.10629614442586899, 0.10135382413864136, 0.07702021300792694, -0.1739451140165329, -0.032524093985557556, -0.14921411871910095, -0.0369468592107296, -0.10768457502126694, -0.04559878632426262, -0.014657239429652691, -0.20734335482120514, 0.06680318713188171, 0.1676066666841507, -0.06926219910383224, 0.07695510238409042, -0.022607853636145592, -0.10818355530500412, 0.03741694986820221, 0.04398488625884056, 0.024448176845908165, -0.11108095198869705, -0.04736028239130974, -0.0010022588539868593, -0.022066157311201096, 0.01475841086357832, -0.040848635137081146, -0.009553653188049793, -0.07443082332611084, -0.11300443112850189, -0.17549261450767517, -0.0021012776996940374, -0.16680431365966797, -0.08522891253232956, 0.027526820078492165, -0.05144866555929184, -0.07303699851036072, 0.11092107743024826, -0.13430261611938477, 0.10955921560525894, -0.21655620634555817, -0.024517519399523735, -0.21168673038482666, 0.08723816275596619, -0.06461220234632492, 0.19707772135734558, -2.5906332666636445e-05, 0.027932031080126762, -0.01921907626092434, 0.14460350573062897, -0.16916882991790771, 0.10226766020059586, -0.16530512273311615, -0.00744758453220129, -0.12840582430362701, -0.0752103328704834, 0.12403097748756409, 0.00421976950019598, 0.06964855641126633, 0.02772687003016472, 0.02050071582198143, 0.1276761144399643, 0.06295006722211838, 0.06297775357961655, 0.14136022329330444, 0.04789343848824501, 0.11072004586458206, 0.038742806762456894, 0.08583827316761017, -0.16709385812282562, 0.14633938670158386, -0.09393325448036194, 0.10251197963953018, 0.06018654629588127, 0.03140656277537346, 0.007368976715952158, -0.01297836285084486, 0.012108336202800274, -0.08024905622005463, -0.012873533181846142, 0.06960669904947281, 0.06613054126501083, -0.01854577846825123, 0.002689891029149294, -0.10229843854904175, 0.12967641651630402, 0.15181799232959747, -0.10518626123666763, -0.1490696519613266, 0.08965377509593964, -0.042198795825242996, -0.007397410459816456, -0.0264847781509161, -0.04924241080880165, -0.02903934195637703, -0.05939928814768791, 0.0057219634763896465, -0.14346657693386078, 0.12041114270687103, 0.01451779343187809, -0.13303647935390472, -0.08999010920524597, -0.1208014115691185, -0.034378040581941605, 0.047767288982868195, 0.069663405418396, -6.7884839154430665e-06, 0.07908748835325241, -0.20332923531532288, 0.038194689899683], [-0.03392673656344414, -0.037377241998910904, 0.13063201308250427, 0.11591711640357971, -0.23655565083026886, -0.159303218126297, 0.028386835008859634, 0.07296114414930344, -0.009295766241848469, 0.1974412202835083, -0.07259204983711243, -0.02793852426111698, -0.011018726043403149, -0.030663063749670982, -0.13189229369163513, -0.14638270437717438, -0.0901949405670166, 0.030387332662940025, 0.058262571692466736, -0.10232377797365189, -0.2272484451532364, 0.05717875435948372, 0.0498448982834816, 0.05060257390141487, -0.1130920946598053, 0.031191116198897362, -0.11911574006080627, -0.01907709240913391, -0.04510658234357834, 0.006316951010376215, -0.06690004467964172, -0.03803747147321701, -0.010878147557377815, 0.0026900966186076403, -0.0002987771586049348, 0.04790942370891571, -0.006042858585715294, 0.01961376890540123, -0.03426123782992363, 0.1477179080247879, 0.01581919752061367, 0.06221285089850426, 0.1720173954963684, 0.036990631371736526, -0.0020009600557386875, 0.10318645089864731, -0.03269834816455841, -0.025181211531162262, -0.019907617941498756, 0.024844635277986526, -0.0007410182151943445, 0.04811331629753113, -0.024109577760100365, -0.011563949286937714, 0.06257321685552597, -0.04105333983898163, -0.0008554202504456043, -0.0119222616776824, 0.016506223008036613, -0.005461330525577068, 0.026543371379375458, -0.020683249458670616, -0.08651445060968399, 0.008405277505517006, 0.14779001474380493, 0.10794924944639206, -0.07339584827423096, -0.23387368023395538, 0.131903275847435, 0.04033302888274193, -0.14736999571323395, -0.1738412082195282, -0.13031220436096191, 0.17490071058273315, 0.016931965947151184, -0.24688974022865295, -0.08213908225297928, -0.04598318785429001, -0.2584378123283386, -0.026090599596500397, -0.21731004118919373, -0.15147878229618073, 0.244969442486763, -0.03222265839576721, 0.07646440714597702, 0.08029460161924362, 0.1298702359199524, 0.07384460419416428, -0.15152326226234436, 0.18330563604831696, -0.08653543889522552, -0.018786009401082993, 0.17034029960632324, 0.02861640974879265, 0.05665303021669388, 0.05166181921958923, 0.06431887298822403, 0.1225321963429451, -0.09763320535421371, -0.01711283065378666, -0.05029229819774628, 0.0013129449216648936, 0.04060230031609535, -0.0676378384232521, -0.11442979425191879, 0.059256281703710556, -0.1281955987215042, -0.047461654990911484, -0.12021180242300034, -0.09495431184768677, -0.08493568748235703, 0.016328060999512672, 0.024448206648230553, -0.28133654594421387, 0.15652664005756378, 0.06447812169790268, 0.08368664234876633, 0.04914218559861183, 0.051864080131053925, -0.07687832415103912, 0.1288960874080658, 0.04148956015706062, -0.1304488629102707, -0.017432156950235367, -0.16258235275745392, 0.055826686322689056, 0.059586748480796814, -0.0629156157374382], [-0.09790533035993576, -0.022869406268000603, -0.10290089249610901, -0.052763793617486954, 0.11760071665048599, -0.15730005502700806, 0.005883820354938507, -0.1540471464395523, -0.17272621393203735, 0.0970773845911026, 0.11685042828321457, 0.19357222318649292, -0.03265896439552307, -0.14182229340076447, -0.0816037505865097, -0.13777703046798706, 0.08778832107782364, 0.14511868357658386, -0.07820550352334976, -0.11347818374633789, -0.08579328656196594, 0.09380398690700531, -0.09950527548789978, 0.08843420445919037, 0.007011274341493845, -0.04225098714232445, 0.11613921076059341, -0.09024506062269211, -0.15976496040821075, 0.13486947119235992, 0.03384023904800415, -0.0014182771556079388, 0.05793629586696625, -0.0004739315190818161, 0.11864397674798965, -0.14404892921447754, -0.03411642462015152, 0.00403444841504097, 0.12009420245885849, -0.07786408811807632, -0.08388421684503555, -0.14569184184074402, 0.0987662672996521, -0.024406708776950836, 0.060004521161317825, -0.02585175260901451, 0.06881739944219589, 0.04681387543678284, -0.06880782544612885, 0.012311789207160473, 0.013136775232851505, 0.01742718555033207, -0.08808858692646027, 0.033437151461839676, -0.014273016713559628, -0.08483879268169403, 0.028745291754603386, 0.1126391664147377, -0.11672618240118027, -0.0376521535217762, 0.025345666334033012, -0.14999598264694214, 0.018025580793619156, -0.06323952227830887, -0.16921360790729523, -0.2282416820526123, 0.020596688613295555, 0.22883406281471252, 0.04750891774892807, -0.14157451689243317, 0.1212838664650917, -0.11193445324897766, 0.09492339938879013, 0.10224086791276932, 0.15303994715213776, 0.16168977320194244, 0.06431117653846741, 0.10419142991304398, 0.11551681905984879, -0.15550309419631958, 0.039966754615306854, -0.015902191400527954, -0.10590608417987823, 0.07767868041992188, 0.04185463488101959, 0.07424900680780411, -0.120535708963871, -0.12597693502902985, 0.13249768316745758, -0.0015788344899192452, -0.03973015397787094, -0.07646699249744415, -0.1679268479347229, -0.08631837368011475, -0.1512996107339859, 0.060186006128787994, -0.10112278163433075, -0.008039196953177452, 0.03405410796403885, 0.22475357353687286, 0.13855530321598053, -0.15686894953250885, 0.06742259114980698, -0.13600783050060272, 0.16256004571914673, 0.1350259929895401, 0.016016889363527298, 0.1939631551504135, -0.03213170915842056, -0.0014806764665991068, -0.040193211287260056, -0.13055598735809326, 0.02257547527551651, 0.00918674562126398, 0.08476810902357101, 0.13067160546779633, 0.1365973949432373, -0.10325174778699875, 0.07169455289840698, 0.012727447785437107, -0.0831327736377716, 0.02469482831656933, -0.18785129487514496, -0.021446574479341507, -0.20746736228466034, -0.07344061881303787, -0.08108732849359512, 0.08240435272455215], [0.030465777963399887, 0.2403220534324646, -0.16478873789310455, 0.03920659422874451, 0.17581729590892792, 0.09750843793153763, 0.009948805905878544, -0.03598017618060112, -0.03856120631098747, -0.16420845687389374, 0.004266559146344662, 0.05892854928970337, -0.07073167711496353, 0.242589071393013, -0.1987575888633728, 0.10460223257541656, -0.11718124151229858, 0.031168200075626373, 0.2767007052898407, -0.049234528094530106, 0.12649841606616974, 0.16216769814491272, 0.08605528622865677, 0.09275538474321365, -0.08447481691837311, 0.00941528845578432, 0.18012391030788422, -0.020226608961820602, -0.05057530477643013, 0.1166640967130661, 0.15033306181430817, -0.1441785842180252, 0.12793728709220886, 0.03845932334661484, -0.15061987936496735, -0.030714569613337517, 0.0013525948161259294, 0.018634365871548653, -0.06073033809661865, 0.08118598163127899, 0.0962810218334198, -0.1241500973701477, -0.05819743499159813, -0.04511163756251335, -0.06445460766553879, -0.0904664397239685, 0.030673066154122353, 0.07468198239803314, 0.16932173073291779, 0.008948777802288532, 0.07476239651441574, 0.12762503325939178, -0.07805954664945602, -0.028590327128767967, 0.029281271621584892, -0.087201327085495, -0.062259331345558167, -0.061039701104164124, -0.13387641310691833, 0.13226239383220673, 0.047780655324459076, 0.16902683675289154, 0.0030904430896043777, -0.18681736290454865, 0.23646144568920135, 0.13947847485542297, -0.17143972218036652, 0.0748678669333458, 0.056879814714193344, 0.156008780002594, 0.033749911934137344, -0.046725597232580185, 0.03898226097226143, -0.14248180389404297, 0.12028750032186508, 0.04551100358366966, 0.12570708990097046, 0.0924319326877594, -0.06850573420524597, 0.1505196988582611, -0.16469265520572662, 0.006046850699931383, 0.24461226165294647, 0.013926103711128235, -0.14323680102825165, 0.21233248710632324, 0.38366562128067017, 0.07524294406175613, 0.008317054249346256, 0.18715299665927887, -0.012745101004838943, 0.09089193493127823, 0.08075553923845291, -0.021211182698607445, -0.09429030120372772, 0.15540769696235657, 0.13827840983867645, 0.16635669767856598, -0.18951648473739624, -0.05317222699522972, 0.047875046730041504, -0.03907238319516182, -0.08100718259811401, -0.011147388257086277, 0.0730905756354332, 0.11386071890592575, -0.01965770125389099, 0.0411592572927475, 0.03454055264592171, -0.07675234228372574, -0.046225715428590775, 0.04086514562368393, -0.17314501106739044, 0.04640432819724083, 0.14672045409679413, 0.17204564809799194, 0.02072855830192566, -0.1014198288321495, 0.20049810409545898, -0.06433994323015213, -0.1462111920118332, -0.025563698261976242, 0.04376809298992157, -0.10646455734968185, -0.1657586395740509, 0.10380912572145462, -0.07673975825309753, -0.027604756876826286], [0.012331978417932987, 0.019072912633419037, 0.05622391030192375, 0.03007063828408718, 0.12541399896144867, 0.14995825290679932, 0.13933001458644867, 0.06357213109731674, 0.1455708146095276, -0.024818677455186844, 0.0739118903875351, 0.08282709121704102, -0.08980756253004074, -0.03771452233195305, 0.06301882863044739, 0.05711132287979126, 0.16443711519241333, 0.15497873723506927, 0.04649471864104271, -0.15840348601341248, 0.10682855546474457, 0.07619240134954453, 0.00021922773157712072, -0.11930596828460693, 0.003368871286511421, -0.033540572971105576, 0.09734618663787842, 0.013249706476926804, 0.024226779118180275, -0.15461532771587372, 0.00968764629215002, -0.0420093908905983, -0.02124328725039959, -0.02347448281943798, -0.010519932024180889, -0.0448441319167614, -0.004238197114318609, -0.0008837097557261586, 0.03402557596564293, -0.13106755912303925, -0.0477169044315815, 0.010488752275705338, -0.1316533386707306, -0.06349555402994156, 0.027737371623516083, -0.024462983012199402, -0.03951481729745865, 0.03354349359869957, -0.005090839695185423, -0.012216887436807156, -0.005601408891379833, 0.041874904185533524, 0.06867554038763046, -0.004291434772312641, 0.002458929317072034, 0.014687266200780869, -0.000546420575119555, 0.005683007184416056, -0.038573652505874634, -0.0020765147637575865, -0.019594555720686913, -0.032814957201480865, 0.0011940926779061556, -0.007823611609637737, -0.028509099036455154, -0.3201279044151306, 0.08578851819038391, 0.2565629184246063, -0.02932833880186081, 0.05813400447368622, -0.09023910015821457, 0.11993245035409927, -0.1758105605840683, -0.11273328214883804, 0.02993389219045639, 0.09888552129268646, -0.008189607411623001, -0.13729634881019592, -0.02596256695687771, -0.22003179788589478, 0.18932700157165527, -0.07610029727220535, -0.08220604807138443, 0.03258706256747246, 0.19401566684246063, -0.03195701912045479, -0.22892388701438904, -0.17045336961746216, 0.05657978728413582, -0.24583400785923004, -0.07311311364173889, -0.23419788479804993, -0.2909097969532013, 0.06919479370117188, -0.09689992666244507, -0.2185225784778595, 0.02464326098561287, -0.018221242353320122, 0.20493671298027039, 0.14003528654575348, 0.04539456218481064, -0.00037704608985222876, 0.12014853954315186, -0.013117154128849506, 0.12010006606578827, 0.07498255372047424, 0.13799399137496948, 0.16913777589797974, -0.023742862045764923, -0.010338365100324154, -0.006024893373250961, -0.04084331914782524, 0.07297836989164352, 0.00476380530744791, -0.08475770056247711, 0.040077969431877136, 0.005884099286049604, -0.04551255330443382, -0.09902570396661758, 0.0006405905587598681, -0.0831463634967804, -0.01026600506156683, -0.08408373594284058, 0.01581147126853466, 0.054720424115657806, 0.00792964268475771, -0.10179232805967331, 0.05922015383839607], [-0.06389539688825607, -0.09776707738637924, 0.058573149144649506, -0.012885792180895805, 0.2942524552345276, 0.06944598257541656, 0.1340474635362625, -0.0552837960422039, 0.19457778334617615, -0.16908414661884308, -0.14908693730831146, 0.1432240605354309, 0.0533578097820282, 0.07808773964643478, 0.1771414577960968, 0.07226433604955673, -0.17724734544754028, 0.18804191052913666, 0.15139110386371613, -0.030861875042319298, 0.1777246743440628, 0.1382342427968979, -0.17230500280857086, 0.1505230814218521, -0.07803158462047577, 0.08628339320421219, -0.07465281337499619, -9.085271449293941e-05, -0.015792302787303925, -0.14161451160907745, -0.18341843783855438, -0.12505680322647095, -0.10838111490011215, -0.0247500017285347, 0.09693223237991333, 0.051669616252183914, -0.006320012267678976, 0.01935778371989727, -0.007466057315468788, -0.007560092955827713, -0.20893748104572296, -0.07495343685150146, -0.086079902946949, 0.0953713208436966, 0.03417376056313515, 0.124588742852211, 0.009203437715768814, 0.09402546286582947, -0.12918050587177277, 0.05527009069919586, -0.06206557899713516, -0.08120599389076233, 0.049214717000722885, -0.016550803557038307, -0.025333346799016, 0.1260235458612442, 0.004007705952972174, 0.02711409702897072, -0.08631967753171921, -0.05479898303747177, -0.10035716742277145, -0.008209326304495335, -0.04842110350728035, 0.040100470185279846, -0.29126814007759094, -0.2795562148094177, -0.04978034272789955, 0.03931482136249542, 0.015835490077733994, 0.07909312099218369, -0.08970297127962112, -0.0729009211063385, 0.1373007595539093, -0.1156684160232544, 0.13927620649337769, -0.08349774032831192, -0.11114080995321274, -0.12706327438354492, -0.07752455025911331, 0.08064444363117218, 0.08002804964780807, 0.31124696135520935, 0.1323322057723999, -0.12625551223754883, 0.09572401642799377, 0.044049400836229324, -0.09497173130512238, -0.02977442927658558, 0.12523357570171356, 0.06198190897703171, -0.10731213539838791, -0.1227189227938652, -0.219366654753685, -0.08919976651668549, 0.04398053511977196, 0.06472507119178772, -0.2527329623699188, -0.031459491699934006, -0.033538542687892914, 0.18127430975437164, -0.025727614760398865, -0.00522850826382637, 0.11611361056566238, 0.004598789382725954, 0.042941704392433167, 0.14613953232765198, 0.09072649478912354, 0.05638549104332924, 0.16212482750415802, -0.03594145178794861, 0.05094059184193611, -0.02734612673521042, 0.0859508216381073, 0.11849271506071091, 0.11469710618257523, 0.021007662639021873, 0.014938007108867168, 0.10360018908977509, -0.11817584931850433, -0.04718119651079178, 0.23325306177139282, -0.03972260653972626, -0.03870469331741333, -0.0058574373833835125, 0.02688645012676716, -0.036685675382614136, -0.11441006511449814, 0.05110062286257744], [0.003379352390766144, -0.05771016329526901, 0.030431881546974182, 0.028913429006934166, -0.11901606619358063, 0.09094560146331787, 0.07639119029045105, 0.16910375654697418, -0.07828197628259659, 0.11517378687858582, 0.2324577122926712, 0.01737520657479763, 0.16247323155403137, 0.1738349050283432, -0.17296525835990906, 0.12851352989673615, 0.0380355641245842, -0.09906411170959473, 0.1243194043636322, 0.05820735543966293, -0.06707341223955154, 0.16800303757190704, -0.038732677698135376, 0.032677970826625824, -0.05670446529984474, 0.04208127781748772, -0.04611373692750931, 0.004922825377434492, 0.003270941786468029, 0.09031680971384048, 0.010094381868839264, 0.018609290942549706, -0.005104477982968092, -0.027161460369825363, 0.00269527779892087, -0.004249251913279295, -0.021820327267050743, 0.007395380642265081, 0.008837943896651268, -0.10297758877277374, -0.01999732479453087, -0.042327627539634705, 0.05191560834646225, 0.018762119114398956, -0.01488542277365923, -0.018515534698963165, -0.07656719535589218, 0.08436229825019836, -0.007734110578894615, -0.0004388469678815454, -0.030062682926654816, -0.06487876176834106, 0.02970687672495842, -0.041155725717544556, -0.024355418980121613, 0.030652185901999474, 0.00698007782921195, -0.006858150474727154, -0.00022425942006520927, -0.004470038693398237, 0.04006090387701988, -0.03917253762483597, -0.040582604706287384, -0.04573329910635948, 0.18227793276309967, -0.015241342596709728, -0.20072950422763824, 0.03643384948372841, 0.03317815437912941, 0.052841559052467346, 0.20171989500522614, 0.15184007585048676, -0.07880011200904846, 0.1454544961452484, -0.026449646800756454, -0.024005921557545662, 0.07646726071834564, 0.19296926259994507, 0.08345580101013184, 0.17839577794075012, 0.1833844780921936, -0.058662451803684235, 0.21775592863559723, 0.13308721780776978, 0.04536626860499382, 0.02126520313322544, 0.1183658167719841, 0.21515777707099915, -0.073890320956707, 0.1845882683992386, 0.04409640282392502, 0.018226899206638336, 0.06370525062084198, 0.11359342932701111, -0.008033761754631996, -0.15720492601394653, 0.00810434389859438, -0.06177603825926781, -0.12942974269390106, -0.06668291985988617, 0.014744721353054047, -0.018559476360678673, -0.06369329243898392, -0.021255457773804665, -0.1684793084859848, 0.17314769327640533, 0.10429713875055313, 0.01909034512937069, 0.023333927616477013, 0.030571088194847107, 0.042125482112169266, 0.02961229532957077, -0.015737809240818024, -0.11150992661714554, 0.17216895520687103, 0.17320682108402252, -0.06857442855834961, 0.200729638338089, -0.09932969510555267, -0.015667013823986053, -0.0019135663751512766, 0.08624313771724701, -0.2019326090812683, 0.010274228639900684, -0.05193378031253815, 0.02767314203083515, 0.08773697912693024, -0.1102236658334732], [-0.09281714260578156, -0.09661167860031128, -0.1510387510061264, 0.14595986902713776, -0.03209543600678444, 0.0791185200214386, 0.057284437119960785, -0.12426678836345673, 0.12199582159519196, -0.1251678168773651, -0.016080837696790695, 0.23703749477863312, 0.026618845760822296, -0.04025604575872421, -0.09652397781610489, -0.06921236217021942, 0.06806778162717819, -0.03915601223707199, -0.2359774112701416, -0.06240994855761528, -0.06489018350839615, 0.12744472920894623, -0.06025374308228493, 0.003275497816503048, -0.06118746101856232, 0.04523394629359245, -0.030068257823586464, -0.20563620328903198, 0.05720312520861626, -0.04284932091832161, -0.18607939779758453, 0.11327336728572845, -0.21372199058532715, -0.09418930113315582, 0.09380263090133667, -0.06151377782225609, -0.0003772446361836046, 0.006832490675151348, 0.06068979203701019, -0.20271149277687073, 0.0627889409661293, -0.1881379783153534, -0.014774370938539505, 0.03289385885000229, -0.009515553712844849, 0.047118112444877625, -0.1171078309416771, 0.029626833274960518, -0.06200963258743286, 0.06183318793773651, -0.12621092796325684, -0.008482247591018677, -0.07215958833694458, 0.04488753899931908, 0.026125477626919746, -0.01036665216088295, 0.17910140752792358, 0.09400495141744614, 0.08002082258462906, -0.12297113984823227, -0.055553413927555084, -0.021928755566477776, -0.0009168476099148393, 0.27778640389442444, -0.20510251820087433, -0.27874889969825745, 0.13479077816009521, 0.30824556946754456, -0.10468020290136337, 0.0276382677257061, 0.09843908995389938, -0.038167595863342285, 0.1363038420677185, 0.047053806483745575, 0.0005706739611923695, 0.09344937652349472, -0.008100557141005993, -0.1258174479007721, 0.16140277683734894, -0.22787727415561676, 0.21203629672527313, 0.10236047208309174, -0.14616286754608154, -0.048807717859745026, -0.03274494409561157, 0.15150003135204315, -0.1657422035932541, -0.022228408604860306, -0.09017415344715118, -0.14757013320922852, 0.033892326056957245, -0.00027520436560735106, -0.1455099880695343, -0.09381864964962006, 0.14178454875946045, -0.18179023265838623, -0.034918162971735, -0.05658138915896416, -0.07964546978473663, 0.1709846556186676, 0.05853188410401344, 0.034310031682252884, 0.13845562934875488, -0.008277001790702343, -0.12985597550868988, 0.05530628189444542, 0.03547241911292076, 0.04457490146160126, -0.04201290383934975, -0.04119762405753136, 0.09213323146104813, -0.017891963943839073, 0.13312742114067078, -0.005231906194239855, -0.04865848645567894, 0.04550804942846298, 0.15956023335456848, 0.0682346448302269, -0.11494863778352737, 0.12464314699172974, -0.07583542913198471, 0.053517844527959824, -0.09037142246961594, 0.009215863421559334, 0.1212620660662651, 0.008260836824774742, 0.019003650173544884, 0.03365898132324219], [-0.06046176329255104, 0.16500884294509888, -0.204849511384964, -0.0811370387673378, 0.07743147015571594, 0.10100496560335159, -0.17878670990467072, -0.11964455246925354, 0.08518170565366745, 0.010361583903431892, 0.12577557563781738, -0.05094253644347191, -0.14686518907546997, 0.0418691411614418, 0.07749155163764954, -0.11612439155578613, -0.09474401921033859, -0.15132597088813782, -0.012803505174815655, -0.18706786632537842, -0.14555087685585022, -0.034850120544433594, -0.13188739120960236, -0.18969354033470154, -0.15266482532024384, -0.10323388129472733, -0.010446681641042233, -0.04196400195360184, 0.05254609137773514, 0.049870532006025314, 0.11866220086812973, -0.13513153791427612, -0.009874783456325531, -0.0405888631939888, -0.09437041729688644, 0.027214739471673965, -0.10023511201143265, 0.013031305745244026, -0.03499048948287964, -0.02850150875747204, 0.09817274659872055, 0.10259829461574554, -0.04629209637641907, 0.015148392878472805, -0.009199458174407482, -0.060958657413721085, 0.0526694618165493, 0.008029920049011707, 0.12758813798427582, 0.09071220457553864, 0.037487003952264786, 0.1555105745792389, 0.03166551515460014, -0.05236659571528435, -0.15147380530834198, 0.002506461925804615, 0.026519712060689926, -0.06357825547456741, 0.06040235608816147, 0.04221593588590622, 0.002426653169095516, 0.1203295961022377, -0.05856538936495781, 0.027663204818964005, 0.20644252002239227, 0.04424760118126869, -0.06131218001246452, 