{"embedding/weights:0": [[-0.004431664943695068, -0.13163015246391296, -0.32704150676727295, 0.33924582600593567, -0.18997801840305328, -0.04379093647003174, 0.28623083233833313, 0.3185976445674896, -0.1516534835100174, 0.23138388991355896, 0.011134535074234009, 0.3329789936542511, -0.11277072131633759, 0.3503752052783966, 0.03685900568962097, 0.09581762552261353], [0.4842481315135956, -0.9061769843101501, 0.9747572541236877, -0.24068669974803925, -0.30952179431915283, -0.20551887154579163, 0.0948813334107399, -0.12416329234838486, 0.1661192625761032, -0.153111070394516, 0.7655543684959412, -0.0986788347363472, 0.5591841340065002, -0.2562004029750824, -0.7200375199317932, -0.2447369247674942], [-0.17802409827709198, 0.26368775963783264, 0.060034412890672684, 0.49670088291168213, 0.5129004716873169, 0.7074213624000549, -0.3304402828216553, -0.007321743760257959, -0.4842335283756256, -0.3588041365146637, -0.0548890195786953, -0.42223986983299255, -0.42962637543678284, 0.08671107888221741, 0.3785717487335205, 0.07939175516366959], [0.5672209858894348, 0.48189133405685425, -0.538877010345459, 0.3682193160057068, 0.41900020837783813, 0.617287814617157, -0.571357250213623, -1.1353367567062378, -0.5273180603981018, -0.3414573669433594, -0.37220194935798645, -0.2401004433631897, 0.5699886083602905, 0.7330776453018188, -0.5312798023223877, -0.09511183947324753], [0.3873882591724396, -0.18172147870063782, 0.17267997562885284, -1.0875605344772339, 0.398205429315567, 0.45363378524780273, -0.2829698920249939, -0.2178000807762146, -0.15663990378379822, 0.22018906474113464, -0.11261703819036484, -0.07656047493219376, -0.6761659383773804, -0.3311266005039215, -0.6093692779541016, -0.8131605386734009], [0.1626041829586029, 0.10882941633462906, 0.4198358952999115, -0.1862129122018814, -0.3937690854072571, 0.279234915971756, -0.6314176321029663, -0.7580265998840332, 0.17015227675437927, 0.8569735884666443, 0.41552871465682983, 0.7520322799682617, -0.48928457498550415, 0.1832209825515747, -0.052913691848516464, 0.28155800700187683], [0.07628089189529419, -0.07123295217752457, 0.3544355034828186, 0.3496416509151459, 0.2753683030605316, -0.08609630167484283, -0.8599843978881836, -0.19119659066200256, 0.09490405023097992, -0.011076600290834904, 0.2535087764263153, -0.2990931272506714, -0.6145310401916504, 0.17571663856506348, -0.3037269711494446, -0.34728530049324036], [-0.5218334794044495, -0.4616521894931793, 0.4441952705383301, -0.3722766637802124, -0.05665949359536171, 0.4479716420173645, -0.09659691900014877, -0.16288740932941437, -0.7015805244445801, 0.17411914467811584, -0.45975303649902344, 0.37621039152145386, -0.17010577023029327, 0.10569502413272858, -0.23313948512077332, 0.12796857953071594], [0.0436098650097847, -0.17079053819179535, -0.5282425284385681, 0.3066898584365845, 0.08928830176591873, -0.3316986858844757, 0.739646852016449, 0.6794928908348083, -0.13313090801239014, 0.023478802293539047, 0.045271024107933044, 0.5112863183021545, -0.22954247891902924, -0.22031332552433014, -0.7989216446876526, 0.7129127383232117], [-0.01949295774102211, -0.5772704482078552, -0.4291127026081085, 0.2944302260875702, 0.3708480894565582, -0.3087165951728821, 0.7721311450004578, -0.05056391656398773, -0.33399102091789246, 0.9975822567939758, -0.026461046189069748, -0.09107822179794312, 0.44708776473999023, -0.13671311736106873, 0.5208494663238525, -0.5462746620178223], [0.16442540287971497, 0.19038191437721252, -0.1532687544822693, -0.13533970713615417, 0.3439260423183441, 0.21889325976371765, -0.35666659474372864, -0.09576258063316345, 0.322407990694046, -0.07932430505752563, 0.31664857268333435, 0.12830471992492676, -0.34233102202415466, 0.3389865458011627, -0.23262493312358856, 0.180668443441391], [0.37070950865745544, 0.45041853189468384, -0.21809953451156616, 0.4475042521953583, -0.17970417439937592, -0.2800367772579193, 0.1744270920753479, -0.4717406630516052, -0.5981827974319458, -0.44041770696640015, 0.11649807542562485, 0.202233225107193, -0.24174442887306213, -0.3220915198326111, 0.021866867318749428, -0.3634037971496582], [-0.13224539160728455, -0.13395440578460693, -0.006702761631458998, 0.32908254861831665, -0.7098578214645386, -0.812367856502533, -0.44976624846458435, -0.17412427067756653, -0.23177915811538696, -0.5158175826072693, -0.39863961935043335, -0.04105466231703758, -0.10804451256990433, 0.7253512740135193, 0.539143979549408, 0.2604195773601532], [0.285608172416687, -0.07869303971529007, -0.0870371088385582, -0.14759063720703125, -0.12837783992290497, 0.3595534861087799, 0.04371299967169762, 0.8112437129020691, -0.3404645323753357, 0.12157362699508667, 0.5865915417671204, 0.28145071864128113, -0.12252610176801682, 0.7754424214363098, -0.1635412573814392, 0.06298237293958664], [0.15585793554782867, 0.10245512425899506, -0.47763368487358093, 0.32113412022590637, -0.8050955533981323, 0.24287576973438263, 0.6303717494010925, -0.2610621750354767, 0.4883720576763153, 0.6060206890106201, -0.36157655715942383, -0.6231933236122131, -0.5179017782211304, 0.2808106541633606, 0.41545048356056213, 0.04148644208908081], [-0.12529446184635162, 0.21280741691589355, 0.2034231573343277, 0.721509575843811, -0.37605389952659607, -0.7954773306846619, 0.49378538131713867, -0.21126581728458405, -0.21698494255542755, 0.26164039969444275, 0.7534282207489014, -0.3232790529727936, 0.1348128616809845, 0.20374950766563416, 0.06324969977140427, -0.06977766007184982], [0.4956454336643219, -0.6449888944625854, -0.09521535038948059, 0.4228062033653259, -0.1910654604434967, 0.15714578330516815, -0.2843340337276459, 0.7485523223876953, 0.138778954744339, 0.4200998544692993, -0.19932855665683746, -0.2314385026693344, 0.10486125200986862, -0.06074199452996254, -0.32103201746940613, 0.4926691949367523], [0.32670658826828003, 0.11417370289564133, 0.11334677040576935, -0.09652892500162125, 0.1588764190673828, 0.5934557914733887, -0.02532345801591873, -0.3061695396900177, -0.1510755717754364, 0.07431814074516296, 0.3737093210220337, -0.2544795274734497, 0.8682502508163452, 0.06069877743721008, 0.14837786555290222, 0.13559870421886444], [-0.36628568172454834, -0.6513095498085022, 0.32614555954933167, 0.29157543182373047, -0.11870301514863968, 0.2922971248626709, -0.1639883816242218, -0.040873751044273376, -0.42672982811927795, 0.1080888882279396, 0.06465106457471848, -0.004001592751592398, -0.2324293851852417, -0.363901287317276, -0.47314783930778503, -0.3109269440174103], [0.6307609677314758, -0.657360851764679, 0.3252100944519043, -0.4086587131023407, 0.14058731496334076, -0.010443459264934063, -0.11952745914459229, -0.7680220603942871, 0.41170772910118103, -0.022574467584490776, 0.18949592113494873, -0.07147431373596191, -0.4250878691673279, -0.07277525961399078, -0.016938265413045883, -0.1365506649017334], [-0.524772047996521, -0.2099112868309021, -0.09742598235607147, -0.10370979458093643, 0.5085245370864868, -0.04677097871899605, -0.1628805249929428, -0.3710160255432129, -0.003471235278993845, -0.45689594745635986, 0.2543617784976959, 0.096694216132164, -0.7884085178375244, -0.15386931598186493, -0.07117021828889847, 0.5013964176177979], [-0.44319337606430054, -0.6414008140563965, -0.890258252620697, 0.19925889372825623, -0.6377215385437012, -0.014816656708717346, 0.5081449747085571, 0.14202781021595, 0.32968804240226746, 0.39269569516181946, -0.10559793561697006, -0.10824892669916153, 0.2048223465681076, -0.028810014948248863, -0.3823760449886322, -0.16853414475917816], [0.2555655241012573, 0.5344817042350769, 1.0286790132522583, 0.7267173528671265, 0.23377811908721924, -0.38032472133636475, -0.01190162356942892, 0.03660287335515022, -0.35356247425079346, 0.0986226350069046, -0.4324342608451843, -0.18264572322368622, -0.3648544251918793, -0.18794071674346924, -0.10125082731246948, 0.3046765625476837], [0.01350570097565651, -0.3672647178173065, 0.3161012530326843, -0.4110082685947418, 0.9570534229278564, -0.20909950137138367, -0.13177509605884552, 0.054906170815229416, -0.26227232813835144, 0.4354812800884247, 0.29830050468444824, -0.33311495184898376, 0.03785886988043785, 0.3973158597946167, -0.13615213334560394, 0.38597679138183594], [0.14430144429206848, -0.022761166095733643, -0.2976092994213104, 0.25667670369148254, -0.16485165059566498, 0.1427246630191803, -0.07848235964775085, -0.2633005976676941, 0.1237354576587677, -0.23295006155967712, 0.34113046526908875, 0.03182011842727661, -0.14415505528450012, 0.015233993530273438, 0.3493460714817047, -0.10106804966926575], [0.5755148530006409, -0.4642370343208313, -0.5275254845619202, -0.28156745433807373, -0.056013695895671844, 0.03307749703526497, -0.011124234646558762, 0.13493715226650238, -0.346882700920105, -0.1711430847644806, 0.4331279397010803, -0.475090354681015, 0.2556312382221222, -0.5151262879371643, 0.18129396438598633, 0.42002734541893005], [-0.13110964000225067, -0.23679326474666595, 0.21157005429267883, -0.016157478094100952, 0.08462873101234436, 0.2872444689273834, 0.18672922253608704, 0.0964708924293518, 0.19133618474006653, 0.24205294251441956, 0.10063621401786804, -0.03107580542564392, 0.14389696717262268, -0.3108203709125519, -0.030780822038650513, -0.33088117837905884], [-0.4568032920360565, 0.6716885566711426, 0.11765269935131073, -0.2017214596271515, 0.14755570888519287, 0.4485168755054474, -0.16187165677547455, 0.684577226638794, 0.7223723530769348, -0.5307489037513733, -0.620413064956665, 0.2547091841697693, 0.8933881521224976, -0.24072197079658508, 0.5828207731246948, -0.35800471901893616], [0.16895349323749542, 0.763911783695221, -0.8086790442466736, -0.978329062461853, -0.8610182404518127, -0.4781002104282379, 0.08185423165559769, 0.4020411968231201, -1.253029465675354, 0.2631112039089203, 0.07012299448251724, -0.5913105010986328, -0.18587540090084076, 0.07440578937530518, -0.13115334510803223, 0.24471677839756012], [0.14726808667182922, 0.20762154459953308, 0.01695483922958374, 0.26743629574775696, -0.15222342312335968, -0.016355693340301514, 0.15828540921211243, 0.31437113881111145, -0.017441242933273315, 0.01645103096961975, -0.04868316650390625, 0.09596338868141174, -0.32479429244995117, 0.28139349818229675, -0.0950799286365509, 0.06784766912460327]], "process_times/kernel:0": [[11.291769027709961, -7.601883888244629, -0.18091130256652832, -10.29084300994873, -0.363791286945343, -0.7952405214309692, 0.44461166858673096, 0.9748584628105164, -0.8949984908103943, -0.1767473816871643, 0.020898105576634407, -0.3615051805973053, -0.07092459499835968, -0.06971472501754761, -0.9315429925918579, -2.63574481010437], [-7.614254474639893, -3.5191164016723633, -0.06781888008117676, 7.929628372192383, -0.43230199813842773, 0.27253010869026184, -0.1932523101568222, 9.819804191589355, 0.4288404583930969, 0.6719321012496948, -0.5086293816566467, -0.2099337875843048, -0.14934580028057098, -0.07282769680023193, -0.7860520482063293, 6.081250190734863]], "process_times/bias:0": [0.03618341684341431, 1.8434739112854004, 0.0, -0.07353184372186661, 0.0, -0.12869243323802948, -0.04633655399084091, -0.6653822064399719, -0.1312820464372635, -0.359062522649765, -0.004211084451526403, 0.0, -0.0002756691537797451, 0.0, 0.165678009390831, -0.10469613969326019], "rnn/lstm_cell/kernel:0": [[-0.16551437973976135, -0.26913878321647644, 0.20288358628749847, 0.9297701120376587, -0.6959803700447083, -0.3423692584037781, 0.3711693286895752, 0.4492773413658142, -0.16197122633457184, 0.6653674244880676, -0.3912450075149536, 0.6603419780731201, 0.6608003973960876, 0.06458178907632828, -0.6856157183647156, -0.2740672528743744, 0.5771393775939941, -0.007363773882389069, 0.45792701840400696, 0.13637475669384003, 1.1047439575195312, 0.013131767511367798, -0.3759303390979767, -0.7524382472038269, -0.8297837972640991, -0.6566022038459778, -1.3446977138519287, -1.3318700790405273, -0.8909661173820496, -1.7033357620239258, 1.5781835317611694, -0.20416654646396637, -0.1803780198097229, 0.6358115673065186, -0.10649661719799042, -0.14958128333091736, -0.49015578627586365, -0.20163887739181519, 0.10322108119726181, 0.19501078128814697, 0.2721303403377533, -0.6368471384048462, -0.5501197576522827, -0.48460134863853455, 0.036731649190187454, 0.12140743434429169, 0.5585443377494812, 1.0625207424163818, 0.31062638759613037, 0.2892722487449646, 0.139581099152565, 0.18299399316310883, 0.35194987058639526, 0.42645716667175293, -0.06411144137382507, 0.13396212458610535, 0.5423972010612488, 0.2764195203781128, 0.3181075155735016, 0.7141330242156982, 1.14798104763031, 0.09406983107328415, 0.33891502022743225, 0.7228686213493347], [1.044476866722107, 1.053675651550293, 0.10613416880369186, -0.7586943507194519, 0.4111758768558502, -0.05514756217598915, 0.03456335887312889, -0.5026634931564331, 0.2648862600326538, -0.22604800760746002, 0.24827119708061218, 0.10429892688989639, -0.35586434602737427, -0.2511168122291565, -0.04913440719246864, 0.15199393033981323, 0.5587542057037354, 0.4338560402393341, 0.21698158979415894, 0.1487981379032135, -1.1188602447509766, 0.3956255316734314, -0.5442671775817871, 0.26724234223365784, 0.4565899074077606, -0.05300772562623024, 0.8219718337059021, 0.07952988147735596, 1.0613353252410889, 0.39544203877449036, -1.0254523754119873, 0.11769145727157593, -0.22908349335193634, 0.4759478271007538, 0.38476333022117615, -0.1355505883693695, -0.019741252064704895, 0.24686813354492188, 0.018669497221708298, -0.20436178147792816, 0.04805425554513931, 0.2740670442581177, 0.10260535031557083, -0.02815742790699005, -0.20981620252132416, 0.3335067629814148, 0.27380624413490295, 0.5242597460746765, 0.4039600193500519, 0.5130845308303833, 0.548340916633606, 0.262387752532959, 0.3417140245437622, 0.35381990671157837, -0.07173694670200348, 0.2471342831850052, -0.04146401584148407, 0.37275198101997375, 0.13031655550003052, 0.19669003784656525, 0.16457577049732208, 0.3827298581600189, 0.31408625841140747, 0.39045464992523193], [-0.058095961809158325, -0.05755908787250519, -0.2093733698129654, 0.22982826828956604, -0.20067600905895233, -0.0073326826095581055, 0.22166460752487183, 0.035955220460891724, -0.08904550969600677, 0.2140333652496338, -0.10441721975803375, 0.15583747625350952, 0.06573861837387085, 0.18002447485923767, 0.2216266691684723, 0.13564229011535645, 0.21903803944587708, -0.1929464340209961, -0.10950494557619095, -0.0834941416978836, 0.0006138086318969727, 0.12113109230995178, -0.12009415775537491, -0.18378552794456482, 0.11446818709373474, -0.164907306432724, -0.16834422945976257, -0.14367905259132385, -0.15617860853672028, 0.15684986114501953, 0.21868950128555298, 0.14020225405693054, -0.1417139321565628, 0.13101285696029663, -0.19188565015792847, 0.1469917595386505, 0.06475645303726196, -0.07075382769107819, -0.18980474770069122, -0.13918577134609222, 0.23026731610298157, 0.05596739053726196, -0.0719643235206604, -0.09489011764526367, 0.09481292963027954, -0.031147047877311707, 0.21376577019691467, -0.17366471886634827, -0.14486262202262878, -0.03933286666870117, -0.11652214825153351, 0.0971992015838623, -0.10806693136692047, 0.02026277780532837, 0.018263310194015503, 0.12766975164413452, 0.06746155023574829, 0.01425442099571228, 0.12298223376274109, -0.023491203784942627, -0.03658975660800934, 0.15193241834640503, -0.20437481999397278, -0.19061236083507538], [0.1100396141409874, -0.36802467703819275, 0.317918062210083, -0.07551529258489609, 0.4152740240097046, 0.21886755526065826, 0.2262408286333084, 0.3554142713546753, 0.265927791595459, -0.1846252828836441, 0.3154335916042328, 0.00039021915290504694, -0.7054848074913025, -0.015889056026935577, 0.20693962275981903, 0.22634993493556976, 0.37495023012161255, 0.03473709896206856, -0.36072301864624023, -0.1937461644411087, -0.4680100083351135, 0.6874449253082275, 0.08076507598161697, 0.33086875081062317, 0.2960015535354614, 0.08283385634422302, 0.9329630136489868, -0.2715418040752411, 0.9046090245246887, 1.5803593397140503, -0.9386101365089417, 0.09256351739168167, -0.009994356893002987, -0.08575558662414551, 0.28485482931137085, 0.17303788661956787, 0.21998155117034912, 0.14707018435001373, 0.08696760982275009, 0.3084138333797455, 0.16132499277591705, 0.11198108643293381, -0.14199396967887878, 0.3152681291103363, -0.006873713806271553, 0.21819214522838593, 0.18732967972755432, 0.0677177682518959, 0.45801860094070435, 0.3612159192562103, 0.043368592858314514, 0.28561607003211975, 0.14776889979839325, 0.07090877741575241, 0.31062066555023193, 0.09078080207109451, 0.023361774161458015, 0.29485318064689636, 0.13250315189361572, -0.22390805184841156, -0.1597084403038025, 0.26673567295074463, 0.09224072843790054, -0.09789030253887177], [0.08312743902206421, -0.01047128438949585, 0.19229871034622192, 0.11204034090042114, -0.18475356698036194, -0.1388845294713974, 0.20566880702972412, 0.002391248941421509, 0.21567600965499878, 0.02527788281440735, -0.22420236468315125, -0.22837668657302856, -0.10031303763389587, 0.22526699304580688, -8.977949619293213e-05, -0.051728323101997375, -0.19492767751216888, -0.025570005178451538, -0.09552058577537537, -0.07360178232192993, -0.22021542489528656, -0.12073466926813126, 0.199528306722641, -0.22905714809894562, 0.1100122332572937, 0.025250732898712158, -0.09408411383628845, -0.1575595736503601, 0.026583939790725708, 0.032729268074035645, -0.17631831765174866, -0.0007574409246444702, 0.13184159994125366, -0.11171448230743408, 0.08470380306243896, 0.08032655715942383, -0.05321209132671356, 0.12712213397026062, 0.0987761914730072, 0.22407084703445435, 0.08099699020385742, 0.10076713562011719, 0.030886858701705933, 0.2156449854373932, 0.1596706509590149, 0.19782397150993347, 0.14499005675315857, 0.03748312592506409, -0.16871899366378784, -0.10606488585472107, -0.16492751240730286, 0.20811215043067932, 0.04453912377357483, -0.21921402215957642, 0.05716186761856079, 0.11532527208328247, 0.06858611106872559, -0.19051909446716309, 0.20196226239204407, -0.008778601884841919, 0.10593068599700928, 0.1598360240459442, 0.13998091220855713, 0.17489883303642273], [0.3813706934452057, -0.39980408549308777, -0.7667934894561768, -0.14853690564632416, 0.05244620516896248, 0.03554573282599449, 0.15695729851722717, 0.09699703007936478, 4.4444324885262176e-05, 0.009868912398815155, 0.11891055852174759, 0.05265652388334274, 0.15587298572063446, 0.02877558022737503, -0.0695047453045845, 0.24100367724895477, 0.18235692381858826, -0.5957044363021851, -0.7338563799858093, 0.4842633903026581, -0.2646762728691101, -0.20222775638103485, 0.289793998003006, -0.04532276466488838, -0.29774990677833557, 0.2766272723674774, -0.21382948756217957, -0.4266316592693329, -0.672966718673706, -0.2618180811405182, -0.05236849561333656, 0.11954963952302933, -0.11018112301826477, 0.05849811062216759, 0.21803002059459686, 0.13274192810058594, -0.03776862472295761, -0.2053290158510208, 0.14858826994895935, -0.07970499247312546, 0.037612468004226685, -0.03793632239103317, -0.12289657443761826, 0.2662874162197113, 0.25262659788131714, 0.15999077260494232, 0.28348246216773987, 0.14921589195728302, 0.024422602728009224, -0.052116069942712784, -0.11844295263290405, 0.13785392045974731, -0.005136392544955015, -0.17731332778930664, -0.12595902383327484, 0.10723418742418289, 0.19001013040542603, 0.23270662128925323, 0.15314112603664398, -0.22328077256679535, -0.04557950794696808, -0.06389325857162476, -0.03698902577161789, 0.23686230182647705], [0.024011706933379173, -0.04513971507549286, -0.053443748503923416, 0.02178381010890007, 0.11326534301042557, -0.18909703195095062, -0.1849573701620102, -0.013212816789746284, 0.05844935029745102, 0.05235893279314041, 0.014536641538143158, 0.2225240021944046, 0.07263965904712677, 0.17815689742565155, -0.048957426100969315, 0.21092307567596436, 0.0747816190123558, -0.1022086888551712, -0.18943876028060913, 0.09833703190088272, 0.006165261846035719, 0.2422623634338379, -0.20393940806388855, 0.12601213157176971, -0.04135090485215187, 0.1444217562675476, -0.15805739164352417, -0.023558445274829865, 0.20293377339839935, -0.0985456258058548, -0.18769048154354095, -0.22728882730007172, -0.22413305938243866, -0.006689579226076603, 0.22550170123577118, -0.0788068175315857, 0.04207700863480568, 0.03317207470536232, 0.21640218794345856, 0.13725236058235168, 0.18077057600021362, -0.02261374145746231, 0.11479461193084717, 0.05718855932354927, 0.19977840781211853, 0.1746813952922821, -0.13387487828731537, 0.08131277561187744, 0.010747738182544708, 0.11217687278985977, 0.12192200124263763, -0.14330025017261505, -0.14691627025604248, -0.04419458284974098, 0.09138879925012589, -0.04972201585769653, 0.09060075879096985, -0.07851581275463104, -0.153134286403656, 0.019166016951203346, -0.11988286674022675, -0.203830286860466, 0.09464841336011887, -0.08202927559614182], [-0.09574854373931885, 0.0492546372115612, -0.9803224802017212, 0.15386684238910675, -0.9023926854133606, 0.2523036599159241, -0.31321245431900024, -0.27485623955726624, -0.2659940719604492, 0.10358013957738876, -0.3407393991947174, -1.0917692184448242, 0.7350966930389404, -0.017084619030356407, -0.39980921149253845, -0.11585729569196701, 0.4054339826107025, -0.9202335476875305, -0.7503988742828369, 0.16706186532974243, 0.2332584410905838, -0.8538964986801147, 0.02360967919230461, 0.01367555558681488, -0.5092445611953735, 0.19357457756996155, -1.2107429504394531, -0.18888378143310547, -1.1605305671691895, -1.9001684188842773, 1.2460604906082153, 0.1155940368771553, -0.1500125676393509, 0.06425923109054565, -0.16617818176746368, -0.07923261821269989, -0.08844318985939026, -0.43467122316360474, -0.240716353058815, -0.12660321593284607, 0.11865808069705963, -0.16408872604370117, 0.01642392762005329, 0.41124850511550903, 0.1026284396648407, -0.09825441986322403, 0.15526172518730164, 0.0872010886669159, 0.6128020882606506, 0.7327368259429932, -0.18225394189357758, -0.23173433542251587, 0.5334659814834595, -0.010999606922268867, 0.2984035611152649, -0.2903040051460266, -0.016916565597057343, 0.08566422760486603, -0.23337380588054657, -0.6380431652069092, 0.36163759231567383, 0.5744891166687012, -0.06682922691106796, -0.04152259603142738], [0.20764541625976562, 0.05130963400006294, -0.6076689958572388, 0.08441607654094696, 0.06496138870716095, 0.2560383379459381, -0.11596065014600754, -0.06440431624650955, -0.1194266527891159, 0.2809476852416992, -0.03270959109067917, 0.03491520509123802, -0.18235832452774048, -0.0724402517080307, 0.18714110553264618, 0.044712863862514496, -0.07944409549236298, -0.7611111402511597, -0.7967252731323242, 0.17102354764938354, -0.23813647031784058, -0.29417484998703003, 0.04236157611012459, 0.18838903307914734, 0.053086839616298676, 0.49299442768096924, -0.11591266095638275, -0.24194040894508362, -0.3783062994480133, -0.43640851974487305, 0.10214748233556747, 0.052349239587783813, 0.029056863859295845, 0.0028803315944969654, 0.3477993607521057, -0.013359290547668934, 0.014813891611993313, -0.10641147941350937, 0.1880888193845749, 0.16710303723812103, 0.25175702571868896, 0.09296105802059174, 0.0863071084022522, -0.1522793173789978, 0.2787071168422699, 0.0076467543840408325, 0.14879541099071503, -0.26204735040664673, 0.009082863107323647, 0.3367115259170532, 0.013415020890533924, -0.19684326648712158, 0.1775486171245575, -0.08138303458690643, -0.11840000748634338, -0.13166078925132751, -0.04758983105421066, -0.027972618117928505, 0.13770431280136108, -0.0853535458445549, 0.24965152144432068, -0.06277281790971756, 0.26466184854507446, 0.23520082235336304], [0.10618992894887924, -0.17018374800682068, -0.22476832568645477, -0.0747799351811409, 0.14817005395889282, -0.14358553290367126, 0.003636330831795931, -0.026995906606316566, 0.12635290622711182, 0.0630970299243927, -0.1658671647310257, 0.09936443716287613, 0.09353715926408768, -0.11101272702217102, 0.0071816821582615376, 0.11804162710905075, 0.4711803197860718, -0.2388375848531723, 0.3131040632724762, -0.31080296635627747, -0.6659055352210999, -0.20899201929569244, -0.41395998001098633, 0.0798276960849762, -0.16970513761043549, -0.10841462761163712, -0.13700692355632782, 0.1524980664253235, 0.17736893892288208, 0.12013580650091171, 0.12621022760868073, 0.07212144881486893, 0.10369923710823059, 0.3127172291278839, -0.17874912917613983, -0.06162304803729057, -0.11779487878084183, -0.22348301112651825, -0.04727436602115631, 0.17148713767528534, 0.16696149110794067, -0.17327584326267242, -0.09525501728057861, 0.15446791052818298, 0.08809176087379456, 0.18126553297042847, 0.019441554322838783, 0.16884933412075043, 0.2128126621246338, -0.044097885489463806, 0.033638980239629745, 0.2517974376678467, 0.10389458388090134, -0.17236381769180298, -0.09436406940221786, 0.16859568655490875, -0.19144584238529205, 0.24265386164188385, 0.11188965290784836, -0.08087804913520813, 0.010366336442530155, 0.18551784753799438, 0.24628707766532898, 0.22594362497329712], [0.1944493055343628, 0.15395820140838623, 0.19692912697792053, -0.0014724195934832096, 0.18165689706802368, -0.037696897983551025, -0.0702069103717804, 0.20786985754966736, 0.1914839744567871, -0.06449770927429199, -0.20782652497291565, -0.08942146599292755, -0.043070971965789795, -0.07134722173213959, -0.07143445312976837, -0.04660843312740326, 0.14208447933197021, -0.1748952865600586, 0.05634226277470589, -0.11020609736442566, -0.08029260486364365, 0.17880494892597198, 0.1754193753004074, 0.20013220608234406, 0.2061178982257843, 0.16585734486579895, 0.13020595908164978, 0.09703610837459564, -0.18443253636360168, 0.17681746184825897, 0.015589673072099686, 0.17825672030448914, 0.10856932401657104, -0.0491524338722229, 0.05318434536457062, 0.1824241578578949, 0.11310043931007385, 0.007528305985033512, 0.04838356375694275, -0.139786496758461, -0.2163006216287613, -0.027580203488469124, 0.08144298195838928, 0.139409601688385, -0.13111992180347443, 0.1484270691871643, -0.17904530465602875, -0.12902042269706726, 0.20994949340820312, 0.08811214566230774, 0.10688921809196472, 0.05912479758262634, -0.10588754713535309, -0.196620374917984, -0.02745126187801361, 0.11957940459251404, 0.14086195826530457, -0.15525951981544495, -0.1034754067659378, 0.12431341409683228, -0.01156354695558548, 0.05340469256043434, 0.050952404737472534, 0.215809166431427], [0.21096447110176086, 0.13921287655830383, 0.13292205333709717, 0.11222463846206665, 0.1006828248500824, 0.1681545078754425, 0.20037314295768738, 0.17289721965789795, 0.04410362243652344, 0.049413830041885376, 0.22839152812957764, 0.20028844475746155, 0.1716899871826172, 0.22971376776695251, 0.03727009892463684, 0.1949148178100586, 0.16688716411590576, -0.04498752951622009, 0.1071772575378418, -0.20171433687210083, 0.10225227475166321, 0.22303783893585205, 0.09087294340133667, -0.1607760787010193, 0.10755178332328796, -0.22414502501487732, 0.0678345263004303, -0.09982830286026001, -0.0945894867181778, -0.1269146353006363, 0.1503472924232483, -0.03843022882938385, -0.18850480020046234, 0.11626914143562317, 0.1004592776298523, -0.14747163653373718, 0.10657814145088196, -0.15989182889461517, 0.11762908101081848, 0.10043200850486755, -0.06252259016036987, 0.09685161709785461, -0.2234991043806076, -0.07965593039989471, 0.0032247453927993774, 0.07985717058181763, -0.05922502279281616, -0.16513246297836304, 0.04464656114578247, -0.17602567374706268, -0.043866321444511414, -0.22258566319942474, -0.16806660592556, -0.099191814661026, 0.0459439754486084, -0.18287384510040283, 0.032813847064971924, 0.16823264956474304, -0.09812463819980621, -0.195936918258667, 0.17132803797721863, -0.06782029569149017, -0.16293363273143768, -0.2111421525478363], [-0.23330570757389069, -0.19738182425498962, -0.06701269000768661, 0.19002431631088257, -0.18587981164455414, -0.10034870356321335, 0.20171722769737244, -0.06652959436178207, 0.135263130068779, -0.15906110405921936, 0.13055802881717682, 0.09592121839523315, -0.10605495423078537, 0.08835746347904205, -0.07887071371078491, 0.06817988306283951, -0.17382381856441498, 0.016354592517018318, 0.035642992705106735, 0.04995647072792053, 0.018640419468283653, 0.027243362739682198, -0.10716774314641953, -0.2104315310716629, -0.18784089386463165, 0.1412939578294754, -0.14721646904945374, -0.12396777421236038, -0.07190582901239395, 0.032951295375823975, -0.016076169908046722, -0.0850091502070427, 0.09580196440219879, -0.14342015981674194, -0.12388763576745987, 0.0006177923060022295, 0.18972301483154297, 0.13035957515239716, 0.20472468435764313, -0.2291715443134308, -0.004218379035592079, 0.1672428548336029, 0.07886049896478653, 0.10050581395626068, -0.07464469224214554, -0.20169487595558167, -0.17329759895801544, 0.09847065061330795, -0.11769068986177444, -0.09755172580480576, 0.08593437075614929, 0.07369134575128555, -0.19768831133842468, 0.030364204198122025, -0.09469479322433472, 0.024938752874732018, 0.06750553846359253, -0.12850134074687958, -0.09503533691167831, -0.007161011453717947, 0.014001176692545414, 0.15021273493766785, 0.22385704517364502, 0.1568872481584549], [-0.08517065644264221, 0.1352367401123047, 0.21301308274269104, 0.0018919557332992554, 0.11012184619903564, 0.16568052768707275, -0.07878552377223969, 0.17161962389945984, 0.1252746880054474, -0.14305317401885986, 0.03550541400909424, 0.043817102909088135, -0.08320029079914093, 0.0787665843963623, 0.1539420783519745, -0.15913057327270508, 0.1415770947933197, 0.1736738383769989, -0.003576815128326416, -0.20415431261062622, -0.07548800110816956, -0.20928573608398438, 0.21757721900939941, -0.1683255285024643, -0.1705101728439331, 0.11172816157341003, -0.0850021243095398, -0.1630699336528778, 0.178857684135437, -0.21722571551799774, -0.13169586658477783, 0.12617897987365723, 0.14230477809906006, 0.17043617367744446, -0.011176079511642456, 0.015367910265922546, -0.13242429494857788, -0.17306239902973175, 0.18864473700523376, 0.09694403409957886, 0.22752642631530762, -0.1480681151151657, 0.21972307562828064, -0.04923829436302185, -0.205886572599411, -0.20009498298168182, 0.06945079565048218, -0.18610775470733643, 0.22157558798789978, -0.012486189603805542, -0.09703134000301361, -0.22553062438964844, 0.12238216400146484, 0.11836186051368713, 0.07221612334251404, 0.031234294176101685, 0.10677918791770935, -0.08138872683048248, -0.04556110501289368, -0.0849849134683609, -0.01828092336654663, 0.15051200985908508, 0.20732209086418152, -0.022445812821388245], [0.23798596858978271, 0.08467698842287064, -0.3838707208633423, -0.02505967766046524, -0.16646486520767212, -0.013136396184563637, -0.24254707992076874, -0.24220922589302063, 0.07064888626337051, 0.21334294974803925, 0.23037266731262207, -0.25224554538726807, -0.27245989441871643, -0.3189747929573059, -0.2502887547016144, 0.303609699010849, 0.6301592588424683, -0.30638250708580017, -0.031318891793489456, -0.021450240164995193, -0.6767368316650391, 0.16904693841934204, -0.10507126897573471, 0.34100279211997986, -0.20193243026733398, 0.009539696387946606, 0.3428148925304413, -0.25457558035850525, 0.23340876400470734, 0.6657938957214355, -0.11887869238853455, 0.030809378251433372, -0.07433097064495087, 0.21749821305274963, 0.17338110506534576, 0.33840054273605347, 0.1430727243423462, 0.15791311860084534, 0.1642794907093048, 0.12410470098257065, 0.019694164395332336, 0.05150265246629715, 0.13852053880691528, -0.08662135154008865, -0.1938435286283493, 0.2713923454284668, 0.02680133283138275, -0.04966540262103081, 0.10890894383192062, -0.06256847083568573, 0.20312179625034332, 0.07405636459589005, 0.002185605466365814, 0.17584140598773956, -0.047186702489852905, 0.23083052039146423, 0.04233710840344429, -0.14258314669132233, 0.19840870797634125, 0.14602243900299072, -0.1567908525466919, -0.1805959939956665, 0.0017157250549644232, -0.09452098608016968], [0.16673937439918518, -0.32923319935798645, -0.08954491466283798, -0.310091495513916, 0.6725763082504272, 0.16654786467552185, 0.1179143562912941, -0.14796416461467743, 0.0885525494813919, -0.06467968970537186, 0.01649285852909088, -0.197336807847023, -0.5472471117973328, -0.09505172818899155, 0.2589333653450012, -0.12806400656700134, -0.25120896100997925, -0.2525882124900818, -0.5625105500221252, 0.18902909755706787, -0.8219540119171143, 0.15076033771038055, 0.13867107033729553, 0.5607146620750427, 0.4886001944541931, 0.3338395059108734, 0.8499797582626343, 0.17301800847053528, 0.6655039191246033, 1.105656385421753, -0.9508628845214844, -0.13839271664619446, 0.20278215408325195, -0.06236964836716652, -0.040228016674518585, -0.01821320690214634, -0.15398719906806946, -0.19036097824573517, 0.2489868402481079, 0.01654195971786976, 0.08110404759645462, 0.10328079760074615, 0.0870634987950325, 0.256032794713974, -0.18029284477233887, -0.07364726811647415, -0.13494755327701569, -0.10125263780355453, 0.2956526279449463, -0.023025372996926308, -0.06247047334909439, 0.15385545790195465, 0.38092881441116333, -0.0625777617096901, 0.2833254933357239, 0.13649526238441467, -0.0939750000834465, -0.01285605039447546, -0.06701800227165222, -0.2960353493690491, -0.38946768641471863, 0.271925687789917, -0.024368058890104294, 0.09792425483465195], [-0.23321673274040222, -0.06787797063589096, -0.13245800137519836, -0.1392447054386139, 0.057218268513679504, 0.2958395183086395, 0.08015693724155426, 0.24007005989551544, -0.08208566904067993, -0.2899228036403656, 0.1317070722579956, -0.3401460647583008, 0.14311818778514862, -0.27273163199424744, -0.01654781959950924, 0.23978224396705627, 0.3154813349246979, 0.15525691211223602, 0.34844622015953064, -0.1871170699596405, -0.015066019259393215, -0.046217918395996094, -0.39007821679115295, -0.16339482367038727, -0.16115687787532806, -0.3184551000595093, -0.2744605541229248, -0.23937629163265228, -0.10820917040109634, 0.22996318340301514, 0.03203514590859413, -0.16163665056228638, -0.20883306860923767, 0.4655161499977112, -0.18695718050003052, 0.5769714117050171, -0.5372394323348999, -0.4008713960647583, 0.10559345036745071, -0.12565940618515015, -0.026239948347210884, 0.22775399684906006, -0.07566200196743011, 0.3227371275424957, -0.15996921062469482, 0.023039771243929863, 0.17405439913272858, 0.4402722120285034, -0.4321715235710144, -0.21599633991718292, -0.035781800746917725, 0.16296546161174774, -0.08739505708217621, 0.009675788693130016, 0.16966848075389862, 0.2610030770301819, 0.5299367904663086, 0.1211198940873146, 0.04355968162417412, 0.012270569801330566, 0.12289431691169739, -0.17032848298549652, 0.4648944139480591, 0.18299882113933563], [0.2549157738685608, -0.008870125748217106, -0.017866626381874084, 0.10011783242225647, -0.19272850453853607, -0.38795384764671326, 0.2319052368402481, -0.1846284568309784, 0.11782559752464294, 0.013333853334188461, 0.8228957653045654, 0.40473324060440063, -0.44169241189956665, 0.6899749040603638, 0.029431117698550224, -0.30354130268096924, -0.04757024720311165, 0.11336856335401535, 0.01636737771332264, 0.12473756074905396, 0.21129898726940155, -0.08771782368421555, 0.0005269207758828998, -0.18603681027889252, -0.5360822677612305, -0.23276519775390625, -0.07682318985462189, 0.1156347393989563, -0.23070503771305084, -0.4216959774494171, 0.27279728651046753, -0.5571522116661072, -0.30223292112350464, 0.042850639671087265, 0.5866501927375793, -0.11498141288757324, 0.7885507345199585, 0.3774237334728241, 0.14271636307239532, 0.3434753715991974, 0.24677592515945435, 0.048548050224781036, 0.1994328647851944, -0.2579911947250366, 0.6420987248420715, -0.03697292506694794, 0.4198873043060303, 0.46638113260269165, -0.1061498150229454, 0.08162745088338852, 0.18876440823078156, 0.4794332981109619, 0.24534641206264496, 0.1558014452457428, 0.07807433605194092, -0.07429036498069763, -0.10577955842018127, -0.02984841912984848, -0.3187410533428192, -0.2509913444519043, -0.09563171863555908, -0.12192423641681671, -0.21533441543579102, -0.09781079739332199], [-0.005838960409164429, -0.35894498229026794, -0.29574981331825256, 0.26109611988067627, 0.42294245958328247, -0.1887715607881546, 0.268952339887619, -0.18194614350795746, 0.5653396248817444, 0.4022936522960663, -0.6985059380531311, -0.26024219393730164, -0.16893614828586578, -0.073869489133358, -0.19449709355831146, -0.3727990686893463, 0.5419902801513672, 0.026305053383111954, -0.3854143023490906, 0.8277155160903931, -0.5713015198707581, 0.022383760660886765, 0.33684584498405457, 0.0554809644818306, 0.035503942519426346, 0.45773574709892273, -0.17404289543628693, -0.04006339982151985, 0.07666527479887009, 0.0790080651640892, -0.4533286988735199, 0.23091229796409607, 0.3327607810497284, -0.20464114844799042, -0.06842376291751862, 0.023186970502138138, 0.43864646553993225, -0.3550664484500885, -0.2664731740951538, 0.29662999510765076, -0.16579249501228333, -0.1869232952594757, -0.08289912343025208, 0.19820037484169006, -0.17574407160282135, -0.20219482481479645, -0.03823990747332573, 0.6351550221443176, -0.009420924820005894, -0.11307567358016968, 0.12489423900842667, 0.2809540927410126, 0.2867955267429352, 0.3450038731098175, -0.06688804924488068, 0.07858844101428986, -0.164230614900589, 0.643684446811676, 0.10371056199073792, -0.1962413489818573, -0.009678461588919163, 0.19844068586826324, 0.08452443033456802, 0.056124623864889145], [-0.5026509761810303, -0.23201383650302887, -0.09445766359567642, -0.16730275750160217, -0.649939239025116, -0.06307987868785858, 0.3927725851535797, -0.09514472633600235, -0.08909255266189575, 0.08847985416650772, 0.08667250722646713, 0.01541370153427124, -0.11287551373243332, -0.08864089101552963, -0.061870213598012924, 0.8493207097053528, 0.15194720029830933, -0.04770145192742348, 0.15949562191963196, 0.5001189112663269, 0.11444894224405289, -0.025537680834531784, 0.11356477439403534, -0.03826894611120224, 0.06496109813451767, 0.3732556104660034, 0.15460528433322906, 0.12567389011383057, 0.0251994039863348, -0.5265520811080933, 0.0064439596608281136, 0.31640714406967163, 0.04612851142883301, 0.3838222920894623, 0.000977004412561655, 0.4233137369155884, 0.6413475871086121, -0.14848534762859344, -0.241863414645195, -0.16644027829170227, 0.19719864428043365, 0.4297600984573364, -0.1536877304315567, 0.033426783978939056, -0.04946001619100571, 0.21741437911987305, 0.25697004795074463, -0.12330006808042526, 0.10300907492637634, 0.34911495447158813, -0.3182808458805084, -0.004208811558783054, 0.003477762918919325, -0.0951734185218811, -0.1014413982629776, 0.016155952587723732, -0.21165627241134644, -0.1500564068555832, 0.40625107288360596, 0.222219318151474, -0.012599088251590729, -0.5249296426773071, 0.2926730811595917, 0.22827449440956116], [0.09674268215894699, -0.38870832324028015, -0.4180070459842682, -0.22157076001167297, 0.47763389348983765, -0.017205221578478813, -0.3010968267917633, -0.050691958516836166, 1.1050821542739868, -0.1865415871143341, -0.0887293592095375, 0.05853353068232536, -0.16267900168895721, -0.12707550823688507, 0.047336265444755554, -0.2076365053653717, -0.11880958825349808, 0.10034985840320587, 0.2863835394382477, 0.29231971502304077, -0.07310730963945389, 0.14060774445533752, -0.08268369734287262, -0.10022225230932236, 0.04483780637383461, -0.2850213050842285, -0.17233909666538239, -0.2909264862537384, 0.08472498506307602, -0.05341961607336998, -0.043098084628582, -0.17995820939540863, 0.13812264800071716, 0.1847490817308426, -0.16804379224777222, -0.5475941300392151, 0.2557589113712311, -0.2160378396511078, -0.2996804416179657, -0.1928340345621109, -0.2996615469455719, 0.3334415555000305, -0.19026435911655426, 0.041237521916627884, -0.2534736096858978, -0.2674345076084137, 0.20717968046665192, -0.23177063465118408, 0.4531349241733551, -0.255194753408432, -0.05885586142539978, 0.05515791475772858, 0.03329849988222122, -0.2460220456123352, 0.20637936890125275, -0.49374204874038696, 0.054697517305612564, 0.3974635899066925, 0.035512231290340424, -0.22087469696998596, -0.1976863443851471, -0.12908273935317993, 0.2520291805267334, -0.2464914321899414], [0.2704276442527771, -0.41375088691711426, -0.5541716814041138, -0.19435711205005646, 0.47553446888923645, 0.08297223597764969, -0.14238803088665009, 0.06194283068180084, 0.18926022946834564, 0.028356488794088364, -0.27102285623550415, 0.028178621083498, -0.348832368850708, 0.1992555558681488, -0.28874704241752625, -0.3565444052219391, -0.06455615162849426, 0.22426967322826385, 0.44639089703559875, -0.10652623325586319, -0.1901698261499405, 0.008423903025686741, -0.26710057258605957, -0.19842427968978882, 0.6451578736305237, -0.3434242904186249, 0.1477719098329544, -0.14358070492744446, 0.282941073179245, 0.15704798698425293, -0.24265752732753754, -0.272494912147522, -0.1773655265569687, -0.0802033394575119, 0.27553632855415344, -0.014647635631263256, 0.1682867556810379, 0.4473037123680115, -0.24383145570755005, -0.46726882457733154, -0.11087468266487122, 0.11389247328042984, 0.3684849739074707, 0.07140975445508957, -0.42217427492141724, -0.01605376787483692, 0.135184183716774, -0.06873110681772232, 0.03763379529118538, 0.08453992009162903, 0.1303832083940506, 0.30187296867370605, 0.1930021494626999, -0.03392854332923889, 0.03339657559990883, -0.39403975009918213, -0.0026017248164862394, 0.029241954907774925, 0.1713373363018036, -0.10098937153816223, -0.5064882040023804, 0.48219284415245056, 0.07997260242700577, -0.1592240184545517], [-0.16788379848003387, 0.3742596507072449, 0.3571307957172394, 0.41025471687316895, -0.5015526413917542, 0.18846681714057922, -0.09029393643140793, 0.03571133315563202, -0.08386240899562836, 0.08017297089099884, 0.7071244120597839, 0.20131990313529968, 0.06232140213251114, -0.010167226195335388, -0.050189193338155746, 0.5505159497261047, -0.10427254438400269, 0.021795500069856644, -0.06863085925579071, -0.14841514825820923, 0.5374143719673157, -0.08099476993083954, 0.09093019366264343, -0.14728623628616333, -0.38355347514152527, 0.32963046431541443, 0.1747460514307022, 0.12702295184135437, 0.08152652531862259, 0.18469876050949097, -0.4052608609199524, 0.19048863649368286, -0.051335856318473816, -0.27511462569236755, -0.23432883620262146, -0.14889810979366302, -0.09726400673389435, 0.17574761807918549, -0.3515501916408539, -0.3138163983821869, 0.28797125816345215, -0.4926838278770447, -0.242261603474617, -0.036923713982105255, -0.15716373920440674, 0.13700328767299652, -0.3450583517551422, -0.4500265121459961, -0.18798959255218506, 0.12927775084972382, -0.0003405184834264219, 0.10320291668176651, 0.19096970558166504, -0.2764028310775757, -0.136559396982193, 0.2368568331003189, 0.14410775899887085, -0.3351458013057709, 0.110519178211689, -0.08387427031993866, 0.027841947972774506, -0.2153283804655075, -0.14348597824573517, -0.1003999412059784], [-0.060018666088581085, 0.19339220225811005, -0.383122980594635, 0.14724740386009216, -0.43414485454559326, -0.3969656825065613, -0.03698277845978737, 0.023298801854252815, -0.5576153993606567, -0.22790569067001343, 0.6007047891616821, 0.11624405533075333, -0.7034342288970947, 0.6145616173744202, -0.02664085291326046, -0.44845983386039734, -0.08707709610462189, -0.40293431282043457, -0.5138425230979919, -0.001239001750946045, -0.1430583894252777, 0.09739647060632706, -0.21029464900493622, 0.28011414408683777, 0.4118212163448334, 0.13130244612693787, 0.17470158636569977, 0.058117497712373734, -0.09207988530397415, -0.026840338483452797, 0.034733086824417114, 0.0848446786403656, 0.050939057022333145, -0.26565712690353394, -0.3447224795818329, -0.5406402945518494, 0.0624716691672802, 0.2824563682079315, -0.17249348759651184, -0.43101468682289124, -0.46021854877471924, -0.7768511176109314, 0.3688182234764099, -0.3509230315685272, 0.23216737806797028, -0.500191867351532, -0.09882549941539764, -0.04101528599858284, 0.049911804497241974, -0.11211510002613068, -0.2351440191268921, -0.05981842055916786, 0.21898199617862701, -0.2557046711444855, -0.014378741383552551, -0.16379031538963318, 0.2985227704048157, -0.3686881959438324, -0.36868715286254883, 0.0450098030269146, -0.13138137757778168, -0.22707784175872803, -0.03878606855869293, 0.42135781049728394], [0.2719051241874695, 0.0179548691958189, -0.46134623885154724, 0.2648217976093292, 0.10781961679458618, -0.3574060797691345, -0.22974732518196106, -0.2870747447013855, -0.07395032048225403, 0.36134040355682373, -0.16899576783180237, -0.13894489407539368, -0.4441416263580322, 0.6379557251930237, -0.17286251485347748, 0.1583259552717209, -0.26128342747688293, -0.3105858862400055, -0.3284386396408081, -0.2170313596725464, -0.437804251909256, 0.0665198341012001, -0.01564151979982853, 0.1836107224225998, 0.657632052898407, 0.4607550799846649, 0.06121997535228729, 0.020359795540571213, 0.16909575462341309, 0.5533555746078491, -0.5379406809806824, 0.04540746659040451, -0.023735912516713142, 0.49345070123672485, 0.7679922580718994, -0.5299789309501648, 0.8774722814559937, -0.1854962259531021, 0.036445364356040955, 0.027419328689575195, 0.5479377508163452, -0.09641970694065094, 0.27567553520202637, 0.025134816765785217, -0.10195101797580719, -0.155156210064888, -0.10610169172286987, -0.25021058320999146, 0.11904961615800858, 0.04084795340895653, 0.21665601432323456, 0.045301470905542374, -0.08841264247894287, -0.10849408805370331, -0.021864330396056175, -0.021829118952155113, -0.027918916195631027, 0.20187382400035858, -0.021328279748558998, -0.024185366928577423, -0.03547699749469757, 0.08265699446201324, 0.17684517800807953, 0.0053029353730380535], [-0.514768123626709, -0.11303512006998062, 0.11255388706922531, -0.676506519317627, -0.07606098055839539, 0.3212665021419525, -0.22907772660255432, 0.16586215794086456, -0.6080870628356934, -0.06872382760047913, 0.11560817807912827, -0.08012396842241287, 0.4360980689525604, -0.6275207996368408, -0.17347654700279236, -0.11206793785095215, -0.2701954245567322, 0.008553717285394669, -0.15620000660419464, 0.01069062203168869, 0.23404984176158905, 0.25206083059310913, 0.2751530110836029, 0.1408804953098297, -0.11595108360052109, -0.13468030095100403, 0.16844703257083893, 0.14590564370155334, 0.2682977616786957, 0.6008654832839966, -0.147907555103302, 0.3872108459472656, -0.030134214088320732, 0.12611247599124908, -0.2999301254749298, 0.18999800086021423, -0.04635865241289139, 0.1282820850610733, -0.27111905813217163, 0.01085485890507698, 0.13860465586185455, -0.047280050814151764, -0.5548695921897888, 0.438736230134964, -0.1551213264465332, -0.08228911459445953, -0.2488958090543747, 0.013429033569991589, -0.20173382759094238, -0.17327812314033508, 0.13538195192813873, -0.036615241318941116, -0.022592265158891678, -0.12206515669822693, 0.011715852655470371, 0.7367854118347168, -0.3348137438297272, -0.06596823781728745, 0.02864840067923069, -0.2522070109844208, -0.27133235335350037, -0.1662902683019638, -0.09487899392843246, 0.03351588547229767], [-0.12328144907951355, -0.05522094666957855, -0.01216385792940855, -0.16009533405303955, 0.04710264876484871, -0.021806558594107628, -0.14734113216400146, -0.04228867590427399, 0.25351133942604065, -0.5551426410675049, -0.2905969023704529, -0.0652773529291153, 0.24585846066474915, -0.519006073474884, -0.23061785101890564, 0.10203485190868378, 0.2650558352470398, -0.12241765856742859, -0.07497099786996841, -0.36516574025154114, 0.07591546326875687, -0.5486643314361572, 0.16150423884391785, 0.280620813369751, -0.530436635017395, -0.03418979421257973, 0.28772467374801636, 0.4877243638038635, 0.14049021899700165, 0.20265831053256989, -0.11353018134832382, 0.39807868003845215, 0.04085354506969452, 0.20320481061935425, -0.25374212861061096, 0.22781260311603546, -0.6692430377006531, -0.18117570877075195, 0.1998194307088852, 0.0446167029440403, 0.056290414184331894, -0.06104755029082298, -0.04673019051551819, 0.31741321086883545, -0.3775424063205719, -0.14020399749279022, -0.24897202849388123, 0.37162455916404724, -0.309739351272583, -0.273110568523407, -0.1805005818605423, -0.25523877143859863, -0.21928365528583527, 0.4758932292461395, -0.1468697488307953, 0.07262412458658218, 0.049395907670259476, 0.18928590416908264, 0.232139453291893, 0.10644759237766266, 0.0788794681429863, -0.295311838388443, 0.2845614552497864, 0.2908903658390045], [0.029367370530962944, -0.06318656355142593, -0.15280498564243317, 0.08934477716684341, 0.17256781458854675, -0.1688597947359085, -0.08529946953058243, 0.016070617362856865, 0.5764570236206055, 0.3032177984714508, -0.10597147792577744, -0.21942277252674103, -0.06117395684123039, 0.0033199237659573555, -0.2886565327644348, -0.14279527962207794, 0.048472389578819275, -0.1376727968454361, -0.1997387856245041, 0.21883495151996613, -0.26305219531059265, 0.06396739929914474, -0.08177879452705383, -0.027482207864522934, 0.1606394201517105, 0.4395771026611328, -0.013018256053328514, 0.011708696372807026, -0.27726998925209045, 0.21023398637771606, 0.14466466009616852, 0.10900925099849701, -0.21298004686832428, 0.2156401127576828, -0.1914568990468979, 0.01932918094098568, 0.1261359304189682, -0.1236080452799797, 0.3590359389781952, -0.2482612282037735, 0.4958083927631378, -0.1696462482213974, 0.1723058968782425, -0.2404831200838089, -0.05961150303483009, -0.26365652680397034, -0.2685324549674988, -0.004303035791963339, -0.22277310490608215, -0.13890540599822998, 0.02744748257100582, 0.2551858127117157, -0.1544375866651535, -0.11498258262872696, -0.45175278186798096, -0.1750113070011139, -0.058703962713479996, -0.10958240181207657, -0.03314421698451042, -0.198216512799263, -0.03205404803156853, 0.030975475907325745, -0.46018683910369873, -0.27068638801574707], [0.6327035427093506, 0.08783235400915146, -0.2671079933643341, 0.3202027380466461, -0.5776345133781433, -0.5463039875030518, 0.07907190173864365, -0.314093679189682, -0.18463796377182007, 0.46738293766975403, -0.1453753113746643, -0.2359657883644104, -0.2326580435037613, 0.6343930959701538, -0.06473016738891602, 0.2711504399776459, 0.15261882543563843, 0.288772314786911, 0.29292064905166626, -0.4552993178367615, -0.16631849110126495, 0.03230888769030571, 0.061080023646354675, -0.14156146347522736, 0.17642363905906677, -0.2826080322265625, 0.08203225582838058, 0.07175672054290771, 0.0633184090256691, 0.17798928916454315, 0.1922696977853775, -0.26965051889419556, -0.2793901264667511, -0.09381422400474548, 0.09655557572841644, -0.5714800357818604, 0.99294114112854, 0.30172744393348694, -0.39267414808273315, -0.3024384677410126, 0.12833435833454132, -0.638860821723938, -0.012755980715155602, 0.5671156644821167, 0.3392632305622101, -0.15337105095386505, -0.26473456621170044, -0.025770148262381554, 0.12158172577619553, 0.5931308269500732, -0.019197339192032814, -0.37289485335350037, 0.2191854566335678, -0.2656213343143463, -0.053032517433166504, -0.20114530622959137, 0.43413785099983215, -0.05560298636555672, -0.002474704524502158, -0.014799551106989384, 0.2261808216571808, -0.1805810183286667, 0.4114723205566406, 0.21604517102241516], [-0.259955495595932, 0.12402164936065674, -0.4909229874610901, -0.3197384178638458, 0.13996820151805878, 0.15912124514579773, 0.2518863379955292, 0.1564982831478119, -0.27024558186531067, -0.3592073321342468, 0.3571796715259552, -0.19039933383464813, 0.04597071185708046, -0.40340524911880493, -0.2223094403743744, 0.01618948020040989, 0.044398240745067596, 0.11936842650175095, 0.5707452297210693, -0.25157400965690613, 0.4885610044002533, -0.13363024592399597, 0.1098579689860344, -0.0251987986266613, 0.0070583936758339405, 0.299716591835022, 0.03224770724773407, -0.11495387554168701, -0.23688216507434845, -0.31909841299057007, 0.07799191772937775, 0.19873753190040588, -0.03253564611077309, -0.08795469254255295, 0.17923559248447418, -0.021205643191933632, 0.08371029794216156, 0.05498887225985527, -0.23306868970394135, 0.06730358302593231, 0.006450694054365158, 0.17582228779792786, -0.20967380702495575, 0.024894049391150475, 0.21723800897598267, 0.14966440200805664, 0.04163481667637825, 0.4899556338787079, 0.042780131101608276, -0.16180773079395294, 0.1394980251789093, -0.33420369029045105, -0.15719269216060638, -0.0670519769191742, 0.30873435735702515, -0.025155022740364075, -0.14995315670967102, -0.11592456698417664, -0.053691036999225616, 0.272638201713562, 0.25033068656921387, 0.030901780351996422, -0.00785642396658659, 0.10454671084880829], [0.48384031653404236, 0.17464333772659302, 0.17636853456497192, 0.24486996233463287, -0.07063981890678406, -0.22130414843559265, 0.0036978472489863634, -0.28351032733917236, -0.5798659920692444, 0.08571013063192368, 0.15755188465118408, -0.44274991750717163, -0.6583149433135986, 0.2791082262992859, -0.42006978392601013, 0.04877188801765442, 0.14686106145381927, -0.2597707509994507, -0.39759838581085205, -0.021363763138651848, 0.03808113932609558, 0.2635801434516907, -0.11518973857164383, 0.08259257674217224, -0.44409582018852234, -0.20806078612804413, 0.07768071442842484, -0.03767935931682587, -0.15447859466075897, -0.2212476134300232, 0.16411428153514862, 0.26158466935157776, -0.0299012903124094, -0.13326150178909302, 0.7396419048309326, -0.44150426983833313, 0.6453433036804199, -0.12982827425003052, -0.01694074273109436, 0.004190936218947172, 0.18514713644981384, 0.06972957402467728, 0.08780626952648163, 0.028199536725878716, 0.04326050728559494, 0.0904495120048523, 0.03984737768769264, -0.16544273495674133, 0.21125905215740204, 0.342670738697052, 0.08310326933860779, 0.24264149367809296, -0.057551153004169464, -0.34094321727752686, -0.17141933739185333, 0.053265076130628586, -0.11450103670358658, -0.07817365974187851, 0.052342064678668976, 0.11635122448205948, 0.17919443547725677, 0.3980031907558441, 0.172819122672081, 0.025211766362190247], [-0.4821692407131195, 0.36384740471839905, 0.500180721282959, -0.11258022487163544, -0.24120448529720306, 0.27031782269477844, -0.036279842257499695, 0.304965615272522, 0.5121020078659058, -0.16805820167064667, 0.34065333008766174, 0.08392208814620972, -0.10301820188760757, -0.25679805874824524, 0.19447509944438934, 0.13810046017169952, -0.05725579708814621, -0.12850648164749146, 0.0966993197798729, -0.3526152968406677, -0.15241123735904694, 0.029784824699163437, 0.1439426839351654, 0.014810532331466675, 0.4325927197933197, -0.2574767470359802, 0.1594616174697876, -0.10777366906404495, 0.06335116177797318, -0.18963366746902466, -0.009732858277857304, 0.35081368684768677, -0.1703013926744461, 0.23136194050312042, -0.22427336871623993, 0.1225525364279747, 0.093501515686512, -0.07096054404973984, 0.12042748928070068, -0.11220883578062057, -0.18929706513881683, -0.17063485085964203, 0.2460251748561859, -0.14582060277462006, 0.021075639873743057, 0.27833402156829834, 0.11160852015018463, 0.26195451617240906, -0.21409881114959717, -0.021095797419548035, -0.16477608680725098, -0.08992873877286911, -0.1926024854183197, -0.11908372491598129, -0.3905998170375824, 0.15760526061058044, -0.4623372256755829, -0.2521858811378479, -0.06752656400203705, 0.3375912010669708, -0.02918296493589878, -0.20203515887260437, -0.1372641623020172, 0.1738055944442749], [-0.1914139986038208, -0.2651643753051758, -0.46783921122550964, 0.09912935644388199, -0.03572060912847519, 0.2963244915008545, -0.09050308167934418, -0.03986339643597603, -0.19362762570381165, 0.24411585927009583, 0.067153699696064, -0.06996382772922516, 0.08528301119804382, -0.21163664758205414, -0.21192869544029236, 0.1504243016242981, -0.2872241735458374, 0.27498146891593933, -0.04322829842567444, -0.07386843860149384, -0.1325318068265915, 0.3523859977722168, 0.22964903712272644, -0.04433375224471092, -0.09757425636053085, 0.06231115758419037, 0.10037056356668472, -0.24368557333946228, -0.2973976135253906, 0.10264835506677628, -0.21282599866390228, 0.24698929488658905, -0.12345950305461884, 0.6416204571723938, 0.7668837904930115, -0.35480156540870667, 0.34482917189598083, 0.10197071731090546, -0.27160224318504333, 0.37950512766838074, 0.31198081374168396, -0.16425266861915588, 0.1977047473192215, -0.22883743047714233, 0.43223559856414795, -0.37441009283065796, 0.10400538891553879, -0.1615782529115677, -0.5138059258460999, 0.05820193886756897, -0.21236403286457062, -0.060524266213178635, 0.012149014510214329, -0.28319817781448364, 0.41970720887184143, 0.5263677835464478, -0.3865604102611542, -0.24957901239395142, 0.13501393795013428, 0.010414347052574158, 0.07042582333087921, -0.14929799735546112, -0.01591489091515541, 0.03213078901171684], [0.7604904770851135, 0.11939220130443573, 0.16437382996082306, -0.6289984583854675, -0.46614980697631836, -0.22617414593696594, -0.3157968521118164, -0.16481061279773712, 0.10964842140674591, -0.10058175027370453, -0.16948482394218445, 0.1565651148557663, -0.21626493334770203, 0.44379475712776184, 0.5541535019874573, -0.33321714401245117, 0.3900604546070099, -0.8160407543182373, -0.10657578706741333, -0.47110846638679504, 0.4087384045124054, -0.8554015159606934, -0.9425403475761414, 0.30783239006996155, -0.33197394013404846, 0.12767134606838226, -0.027525749057531357, 0.7782993316650391, 0.4762568771839142, -0.4002992510795593, 0.5785626173019409, -0.9355878829956055, 0.1573031097650528, 0.43671751022338867, 0.19334709644317627, 0.3878463804721832, -0.4992077946662903, 0.19520866870880127, -0.034831177443265915, -0.33226916193962097, -0.6222124099731445, 0.6971907019615173, 0.2666653096675873, 0.3416219651699066, 0.0382048524916172, 0.07415111362934113, -0.2951750159263611, 0.2391875684261322, 0.19915378093719482, -0.03656495362520218, -0.11689691990613937, 0.22591495513916016, -0.18868234753608704, 0.3438417315483093, -0.18521015346050262, -0.21506524085998535, -0.4313816428184509, 0.1761619597673416, -0.11077880859375, -0.18150195479393005, 0.14782989025115967, -0.07919416576623917, 0.2368580400943756, 0.042057380080223083], [0.1883149892091751, 0.37109997868537903, 0.46542268991470337, -0.6862367391586304, -0.12016569823026657, 0.11971165239810944, -0.22142328321933746, 0.1263214498758316, -0.002781536430120468, -0.5022727847099304, -0.10582073032855988, -0.1723431646823883, -0.10992366075515747, -0.02818695642054081, 0.19461117684841156, -0.385715126991272, 2.5492377281188965, 0.3324442505836487, 0.12613944709300995, -0.6755184531211853, -0.5615750551223755, 0.13367949426174164, -0.5139912366867065, -0.2530996799468994, -0.49814048409461975, -0.24486424028873444, 0.11978163570165634, 0.011607305146753788, 0.4403553307056427, 0.1283695548772812, -0.02643497660756111, -0.96597820520401, 0.11282720416784286, -0.8978137373924255, 0.3511088490486145, 0.18394887447357178, -0.028050102293491364, -0.24650932848453522, -0.016710713505744934, 0.40426141023635864, -0.1856805980205536, -0.31004583835601807, -0.29369884729385376, 0.28745317459106445, 0.2571795582771301, 0.04061227664351463, -0.17649951577186584, 0.10797810554504395, -0.13897280395030975, -0.18434612452983856, 0.1294373869895935, 0.39874088764190674, 0.09991297870874405, -0.17667846381664276, -0.11596225202083588, 0.29682472348213196, -0.3549919128417969, -0.059697721153497696, -0.3887920677661896, -0.11777506023645401, 0.008883591741323471, -0.2220074087381363, -0.12518714368343353, 0.005553890950977802], [-0.009151510894298553, 0.9148893356323242, 0.05990364030003548, -0.4702182710170746, -0.1612529307603836, -0.18177445232868195, 0.21460427343845367, 0.17966726422309875, 0.20565219223499298, 0.2568838894367218, -0.1339622139930725, -0.3665734827518463, -0.33068063855171204, -0.5151430368423462, 0.39486566185951233, 0.28790518641471863, -0.33103251457214355, 0.10462433099746704, -0.19014181196689606, -0.9548093676567078, -0.1712191253900528, -0.6243801116943359, 0.12985196709632874, -0.15823452174663544, 0.0441226027905941, -0.07914525270462036, 0.1866118460893631, -0.39384663105010986, -0.18184812366962433, 0.08848447352647781, -0.33001944422721863, 0.05992262065410614, -0.047704413533210754, 0.29045164585113525, -0.10704643279314041, -0.255767285823822, -0.10255445539951324, -0.17694513499736786, -0.1689274162054062, -0.24598634243011475, -0.0010590780293568969, -0.26363176107406616, -0.09254485368728638, -0.05222824960947037, -0.14717896282672882, 0.16073930263519287, -0.1157355085015297, 0.204292431473732, -0.20356059074401855, 0.18648673593997955, -0.22401481866836548, -0.3932027816772461, -0.0030989248771220446, 0.2595721185207367, 0.32667556405067444, 0.0004379857564345002, -0.018152814358472824, -0.05796105042099953, -0.3098192811012268, -0.29813045263290405, 0.10076139122247696, -0.04091135039925575, 0.2026693969964981, -0.04404632747173309], [-0.07617144286632538, -0.3044228255748749, 0.4422307312488556, 0.35918253660202026, -0.4084990322589874, -0.5156684517860413, -0.11846788972616196, 0.023885728791356087, -0.24141590297222137, 0.46474477648735046, -0.42489489912986755, 0.10583554953336716, 0.10404128581285477, 0.12368179857730865, 0.19366540014743805, 0.5477012395858765, 0.20854231715202332, -0.019096355885267258, -0.29968658089637756, -0.25740405917167664, -0.13332806527614594, -0.37965500354766846, 0.16468918323516846, 0.24207614362239838, -0.09406250715255737, -0.17344103753566742, -0.2048889547586441, 0.161495640873909, 0.071983203291893, 0.18448464572429657, 0.19779807329177856, 0.13703182339668274, 0.42488446831703186, -0.1374252587556839, -0.3640357255935669, 0.37064239382743835, -0.3058108687400818, -0.2922652065753937, 0.15418025851249695, -0.025905629619956017, 0.20723450183868408, -0.18942047655582428, -0.246024951338768, -0.34560108184814453, -0.5742271542549133, -0.005583152640610933, 0.04466819390654564, -0.14217424392700195, -0.2908251881599426, 0.13201197981834412, -0.07951324433088303, 0.15894752740859985, 0.23747457563877106, 0.3719118535518646, 0.16249173879623413, -0.48015642166137695, 0.4204116761684418, 0.1376354694366455, -0.2222212255001068, -0.24121525883674622, -0.17125898599624634, -0.015623603016138077, 0.05961263179779053, 0.1683093160390854], [0.7834396958351135, 0.684403121471405, 0.39802873134613037, 0.06993763893842697, 0.07774709165096283, -0.002806667471304536, 0.004704825114458799, 0.04801230877637863, 0.5204475522041321, 0.3974854052066803, 0.03290119022130966, 0.3129579722881317, 0.6865460872650146, 0.14436756074428558, 0.3903068006038666, -0.10900188982486725, -0.5111435055732727, -0.3062325119972229, -0.15210512280464172, -0.1109388992190361, -0.26375123858451843, -0.2444654107093811, 0.019601834937930107, -0.0877595841884613, -0.26138967275619507, -0.09980520606040955, 0.08032816648483276, 0.1710546612739563, -0.08627159148454666, 0.049941204488277435, 0.24122436344623566, -0.2990463376045227, 0.029239220544695854, 0.3463805615901947, 0.3350087106227875, -0.07534041255712509, 0.52068692445755, 0.07707137614488602, 0.20247478783130646, -0.11578164249658585, -0.1506441980600357, -0.052237607538700104, 0.14232030510902405, 0.46363532543182373, -0.05110212787985802, 0.22414802014827728, -0.1610650271177292, -0.1314961463212967, -0.0066118729300796986, 0.05056120455265045, -0.10437370836734772, -0.24999582767486572, 0.06227065250277519, -0.2302045375108719, -0.24896438419818878, 0.19757181406021118, -0.08085813373327255, 0.029815487563610077, 0.35903045535087585, 0.35845205187797546, -0.0787888616323471, 0.18433867394924164, -0.048528801649808884, -0.07367348670959473], [-0.28622671961784363, 1.1519927978515625, 0.6550592184066772, -0.22013475000858307, 0.3976670503616333, -0.3898112177848816, 0.0703321024775505, -0.16726195812225342, -0.33854418992996216, 0.34258925914764404, -0.1341433823108673, 0.28863492608070374, -0.05885489284992218, 0.15170219540596008, -0.26576173305511475, 0.17127686738967896, 0.03220996633172035, 0.8559103012084961, 0.3289330005645752, -0.03723359853029251, 0.33764904737472534, 0.6137637495994568, -1.2132409811019897, 0.43191197514533997, 0.28733551502227783, 0.18043525516986847, 0.00519150123000145, -0.38884854316711426, 0.43546196818351746, 0.11596978455781937, 0.16571585834026337, -0.39611688256263733, -0.31193506717681885, -0.35497578978538513, 0.26581886410713196, 0.3280584216117859, -0.6015327572822571, -0.4765338599681854, -0.25814297795295715, -0.49555617570877075, 0.06303944438695908, -0.00659189373254776, -0.1567184329032898, -0.02630644477903843, 0.07668173313140869, -0.0836392194032669, 0.1331254243850708, -0.0032235467806458473, -0.42866116762161255, -0.31288036704063416, 0.05798274651169777, 0.2042320817708969, 0.1312091201543808, -0.26870298385620117, -0.241286501288414, -0.4822341799736023, -0.2910754978656769, -0.19858019053936005, -0.5378468036651611, -0.03688731789588928, -0.2202317714691162, -0.21309582889080048, -0.24898143112659454, -0.12595684826374054], [0.6060049533843994, -0.04604518041014671, -0.22777917981147766, 0.08641190826892853, 0.34088367223739624, -0.07098334282636642, 0.054069288074970245, 0.14236173033714294, -0.45469754934310913, -0.49014997482299805, 0.41080546379089355, 0.47936615347862244, 0.3844222128391266, 0.0752665251493454, -0.14981694519519806, 0.4747505486011505, -0.11122557520866394, 0.5753250122070312, 0.5687885284423828, 0.3082665205001831, 0.6016246676445007, 0.8111043572425842, -0.4252365231513977, -1.047752022743225, 0.04238811507821083, -0.930497944355011, -0.3048439919948578, -0.5129400491714478, -0.5074325799942017, -0.3884224593639374, 0.044950131326913834, 0.9028071165084839, -0.5071335434913635, 0.2504905164241791, 0.029070982709527016, 0.5821801424026489, -0.3429293930530548, -0.371132493019104, -0.17304174602031708, 0.01490569207817316, -0.1078265905380249, -0.06602606177330017, 0.22112029790878296, -0.0036294900346547365, 0.285388708114624, -0.07659441232681274, -0.1715158075094223, -0.2340671569108963, -0.1285974234342575, 0.09098514169454575, -0.09170399606227875, 0.5277960896492004, -0.24598444998264313, -0.24143461883068085, -0.019248364493250847, 0.10178741812705994, -0.2808818817138672, -0.0831308364868164, 0.37282654643058777, -0.011530841700732708, 0.005641871597617865, 0.12736228108406067, -0.40419134497642517, -0.09317222982645035], [0.30589795112609863, 0.11889199912548065, -0.3189023733139038, 0.1687270551919937, -0.2281704694032669, 0.1424640417098999, -0.3225751221179962, 0.5435101985931396, -0.04594798386096954, 0.0001868324907263741, 0.033191338181495667, 0.4135324954986572, 0.40036827325820923, 0.16008035838603973, -0.007652433589100838, -0.3272766172885895, -0.051558587700128555, -0.1732196807861328, 0.30908745527267456, -0.05426354333758354, 0.8848616480827332, -0.3069247007369995, -0.204400897026062, 0.06189689785242081, -0.9556512832641602, 0.321013867855072, -0.2896830141544342, -0.5798442363739014, -0.5616835355758667, -0.7193109393119812, 0.1346476972103119, -0.31751230359077454, -0.10435407608747482, -0.6181266903877258, 0.1632011979818344, 0.019971024245023727, 0.5536260008811951, 0.15778712928295135, -0.09832263737916946, -0.17597010731697083, -0.02463585138320923, -0.25201526284217834, 0.08745916932821274, 0.4004024267196655, 0.3284221589565277, 0.11045043170452118, 0.013701413758099079, -0.2505832314491272, 0.2686474919319153, -0.19771161675453186, -0.006519116926938295, 0.127363920211792, -0.02745411917567253, 0.05950649455189705, -0.17268496751785278, -0.04846253618597984, -0.08209934085607529, -0.007356549147516489, 0.24180375039577484, -0.24330967664718628, -0.024957604706287384, -0.029074428603053093, -0.004900147207081318, -0.48890209197998047], [0.022946037352085114, -0.29104623198509216, -0.0017823567613959312, 0.12441287934780121, 0.4928545355796814, 0.17363998293876648, -0.03125685080885887, 0.2966121733188629, 0.030215680599212646, 0.2198258638381958, 0.5822651386260986, 0.09913895279169083, 0.011401502415537834, -0.5435962677001953, 0.0468144528567791, 0.051125768572092056, 0.45078468322753906, -1.1261314153671265, 0.19974544644355774, 0.38191473484039307, 0.45459723472595215, -0.1985606849193573, 0.7990231513977051, -0.17979444563388824, -0.055152732878923416, -0.3588874340057373, -0.3720998466014862, 0.2816044092178345, 0.1997714638710022, 0.250449001789093, -0.21068327128887177, -0.028855236247181892, -0.16757461428642273, -0.2428089827299118, -0.4010881781578064, -0.5554434061050415, -0.12786804139614105, -0.21148507297039032, -0.399811714887619, 0.3565155267715454, 0.3100005090236664, -0.18679200112819672, 0.10268373787403107, -0.011028683744370937, 0.06883732229471207, 0.09829506278038025, -0.07492194324731827, -0.342781662940979, -0.21875040233135223, -0.3359556496143341, -0.5165367722511292, -0.4293249547481537, -0.05315128341317177, -0.1729995757341385, -0.17710742354393005, -0.07165318727493286, 0.11987216770648956, -0.26582077145576477, 0.3452181816101074, 0.06780359148979187, -0.25795045495033264, -0.10215677320957184, -0.05341562628746033, -0.029473314061760902], [-0.2343703657388687, -0.01991121657192707, -0.5057590007781982, 0.7969764471054077, -0.33567750453948975, -0.3809548318386078, 0.23445941507816315, -0.10525386780500412, -0.29624760150909424, 0.0901155099272728, 0.3086836338043213, -0.14575284719467163, -0.030314631760120392, 0.003437784966081381, 0.37267792224884033, 0.06365858763456345, -0.001933150109834969, 0.3328218162059784, 0.15981750190258026, 0.9963665008544922, -0.30527767539024353, -0.3228413760662079, -0.4327884316444397, -0.10560987889766693, 0.17119774222373962, 0.9467241168022156, -0.33728188276290894, -0.4329439103603363, -0.3293607234954834, 0.4685344398021698, -0.7304815053939819, 1.1037482023239136, 0.26092928647994995, 0.36283066868782043, 0.06260836124420166, 0.2019016593694687, -0.022155409678816795, 0.004703549202531576, 0.17467698454856873, 0.012260131537914276, 0.010783098638057709, 0.08200196921825409, -0.03331248089671135, -0.5791750550270081, -0.25613918900489807, 0.2543143928050995, -0.040031954646110535, 0.022630106657743454, -0.03859927877783775, -0.08747277408838272, -0.5478079915046692, 0.4128144681453705, -0.30588439106941223, -0.2615679204463959, 0.20348280668258667, -0.2058035135269165, -0.10882337391376495, -0.12580089271068573, 0.2074044793844223, -0.14347577095031738, -0.03824419155716896, -0.13809092342853546, 0.41352465748786926, -0.025577779859304428], [0.0034166218247264624, 0.26550745964050293, -0.1504342257976532, -0.2122393250465393, -0.45244547724723816, -0.17367593944072723, -0.018665088340640068, 0.06760905683040619, -0.4417558014392853, 0.09811260551214218, -0.13623842597007751, 0.205363929271698, -0.07530581951141357, -0.11878837645053864, -0.12155807018280029, -0.3902859389781952, -0.10531338304281235, -0.30362701416015625, -0.39945149421691895, -0.38214635848999023, -0.008363236673176289, -0.31168755888938904, -0.24825003743171692, -0.18220895528793335, -0.35950618982315063, 0.32237496972084045, -0.16372092068195343, 0.2884884476661682, -0.44840025901794434, -0.03550584241747856, 0.12784849107265472, -0.5295073390007019, 0.4360751807689667, 0.48444414138793945, 0.3101699650287628, 0.37465399503707886, -0.2982712984085083, -0.14221608638763428, -0.1331547200679779, -0.3748423457145691, 0.08850326389074326, -0.3263116776943207, 0.10295163094997406, -0.4403843879699707, 0.12129268050193787, -0.21412894129753113, 0.24163173139095306, -0.24730226397514343, 0.1389784961938858, 0.32874906063079834, -0.015508274547755718, 0.3479175865650177, -0.1285051852464676, 0.1369950771331787, -0.2674815058708191, -0.1470637321472168, 0.22568657994270325, 0.006159243173897266, -0.25080275535583496, -0.23567894101142883, 0.09990978240966797, 0.10524515807628632, -0.0326007716357708, -0.14451031386852264], [0.0781634971499443, -0.2708706855773926, 0.18726733326911926, 0.28377798199653625, -0.7358143329620361, 0.21914169192314148, 0.10416938364505768, -0.3398860991001129, 0.10285315662622452, 0.18081003427505493, -0.3857628405094147, 0.2915639281272888, 0.18951070308685303, -0.2712240517139435, -0.1140899509191513, 0.7103868126869202, -0.051128897815942764, 0.1939641833305359, 0.044196195900440216, -0.18961216509342194, 0.15952140092849731, -0.51715087890625, -0.22656302154064178, -0.08043643087148666, 0.45891767740249634, -0.00111796660348773, -0.14869530498981476, 0.10959333926439285, -0.3240652084350586, 0.4646850824356079, -0.010742970742285252, 0.5927701592445374, 0.2351170778274536, -0.36763226985931396, -0.16016413271427155, 0.12327423691749573, 0.13349422812461853, -0.542578935623169, -0.1799030900001526, 0.4921836256980896, -0.4802923798561096, 0.3218550980091095, 0.08188743144273758, -0.2863219082355499, 0.006322814617305994, -0.2559238374233246, 0.31590843200683594, -0.2840350568294525, 0.3170439600944519, -0.11717531085014343, -0.270618736743927, 0.25224968791007996, 0.25065770745277405, 0.012892227619886398, -0.018435386940836906, -0.00975080393254757, -0.16930492222309113, 0.1071566566824913, -0.02291247621178627, -0.2593427300453186, 0.2660731375217438, -0.09723851829767227, 0.11036743223667145, -0.2939477860927582], [-0.6125090718269348, -0.43571048974990845, 0.0861884281039238, 0.11189897358417511, 0.07546442002058029, -0.4351273477077484, 0.13203027844429016, 0.03861456364393234, -0.11423347890377045, 0.0979430228471756, -0.15710873901844025, 0.2100626826286316, -0.3980952203273773, -0.061329081654548645, 0.33763858675956726, -0.06320562213659286, 0.02313542738556862, -0.11907859146595001, -0.08137498795986176, 0.642775297164917, -0.1214803010225296, 0.12033463269472122, -0.18070635199546814, 0.42640477418899536, 0.5424515604972839, 0.12193208932876587, -0.3136332035064697, 0.08809532970190048, 0.1883973479270935, -1.135450839996338, 0.41264382004737854, -0.06726309657096863, -0.3217363953590393, -0.13870109617710114, -0.10478883236646652, 0.04771203547716141, 0.20869728922843933, -0.21094636619091034, 0.0028129813726991415, -0.022516772150993347, 0.511294960975647, -0.02621457353234291, -0.25719594955444336, 0.08617446571588516, -0.5300946831703186, -0.5967782139778137, -0.29704374074935913, -0.3812997043132782, 0.0007278380217030644, -0.06341655552387238, -0.15559189021587372, 0.16588352620601654, 0.10535586625337601, -0.24607233703136444, -0.08650397509336472, 0.11662546545267105, -0.0024147320073097944, -0.32067856192588806, -0.03385743126273155, -0.0828310176730156, -0.19830754399299622, -0.100676029920578, -0.39588311314582825, -0.37716102600097656], [-0.04076205939054489, -0.062088895589113235, 0.09817434102296829, 0.0024980015587061644, 0.34849563241004944, 0.3504118025302887, 0.13356876373291016, -0.11121924221515656, 0.067802794277668, -0.5388116240501404, 0.06321272999048233, 0.14012117683887482, -0.24751438200473785, -0.2589539885520935, 0.024989919736981392, -0.18114542961120605, 0.1821921169757843, -0.7144385576248169, 0.12162022292613983, -0.5308804512023926, -0.07617519795894623, -0.595434308052063, -1.0018954277038574, -0.014935609884560108, -0.12744443118572235, 0.3011798858642578, 0.23099319636821747, -0.25830700993537903, 0.43569356203079224, -0.7469687461853027, -0.3428075909614563, -0.4501979351043701, -0.43887409567832947, -0.24371613562107086, 0.271349161863327, -0.06601954251527786, 0.3224542737007141, 0.02518816664814949, -0.011717635206878185, 0.5725715756416321, -0.17349125444889069, -0.01248213928192854, 0.5079403519630432, 0.09780360013246536, -0.4412320554256439, -0.36985844373703003, -0.06963258236646652, -0.27634739875793457, 0.04820014536380768, -0.21760959923267365, -0.22839082777500153, -0.3648466467857361, -0.1990545690059662, 0.15396882593631744, -0.11927806586027145, 0.038338493555784225, -0.0953500047326088, 0.11259086430072784, -0.2134203165769577, 0.37785592675209045, 0.048018746078014374, 0.07313455641269684, -0.08442462235689163, -0.0050981370732188225], [0.2472531646490097, 0.3214901089668274, 0.4295966923236847, -0.3613615036010742, 0.10763983428478241, -0.5404097437858582, -0.08422797918319702, 0.0389942042529583, -0.4148520231246948, 0.546853244304657, 0.017705606296658516, -0.02664746716618538, 0.13412411510944366, 0.3048233091831207, 0.06628219783306122, 0.10690973699092865, 0.03442947566509247, -0.3345430791378021, -0.1385478377342224, 0.053749557584524155, 0.20863275229930878, -0.5300270915031433, 0.4429875910282135, -0.26398149132728577, 0.3874138295650482, 0.27638018131256104, 0.20282380282878876, 0.3790157437324524, -0.03940944746136665, -0.17462298274040222, -0.5182554721832275, -0.4826813042163849, -0.059788528829813004, -0.06850647181272507, -0.024630198255181313, 0.21744252741336823, -0.1464598923921585, -0.21616552770137787, 0.2857484221458435, 0.20612001419067383, -0.41514915227890015, 0.4617733359336853, -0.5194079279899597, -0.2900383770465851, 0.02617424726486206, -0.19663392007350922, 0.1464691311120987, 0.7169297933578491, -0.0643884465098381, -0.00710630789399147, -0.21657653152942657, -0.17560380697250366, 0.1694934070110321, -0.24620236456394196, 0.05810718610882759, -0.12285181879997253, -0.3184041976928711, 0.15157951414585114, 0.022519342601299286, -0.467727929353714, -0.37833449244499207, -0.08007442951202393, 0.03462831303477287, -0.029502378776669502]], "rnn/lstm_cell/bias:0": [-0.2782078981399536, -0.18516135215759277, 0.24211850762367249, -0.6795681118965149, 0.5622469186782837, -0.5307368636131287, 0.5472469925880432, -0.11576053500175476, -0.34529465436935425, -0.29425308108329773, -0.23595543205738068, -0.31842902302742004, -0.21785984933376312, -0.4518340229988098, -0.2846662998199463, -0.9593027830123901, -0.8866978883743286, 0.9815068244934082, 0.37446075677871704, 0.17258721590042114, 0.9097643494606018, 0.7250574827194214, -0.0881006270647049, -0.6046634912490845, 0.047063276171684265, -0.031381282955408096, -0.2882221043109894, 0.5393702983856201, 0.10558982938528061, 1.0293221473693848, -0.24381154775619507, -0.16693921387195587, -0.17619259655475616, -0.22435559332370758, -1.3025175333023071, -0.2342078685760498, -0.5079101920127869, -0.021961549296975136, -0.5933901071548462, -0.5448952913284302, 0.14964556694030762, -0.03994022309780121, -0.34271106123924255, 0.02379656583070755, -0.33012136816978455, 0.3326864540576935, 0.25331416726112366, 0.36726799607276917, 1.056205153465271, 1.2802618741989136, 0.372905433177948, -0.18980568647384644, 0.9082573056221008, 0.8029557466506958, 0.5211711525917053, 0.48203936219215393, 0.11219710111618042, 0.4197051525115967, -0.21382635831832886, -0.0014728468377143145, 0.49872612953186035, 0.8830151557922363, 0.22606199979782104, 0.31592386960983276], "dense_post_0/kernel:0": [[-0.038277518004179, 0.9275998473167419, -0.18383567035198212, -0.945639967918396, 0.3759128749370575, -0.5163549780845642, -0.09171675145626068, -0.3267892003059387, -0.09654390811920166, -0.02981019765138626, 0.5162389278411865, -0.5481255054473877, 0.39675021171569824, -0.14789630472660065, 0.5154209136962891, -0.4122944474220276, -1.213820219039917, 0.38948163390159607, -0.5131401419639587, -0.7819523811340332, 0.7085363268852234, -0.39482125639915466, 0.6483330130577087, -0.04283182695508003, -0.39651572704315186, 0.1165921613574028, 0.8153356909751892, 0.713363766670227, 0.41823625564575195, -0.026362719014286995, -0.2254031002521515, -0.33434608578681946, -0.059783708304166794, 0.27825257182121277, 0.301375150680542, 0.2524435818195343, -0.6277902126312256, -0.3572184145450592, -0.7077755331993103, 0.48825201392173767, 0.25594794750213623, 0.006158188916742802, -0.9409826397895813, 0.18298080563545227, 0.14327464997768402, 0.4931263029575348, 0.48670274019241333, -0.5564813017845154, -0.23159568011760712, 0.7886807918548584, 0.8861982822418213, -0.397653728723526, -0.39921319484710693, 0.7331705093383789, 0.8602691292762756, 0.28994691371917725, 0.2536984384059906, 0.36223629117012024, 0.6600256562232971, -0.3799721896648407, -0.33227473497390747, -0.5272396802902222, 0.024638330563902855, 1.1120884418487549, 0.24759654700756073, -0.5806879997253418, 0.22835330665111542, 0.46475809812545776, -0.01141117513179779, 0.34086188673973083, -1.7495430707931519, 1.0225120782852173, -0.27701708674430847, 0.2943322956562042, 1.4301592111587524, 0.3726978302001953, -0.013443509116768837, 0.486887127161026, 0.8703439235687256, 0.4834105670452118, 0.5484683513641357, -0.21637649834156036, 0.3342614471912384, -0.1610037386417389, 1.0634760856628418, 0.362832635641098, -1.8116679191589355, 0.25955086946487427, 0.09571343660354614, -0.5448089838027954, -0.5503731369972229, 0.468917578458786, 0.06052716076374054, -0.32686078548431396, 0.08766040951013565, -0.06689798831939697, -0.09760864078998566, -0.3759468197822571, 0.07642483711242676, 0.33918657898902893, 0.3976433575153351, -0.6155581474304199, -0.03322974219918251, 0.48536765575408936, -0.11279760301113129, 0.2574865221977234, -0.5887615084648132, -0.5490476489067078, 0.0004759985313285142, 0.3225082755088806, -0.3183688521385193, 0.0662701278924942, 0.1867489516735077, 0.46740126609802246, -0.6109312772750854, -0.3741242587566376, 0.0648878961801529, 1.271522045135498, 0.49054691195487976, -0.034534722566604614, 0.0667986124753952, 1.0240964889526367, -0.5091274976730347, -0.10182712227106094, 0.011947761289775372, -0.06216878816485405, 1.1553736925125122, 0.5232622027397156], [-0.6901317834854126, -1.2770116329193115, 0.03246252238750458, -0.5307239294052124, -0.6737872362136841, 0.2567373216152191, -0.008344840258359909, 0.1571417897939682, -0.3294106721878052, -0.3014114201068878, 0.155612975358963, 2.077453851699829, 0.5368148684501648, 0.6223209500312805, 0.04111524298787117, -0.9627017974853516, 0.15544305741786957, 1.3775516748428345, 0.7161447405815125, 0.011193785816431046, 0.3312816619873047, -1.5394760370254517, 0.7083103656768799, 0.5782671570777893, 1.0926196575164795, -0.9189556837081909, 0.8984812498092651, 1.0021171569824219, -0.6806689500808716, -0.3242728114128113, -0.3279660642147064, -0.0023696902208030224, -0.0572710745036602, -0.5163712501525879, 0.3316040337085724, 0.20360064506530762, 0.630100429058075, -0.5604019165039062, -1.2316893339157104, 0.33847516775131226, 0.415591835975647, -0.8864941596984863, -0.8038855791091919, 0.1823110431432724, 0.18110567331314087, 0.4996509552001953, -0.6968400478363037, 0.9756299257278442, -0.1004297286272049, -0.07729192823171616, -0.23821936547756195, -0.09585847705602646, 0.7285694479942322, 0.47446775436401367, 0.15889158844947815, -1.5281988382339478, -0.44924795627593994, -0.40677082538604736, -0.34404465556144714, 0.4510389566421509, -0.2030256986618042, -0.2193438559770584, -0.31598973274230957, 0.4301154613494873, -0.6466389298439026, 0.03630866855382919, -1.4457193613052368, 0.17128807306289673, 0.17707327008247375, -0.19391122460365295, -0.8071872591972351, -0.19805359840393066, -0.06518269330263138, -0.15271897614002228, -0.3599835932254791, -0.0736159235239029, 0.04141391068696976, 0.08439989387989044, -1.580701470375061, 0.2967405915260315, -0.3810635805130005, -0.9465993046760559, -0.6741378903388977, 1.0514392852783203, 0.5369114279747009, -0.7862987518310547, 0.02957603707909584, 0.1272769421339035, -0.09922108054161072, 0.7869760990142822, 0.6646845936775208, 0.05045819282531738, -0.3637957274913788, 1.6984634399414062, 0.4471973776817322, 0.3316967785358429, -0.11655648797750473, 0.4509257972240448, 0.023475799709558487, -0.7224121689796448, 0.6336278915405273, -0.9308689832687378, 0.038866907358169556, 0.3424946963787079, 0.7889453768730164, -0.03784849867224693, 0.301988810300827, 1.1020420789718628, 0.17240287363529205, -0.4973576068878174, 0.5591455698013306, 0.05880383402109146, 0.06665221601724625, 0.5306119918823242, 1.0311940908432007, -0.771698534488678, -0.430957168340683, 0.03349848464131355, 0.10195097327232361, 0.3560367524623871, -0.3826253414154053, 0.005508984439074993, 1.1366817951202393, -1.3273392915725708, -1.232123613357544, -0.6173176169395447, -0.8066419959068298, 0.7290259003639221], [1.0763920545578003, -0.11038468778133392, 0.18482504785060883, -0.3196951150894165, 0.5259760618209839, 0.2812888026237488, 0.7848357558250427, 0.2911710739135742, 0.1942761391401291, 1.033226490020752, -0.19043734669685364, -0.46740466356277466, 0.3271399736404419, 0.02581951394677162, 0.29544851183891296, -0.06746263802051544, -0.10823928564786911, -0.033582571893930435, -0.5261334180831909, -0.3173251450061798, 0.014636014588177204, 0.13428959250450134, 0.2851090133190155, 0.19599419832229614, 0.08866789191961288, -0.6991977691650391, 0.2546371817588806, 0.2335638701915741, -0.35337334871292114, -0.4510406255722046, -0.9423459768295288, 0.5139923691749573, -0.30204111337661743, -0.26907092332839966, 0.28408190608024597, 0.40465185046195984, -0.46285614371299744, 0.3753749132156372, -0.39828237891197205, 0.33402106165885925, 0.1237209215760231, -0.03262671083211899, -0.20369364321231842, 0.6223567128181458, 0.018759556114673615, 1.1664609909057617, 1.2488640546798706, -0.569936215877533, -0.32734769582748413, -0.485146164894104, 0.2671348750591278, -0.8561921715736389, -0.6926161050796509, -0.13342048227787018, 0.15520498156547546, 0.2821212112903595, 0.3019438087940216, -0.16021108627319336, 0.03529138118028641, -1.0166817903518677, -0.05421212315559387, 0.3666786849498749, -0.1505492627620697, 0.254966139793396, 0.03107444755733013, 2.118093490600586, 0.04107889160513878, -0.08069588243961334, -0.24190346896648407, 0.935218870639801, -0.1974230408668518, 0.4694741368293762, -2.184831142425537, -0.01503631379455328, 0.7979313731193542, 0.4676024317741394, 0.00937561970204115, -0.032732829451560974, 0.534262478351593, 0.7915028929710388, 0.2638421952724457, -0.089955635368824, 0.12865813076496124, -0.38147297501564026, 0.5384794473648071, 0.9051550030708313, -0.6149983406066895, -0.27724969387054443, -0.2905931770801544, -0.14223337173461914, 0.09170573949813843, 0.26730725169181824, 0.16457553207874298, -0.2742652893066406, -0.30932125449180603, -0.6191996932029724, -0.33492279052734375, 0.4130329489707947, 0.16699977219104767, -0.5405694246292114, 0.19576330482959747, 0.17683185636997223, -0.16187863051891327, 0.3178345561027527, 0.3514178693294525, -0.05233306437730789, 2.1996452808380127, -0.14262576401233673, -0.16159072518348694, 0.7356218099594116, -0.5954448580741882, -0.7972985506057739, -2.372913360595703, 0.739719033241272, 0.1420552134513855, 0.44120892882347107, -0.42688795924186707, 0.24877040088176727, 0.2758239209651947, 0.6105389595031738, -0.1279510259628296, 0.18636439740657806, 0.3946920931339264, -0.10704324394464493, 0.040869418531656265, -0.18686960637569427, 0.4060647189617157, -0.14048384130001068], [-0.2655363976955414, 0.2784844934940338, 0.3489822745323181, -0.11899657547473907, 1.539206862449646, 0.574624240398407, -0.5325993895530701, 0.036525506526231766, 0.3548274636268616, 2.246049165725708, 0.1785746067762375, 3.7387430667877197, -0.42851176857948303, -0.2181929498910904, -0.44927239418029785, 0.8712084889411926, -0.3228471279144287, -0.8180710673332214, -0.2507674992084503, 0.14600291848182678, -0.6393322348594666, 0.5523800253868103, -0.08419176936149597, 0.1299191266298294, 1.3419404029846191, -0.5142717957496643, -0.25161150097846985, -0.59996098279953, -0.4140089452266693, 0.19204962253570557, 1.968977689743042, 1.4282108545303345, 0.45190316438674927, 0.837386429309845, -0.7686892747879028, -0.047651804983615875, 0.06886355578899384, -0.016654733568429947, -0.3030850887298584, -0.33638617396354675, 0.2471260130405426, -3.0899672508239746, 0.19313380122184753, -0.21347413957118988, 0.2257075160741806, -0.897681713104248, 0.47581779956817627, -0.52797532081604, 0.5172364711761475, 1.5099526643753052, 0.2681819200515747, -0.14199410378932953, 2.055331230163574, -0.12510353326797485, -0.14541050791740417, 0.1132093146443367, -0.009083351120352745, 0.2810683846473694, 0.9301295280456543, -0.06589530408382416, 0.6180707812309265, 0.20933230221271515, 0.7407950758934021, -0.30993103981018066, 1.4091519117355347, 1.658145785331726, 0.2850537598133087, 0.3909609317779541, -0.2524079978466034, 0.3716764450073242, 0.209730327129364, -0.780481219291687, -0.7807095646858215, 1.0503859519958496, -0.09955134242773056, 0.49977657198905945, -0.06751219183206558, -0.5339151620864868, 0.16060635447502136, -0.4294387698173523, 0.272156298160553, -0.33845943212509155, 0.5768137574195862, 4.1048431396484375, -0.523161768913269, -0.27234283089637756, -0.03246942535042763, -1.1090933084487915, 0.17437617480754852, -0.1181735023856163, -0.3332151770591736, -0.10818890482187271, -0.15809975564479828, -0.6174581050872803, -1.5623244047164917, 1.6878939867019653, 0.7866207361221313, -0.7949956655502319, -0.05895916000008583, 0.3115936517715454, -0.3215731382369995, -0.07261566817760468, -0.16005675494670868, -0.42816078662872314, -0.2657802999019623, -0.21044284105300903, -0.7308680415153503, 0.30251479148864746, -0.23643158376216888, 2.3220362663269043, 1.3541693687438965, 1.0662590265274048, -0.3877226412296295, 0.0673293024301529, -0.45957568287849426, 1.083837628364563, 0.28471070528030396, -0.45565712451934814, 0.3075310289859772, -0.43009325861930847, -0.4267241954803467, -0.1186126247048378, -0.7623199224472046, 1.4523260593414307, -0.20244833827018738, -0.15621209144592285, -0.023961614817380905, -0.3244807720184326], [-0.029629694297909737, 0.24255970120429993, 0.4740387499332428, 0.009372908622026443, -0.4817620515823364, -0.6423797607421875, -0.13625192642211914, -0.5591809749603271, -0.02967311628162861, -0.017856014892458916, -0.6285776495933533, -0.19239504635334015, -0.6481834053993225, 0.4883725643157959, -0.381191611289978, -0.07610219717025757, -0.18044841289520264, 0.03978656232357025, 0.020954778417944908, -0.2136881798505783, 0.21748197078704834, 0.26849812269210815, -0.26089367270469666, 0.14512397348880768, -0.06913606822490692, -0.34137222170829773, 0.6483542919158936, -0.2396710067987442, -0.08618835359811783, -0.5016771554946899, 0.36865293979644775, 0.12507636845111847, -0.6992624402046204, -0.3898787796497345, -0.04807771369814873, -0.5811874270439148, -0.24829788506031036, 0.0659155324101448, -0.3551311194896698, -0.3998408019542694, 0.26862218976020813, -0.10376769304275513, -0.3095051646232605, 0.5260791778564453, 0.061913684010505676, -0.12921006977558136, 0.17907649278640747, -0.552891731262207, 0.4254985451698303, 0.6135842800140381, -0.4565521478652954, -0.19528958201408386, 0.2055901139974594, -0.24792128801345825, -0.5630055665969849, -0.39262309670448303, -0.5916831493377686, 0.5250349640846252, 0.8102637529373169, -0.20975151658058167, -0.24179206788539886, -0.28898483514785767, 0.1700211763381958, -0.21037013828754425, 0.03555239364504814, -0.1844383180141449, -0.14939925074577332, -0.8443853855133057, -0.2880614697933197, -0.21279014647006989, -0.03566712141036987, -0.2688676416873932, -0.6843001246452332, -0.2532433569431305, -0.31986984610557556, -0.5398197770118713, -0.013973952271044254, -0.8157414793968201, 0.2884156107902527, 0.16366688907146454, -0.380988746881485, 0.22308661043643951, 0.4011448621749878, 0.281806081533432, -0.4895150661468506, 0.48463672399520874, 0.4564955234527588, 0.3270125091075897, -0.19113515317440033, 0.20727917551994324, 0.4449976086616516, -0.23192188143730164, -0.2813778519630432, -0.0514238215982914, -0.21825926005840302, -0.043917424976825714, 0.3228658139705658, -0.5957791805267334, -0.06294415891170502, 0.12943768501281738, -0.14061857759952545, 0.14748701453208923, -0.04548845812678337, -0.4611268937587738, -0.6865066289901733, -0.3589097857475281, 0.06898287683725357, -0.5581063032150269, 0.15491637587547302, 0.09740177541971207, -0.20910969376564026, -0.013247114606201649, -0.7373356223106384, 1.367335319519043, -0.592498779296875, 0.3872522711753845, 0.00791073776781559, -0.769508421421051, 0.6995496153831482, -0.6487574577331543, 0.65944904088974, -0.9558385014533997, -0.21445788443088531, -0.19353485107421875, 0.19768379628658295, -0.30388590693473816, -0.5263044238090515, 0.344679594039917], [-0.4268176257610321, -0.1162777692079544, 0.3110848665237427, -0.031959161162376404, -0.3368881046772003, 0.0815594494342804, 0.6568042039871216, -0.5153464674949646, 0.3405493199825287, 0.49950870871543884, -0.1004609540104866, 0.4230153560638428, -0.14109449088573456, 0.3709421157836914, 0.6980481147766113, -0.44909897446632385, -0.325878381729126, -0.3291357159614563, 0.11525562405586243, 0.1963171809911728, 0.46400463581085205, -0.059501711279153824, -0.11156817525625229, -0.13515421748161316, 0.4507569968700409, 0.1138450875878334, 0.19765935838222504, -0.16803590953350067, -0.5938482880592346, -0.23676186800003052, -0.3373643457889557, 0.06603159010410309, -0.02811012789607048, -0.6758948564529419, -0.19405177235603333, 0.39506396651268005, 0.96586012840271, 0.15802064538002014, -0.2211182862520218, -0.12452231347560883, -0.23813171684741974, -0.038220491260290146, 0.5432262420654297, -0.03228646516799927, 0.13186858594417572, 0.5718979835510254, 0.2708825469017029, 0.33123093843460083, -0.20773287117481232, 0.1969136744737625, -0.36750516295433044, -0.800596296787262, -0.3145700693130493, -0.6969593167304993, -0.2677896022796631, 0.08661436289548874, -0.09621768444776535, -0.0665411502122879, -0.16281677782535553, 0.05638621374964714, 0.011774095706641674, -0.1987568885087967, -0.21276968717575073, -0.09333746135234833, -0.31843942403793335, 0.5069455504417419, 0.024311307817697525, -0.13432207703590393, -0.2901855409145355, -0.33094656467437744, 0.2593293786048889, -0.39090779423713684, -0.1624205857515335, 0.06831029057502747, 0.22860471904277802, -0.28364038467407227, 0.18247325718402863, 0.8399640321731567, 0.10735061764717102, -0.1426330953836441, 0.0931050032377243, -0.45796820521354675, -0.3266352415084839, -0.2353789210319519, 0.17314016819000244, 0.42426711320877075, -0.17829565703868866, 0.6224284172058105, -0.2452966868877411, -0.562294602394104, -0.6404581665992737, 0.007679183501750231, 0.24305568635463715, 0.2312493622303009, -0.015439600683748722, -0.6366217732429504, -0.4727013111114502, 0.5007141828536987, 0.08032872527837753, 0.16001617908477783, 0.030988093465566635, 0.36529088020324707, 0.13816677033901215, 0.3739989101886749, 0.3039797246456146, 0.22441720962524414, -0.1283092051744461, -0.2783529758453369, -0.1815676987171173, 0.025494256988167763, -0.4837474822998047, -0.3429262042045593, 0.49318355321884155, 0.1326473206281662, -0.4020307660102844, -0.6080072522163391, 0.4813632071018219, 0.03298221156001091, -0.20020218193531036, 0.2898924946784973, 0.511779248714447, 0.0010874572908505797, 0.050496213138103485, 0.12251598387956619, 0.528112530708313, -0.46855080127716064, 0.36130744218826294, -0.6231352686882019], [0.54498291015625, 0.2945380210876465, 0.42024070024490356, -0.014147404581308365, -0.10272928327322006, 0.34081941843032837, 0.41796034574508667, -0.03765954077243805, -0.796704888343811, -1.2740888595581055, 0.22790537774562836, 1.191842794418335, -0.0024673743173480034, -1.6246858835220337, -0.39304086565971375, 1.6444647312164307, 0.27103152871131897, -0.9644483327865601, -0.3335071802139282, -0.196919783949852, -0.5498209595680237, 0.6595204472541809, 0.3314252197742462, 0.04245559871196747, -0.2359168529510498, 0.6696604490280151, -0.29984280467033386, -0.28737136721611023, 0.7470133304595947, -0.17583614587783813, 1.0656250715255737, 0.9698400497436523, 0.6153943538665771, 0.742981493473053, -0.955322265625, 0.007024787366390228, 0.5421773195266724, 0.3742906451225281, 0.20806840062141418, 0.08341841399669647, 0.2577073872089386, -0.1964530199766159, 0.819873034954071, -0.8579039573669434, 0.2254207879304886, 0.4609425961971283, -0.4289550185203552, 0.7382776141166687, 1.4193506240844727, -0.828227698802948, 0.3622247874736786, 0.6876169443130493, 0.00666447076946497, 0.8157210350036621, -0.11308524757623672, 0.8535603284835815, 0.010598422028124332, 0.7926467657089233, 0.22898226976394653, 0.3585331439971924, -0.42177248001098633, 0.2933265268802643, -0.6074183583259583, -0.39338403940200806, 0.21496935188770294, 0.34636223316192627, 0.18950693309307098, -0.13018885254859924, -1.4689761400222778, -0.293075293302536, 0.6253877282142639, -0.03421859070658684, 0.7632952928543091, -0.11223427951335907, 0.4735110104084015, -0.5002992153167725, 0.02759559080004692, -1.0235271453857422, -0.6279345154762268, 0.11377239972352982, 1.3454973697662354, -0.7794341444969177, 0.2919601500034332, 0.6847293376922607, -0.3163090944290161, 0.6565489768981934, 0.05417592450976372, 1.0958300828933716, 0.8885918855667114, 0.3225007951259613, 0.0863971933722496, -0.015334938652813435, 0.16768032312393188, -0.4581378400325775, 1.0499224662780762, -0.16208507120609283, 0.02608605846762657, -1.0112237930297852, -0.1586633175611496, -1.123548984527588, 0.005722010508179665, 0.330447256565094, -0.08147817105054855, 0.006276770960539579, -0.38312530517578125, 0.12503618001937866, 0.37341779470443726, 1.442702054977417, -0.7175754308700562, -0.5672023296356201, 0.7816411852836609, 0.11676638573408127, -0.003800916951149702, 0.9599142670631409, -0.22797313332557678, -1.1383576393127441, -0.6210812330245972, -0.643604040145874, -0.11704505980014801, 0.05237399414181709, -0.1764225959777832, 0.37670013308525085, -0.3581598103046417, 0.624828577041626, 0.49650678038597107, 0.3007521629333496, -0.18964162468910217, -0.4708239436149597], [-0.6492945551872253, 0.31241849064826965, 0.20456919074058533, -0.17933297157287598, 0.4865800440311432, -0.03393339365720749, 0.5330595970153809, 0.5427146553993225, 1.1020292043685913, -0.3596549928188324, 0.8650602698326111, -0.07030955702066422, 0.21560214459896088, 0.2306285947561264, -0.25807008147239685, 0.8481093049049377, 0.7044443488121033, 0.13491514325141907, -0.061150923371315, 0.5083538293838501, -0.40931233763694763, 0.13891896605491638, 0.2510138154029846, 0.25869572162628174, 1.5742777585983276, -0.07705912739038467, -0.010453448630869389, 0.49072277545928955, -0.10039176791906357, -1.1460185050964355, -0.39583727717399597, -1.533609390258789, 0.5395432114601135, 0.19496476650238037, -0.5271914601325989, 0.22214451432228088, 0.13591894507408142, -0.16457462310791016, -0.7635692954063416, -0.10748530179262161, 0.21965736150741577, -0.5435404777526855, -0.054796572774648666, -0.05970768630504608, 0.21792328357696533, -0.2475586235523224, -0.5562685132026672, 0.12307307124137878, 0.13441500067710876, 0.2533130943775177, 0.11137618869543076, -0.3235165476799011, -0.8389825820922852, -0.03212197497487068, 0.02007823996245861, 0.20534108579158783, 0.2920967936515808, -0.19138702750205994, -0.14996321499347687, 0.5299645662307739, -0.5396158695220947, 0.16619883477687836, 0.7047176361083984, -0.12283454090356827, 0.3125772178173065, 0.3376806974411011, 0.5271750688552856, -0.8884530067443848, 1.341317057609558, -0.5052156448364258, 0.1104799211025238, -0.4988447427749634, -1.0775123834609985, 0.2097170650959015, -0.16168110072612762, -0.5085892081260681, 0.11850934475660324, -0.0750274658203125, -1.1075751781463623, -0.2018251270055771, -0.05302714183926582, -0.6275554895401001, 0.23760445415973663, -0.6687207221984863, -0.11171038448810577, -0.8343766927719116, 0.35235917568206787, 0.5663261413574219, 0.22876322269439697, -0.13536834716796875, 0.48316845297813416, 0.3752455711364746, 0.053234077990055084, 0.6156432628631592, -0.6330522894859314, 0.39106234908103943, 0.3602033257484436, 0.3227791488170624, 0.05591081455349922, 0.0515788197517395, 0.09843915700912476, -0.008512984029948711, -0.16997985541820526, 0.08448410034179688, 0.13301467895507812, 0.32989272475242615, 0.6157609820365906, 0.5196071267127991, 0.36084550619125366, -0.5003960728645325, 0.7500413656234741, 0.7401899695396423, -2.037935495376587, 0.45826396346092224, -0.16596999764442444, -0.82957923412323, -1.5770683288574219, 0.2376219928264618, -0.059687357395887375, -0.6721409559249878, -0.5198053121566772, 0.547759473323822, 1.1211309432983398, -0.012168326415121555, 0.4573872983455658, -0.029194189235568047, -0.1761631965637207, -0.0054457904770970345], [0.4705839455127716, 0.3499293029308319, -0.35119426250457764, -0.072331503033638, -0.03130710870027542, -0.7476503252983093, 0.8403282165527344, -0.035842299461364746, -0.9572820067405701, 0.19993820786476135, 0.27008143067359924, 2.55804705619812, -0.17094670236110687, 0.016577376052737236, 0.23497013747692108, -0.04885914921760559, 0.8859260082244873, -0.20648431777954102, 0.13864371180534363, 0.15426133573055267, -0.026339372619986534, 0.03646741807460785, 0.3191922903060913, 0.09722863137722015, -0.8129943609237671, 0.09084444493055344, -0.21309764683246613, 